{
    "name": "2 Croissants 5v5 NS",
    "description":"5v5 unshared barren moon with evenly spread clusters of metal.  Spawns are laid out in crescent shapes: one team's crescent is oriented north-south; the other one is oriented east-west.  (This map is the same as Euphor but with custom/better spawns for 5v5).",
    "version":"1.0",
    "creator":"Grand Homie",
    "players":[10, 10],
    "planets": [
        {
            "name": "2 Croissants 5v5 NS",
            "mass": 10000,
            "position_x": -600,
            "position_y": -17800,
            "velocity_x": 167.45770263671875,
            "velocity_y": -5.644634246826172,
            "required_thrust_to_move": 0,
            "starting_planet": true,
            "respawn": false,
            "start_destroyed": false,
            "min_spawn_delay": 0,
            "max_spawn_delay": 0,
            "planet": {
                "seed": 1068903808,
                "radius": 500,
                "heightRange": 0,
                "waterHeight": 0,
                "waterDepth": 0,
                "temperature": 0,
                "metalDensity": 50,
                "metalClusters": 50,
                "metalSpotLimit": -1,
                "biomeScale": 50,
                "biome": "moon",
                "symmetryType": "none",
                "symmetricalMetal": false,
                "symmetricalStarts": false,
                "numArmies": 2,
                "landingZonesPerArmy": 0,
                "landingZoneSize": 86
            },
            "planetCSG": [
                {
                    "spec": "/pa/terrain/moon/brushes/moon_crater_02.json",
                    "rotation": 0,
                    "op": "BO_Subtract",
                    "transform": [
                        0.02986142598092556,
                        0.028132429346442223,
                        -0.04572911188006401,
                        -286.8171691894531,
                        0.028132429346442223,
                        -0.04008951038122177,
                        -0.016108864918351173,
                        -101.03627014160156,
                        -0.02858016826212406,
                        -0.010067854076623917,
                        -0.06363566219806671,
                        -399.1286926269531
                    ],
                    "proj": "BP_Bend",
                    "mirrored": false,
                    "position": [
                        -286.81719970703125,
                        -101.03627014160156,
                        -399.128662109375
                    ],
                    "height": 501.77294921875,
                    "weightScale": [
                        1,
                        1,
                        1
                    ],
                    "scale": [
                        -0.04999963939189911,
                        -0.04999963939189911,
                        0.08000089973211288
                    ],
                    "weightHard": false,
                    "weight": [
                        0,
                        0,
                        0,
                        0
                    ],
                    "twinId": 0,
                    "pathable": true,
                    "flooded": false,
                    "no_features": false,
                    "mergeable": true
                }
            ],
            "metal_spots": [
                [
                    -59.6114501953125,
                    -493.4210510253906,
                    54.608970642089844
                ],
                [
                    12.160443305969238,
                    -480.2631530761719,
                    -138.56198120117188
                ],
                [
                    108.52181243896484,
                    -467.1052551269531,
                    141.5474853515625
                ],
                [
                    -206.3950653076172,
                    -453.9473571777344,
                    -36.50838088989258
                ],
                [
                    199.14169311523438,
                    -440.7894592285156,
                    -126.67764282226562
                ],
                [
                    -67.26268768310547,
                    -427.631591796875,
                    250.21383666992188
                ],
                [
                    -128.89878845214844,
                    -414.47369384765625,
                    -248.186767578125
                ],
                [
                    280.140869140625,
                    -401.3157958984375,
                    102.30699920654297
                ],
                [
                    -291.3279113769531,
                    -388.15789794921875,
                    120.25593566894531
                ],
                [
                    140.17388916015625,
                    -375,
                    -299.54345703125
                ],
                [
                    103.27257537841797,
                    -361.84210205078125,
                    329.2492370605469
                ],
                [
                    -310.0539855957031,
                    -348.6842041015625,
                    -179.6826171875
                ],
                [
                    362.0584411621094,
                    -335.52630615234375,
                    -79.5975341796875
                ],
                [
                    -219.8157958984375,
                    -322.368408203125,
                    312.66534423828125
                ],
                [
                    -50.49486541748047,
                    -309.2105407714844,
                    -389.6654052734375
                ],
                [
                    308.1002502441406,
                    -296.0526428222656,
                    259.667236328125
                ],
                [
                    -411.9228210449219,
                    -282.8947448730469,
                    17.0343017578125
                ],
                [
                    298.4180603027344,
                    -269.7368469238281,
                    -296.9658203125
                ],
                [
                    -19.822925567626953,
                    -256.5789489746094,
                    428.6890563964844
                ],
                [
                    -279.8265075683594,
                    -243.42105102539062,
                    -335.32568359375
                ],
                [
                    439.85943603515625,
                    -230.26315307617188,
                    59.182464599609375
                ],
                [
                    -369.7192687988281,
                    -217.1052703857422,
                    257.2410583496094
                ],
                [
                    100.19642639160156,
                    -203.94737243652344,
                    -445.3831481933594
                ],
                [
                    229.78115844726562,
                    -190.7894744873047,
                    400.9987487792969
                ],
                [
                    -445.2725524902344,
                    -177.63157653808594,
                    -142.05409240722656
                ],
                [
                    428.635498046875,
                    -164.4736785888672,
                    -198.04046630859375
                ],
                [
                    -183.9788818359375,
                    -151.3157958984375,
                    439.6081237792969
                ],
                [
                    -162.63763427734375,
                    -138.15789794921875,
                    -452.174072265625
                ],
                [
                    428.5404968261719,
                    -125,
                    225.22886657714844
                ],
                [
                    -471.23431396484375,
                    -111.84210205078125,
                    124.21585083007812
                ],
                [
                    265.0995788574219,
                    -98.68421173095703,
                    -412.2907409667969
                ],
                [
                    83.43994140625,
                    -85.52631378173828,
                    485.5131530761719
                ],
                [
                    -391.1490173339844,
                    -72.36842346191406,
                    -302.92779541015625
                ],
                [
                    494.7865905761719,
                    -59.21052551269531,
                    -40.99205780029297
                ],
                [
                    -338.09637451171875,
                    -46.05263137817383,
                    365.4722900390625
                ],
                [
                    2.433854341506958,
                    -32.894737243652344,
                    -498.91082763671875
                ],
                [
                    335.6807556152344,
                    -19.736841201782227,
                    370.0390319824219
                ],
                [
                    -497.8232421875,
                    -6.5789475440979,
                    -46.138145446777344
                ],
                [
                    398.2452392578125,
                    6.5789475440979,
                    -302.2539367675781
                ],
                [
                    -89.42204284667969,
                    19.736841201782227,
                    491.5426330566406
                ],
                [
                    -265.7258605957031,
                    32.894737243652344,
                    -422.2649841308594
                ],
                [
                    480.1687927246094,
                    46.05263137817383,
                    131.5943603515625
                ],
                [
                    -441.7130126953125,
                    59.21052551269531,
                    226.67982482910156
                ],
                [
                    171.97824096679688,
                    72.36842346191406,
                    -463.88177490234375
                ],
                [
                    185.7428741455078,
                    85.52631378173828,
                    456.27276611328125
                ],
                [
                    -442.940185546875,
                    98.68421173095703,
                    -209.91761779785156
                ],
                [
                    465.6995544433594,
                    111.84210205078125,
                    -143.5801544189453
                ],
                [
                    -244.7833709716797,
                    125,
                    417.6794128417969
                ],
                [
                    -100.8891372680664,
                    138.15789794921875,
                    -469.8231201171875
                ],
                [
                    388.50909423828125,
                    151.3157958984375,
                    275.9786682128906
                ],
                [
                    -468.5493469238281,
                    164.4736785888672,
                    58.394405364990234
                ],
                [
                    302.9435119628906,
                    177.63157653808594,
                    -355.91046142578125
                ],
                [
                    16.8428955078125,
                    190.7894744873047,
                    461.8611145019531
                ],
                [
                    -320.4337463378906,
                    203.94737243652344,
                    -325.1579284667969
                ],
                [
                    449.818115234375,
                    217.1052703857422,
                    22.999502182006836
                ],
                [
                    -342.1432189941406,
                    230.26315307617188,
                    282.6957702636719
                ],
                [
                    60.34947204589844,
                    243.42105102539062,
                    -432.55535888671875
                ],
                [
                    243.37820434570312,
                    256.5789489746094,
                    353.46044921875
                ],
                [
                    -410.2801818847656,
                    269.7368469238281,
                    -94.40451049804688
                ],
                [
                    358.7046813964844,
                    282.8947448730469,
                    -203.2277374267578
                ],
                [
                    -124.33577728271484,
                    296.0526428222656,
                    383.2668151855469
                ],
                [
                    -163.05894470214844,
                    309.2105407714844,
                    -357.49212646484375
                ],
                [
                    351.8473815917969,
                    322.368408203125,
                    149.27162170410156
                ],
                [
                    -349.4350891113281,
                    335.52630615234375,
                    123.76273345947266
                ],
                [
                    168.26390075683594,
                    348.6842041015625,
                    -316.396240234375
                ],
                [
                    86.3250732421875,
                    361.84210205078125,
                    334.09320068359375
                ],
                [
                    -277.30072021484375,
                    375,
                    -180.2201690673828
                ],
                [
                    310.8750305175781,
                    388.15789794921875,
                    -51.86672592163086
                ],
                [
                    -183.7598419189453,
                    401.3157958984375,
                    234.89988708496094
                ],
                [
                    -21.730533599853516,
                    414.47369384765625,
                    -278.8177795410156
                ],
                [
                    189.33338928222656,
                    427.631591796875,
                    176.8731231689453
                ],
                [
                    -236.00706481933594,
                    440.7894592285156,
                    -2.3026978969573975
                ],
                [
                    155.92584228515625,
                    453.9473571777344,
                    -140.0675506591797
                ],
                [
                    -17.326108932495117,
                    467.1052551269531,
                    177.51754760742188
                ],
                [
                    -83.54954528808594,
                    480.2631530761719,
                    -111.20599365234375
                ],
                [
                    80.84346008300781,
                    493.4210510253906,
                    0
                ],
                [
                    55.44441223144531,
                    -91.65843963623047,
                    490.09912109375
                ],
                [
                    113.31639099121094,
                    -82.60888671875,
                    481.9241943359375
                ],
                [
                    81.50537109375,
                    -56.24360656738281,
                    492.17071533203125
                ],
                [
                    87.82235717773438,
                    -113.28673553466797,
                    480.66790771484375
                ],
                [
                    -24.40050506591797,
                    -226.65771484375,
                    445.4952392578125
                ],
                [
                    -14.984979629516602,
                    -286.7393798828125,
                    410.1580810546875
                ],
                [
                    10.181020736694336,
                    -253.35696411132812,
                    431.4739990234375
                ],
                [
                    -50.057151794433594,
                    -259.38885498046875,
                    424.981689453125
                ],
                [
                    -209.72988891601562,
                    -131.79241943359375,
                    434.7232666015625
                ],
                [
                    -167.4422607421875,
                    -124.56880187988281,
                    454.62744140625
                ],
                [
                    -197.44638061523438,
                    -178.25657653808594,
                    424.22247314453125
                ],
                [
                    -154.23373413085938,
                    -173.69210815429688,
                    443.5096435546875
                ],
                [
                    -86.6352767944336,
                    -17.633544921875,
                    493.22979736328125
                ],
                [
                    -124.98033142089844,
                    17.17291259765625,
                    484.35284423828125
                ],
                [
                    -54.71184539794922,
                    18.713287353515625,
                    498.321533203125
                ],
                [
                    -92.78305053710938,
                    61.74278259277344,
                    488.501220703125
                ],
                [
                    -2.4172897338867188,
                    164.35548400878906,
                    473.03863525390625
                ],
                [
                    45.124237060546875,
                    172.26385498046875,
                    468.80914306640625
                ],
                [
                    36.180259704589844,
                    217.16416931152344,
                    449.9400634765625
                ],
                [
                    -11.089218139648438,
                    210.8289031982422,
                    453.48028564453125
                ],
                [
                    198.74996948242188,
                    112.79393005371094,
                    447.0711669921875
                ],
                [
                    171.60263061523438,
                    57.657814025878906,
                    468.0203857421875
                ],
                [
                    159.83331298828125,
                    100.96985626220703,
                    465.095458984375
                ],
                [
                    210.87796020507812,
                    70.53045654296875,
                    449.9140625
                ],
                [
                    220.14437866210938,
                    250.6614990234375,
                    374.6541748046875
                ],
                [
                    271.5701904296875,
                    262.5538330078125,
                    331.30816650390625
                ],
                [
                    230.17568969726562,
                    288.5730285644531,
                    340.368408203125
                ],
                [
                    256.6486511230469,
                    231.13101196289062,
                    364.869140625
                ],
                [
                    81.27999877929688,
                    387.56964111328125,
                    304.2349853515625
                ],
                [
                    91.29806518554688,
                    339.3873291015625,
                    356.4296875
                ],
                [
                    116.25094604492188,
                    361.04681396484375,
                    326.29217529296875
                ],
                [
                    57.667633056640625,
                    360.93896484375,
                    340.60723876953125
                ],
                [
                    -124.36544799804688,
                    324.52203369140625,
                    357.60394287109375
                ],
                [
                    -124.9248046875,
                    268.40692138671875,
                    401.440673828125
                ],
                [
                    -153.62762451171875,
                    289.99932861328125,
                    375.1551513671875
                ],
                [
                    -92.67118835449219,
                    298.1058349609375,
                    389.40838623046875
                ],
                [
                    -218.96084594726562,
                    106.53555297851562,
                    435.31964111328125
                ],
                [
                    -264.7964782714844,
                    139.60089111328125,
                    398.53472900390625
                ],
                [
                    -259.73065185546875,
                    98.13153076171875,
                    414.0709228515625
                ],
                [
                    -223.90191650390625,
                    151.88375854492188,
                    418.59954833984375
                ],
                [
                    -361.119140625,
                    -59.619102478027344,
                    342.45745849609375
                ],
                [
                    -311.43408203125,
                    -34.063480377197266,
                    389.61834716796875
                ],
                [
                    -346.12554931640625,
                    -13.42435073852539,
                    361.30377197265625
                ],
                [
                    -330.04046630859375,
                    -73.88589477539062,
                    369.5828857421875
                ],
                [
                    -431.66534423828125,
                    87.39402770996094,
                    235.7655029296875
                ],
                [
                    -450.44659423828125,
                    28.135635375976562,
                    214.8330078125
                ],
                [
                    -452.01873779296875,
                    74.38218688964844,
                    199.0128173828125
                ],
                [
                    -429.125244140625,
                    40.913970947265625,
                    253.7640380859375
                ],
                [
                    -334.42852783203125,
                    258.1629638671875,
                    263.37127685546875
                ],
                [
                    -363.30242919921875,
                    220.593994140625,
                    259.7308349609375
                ],
                [
                    -318.729736328125,
                    233.50588989257812,
                    301.76904296875
                ],
                [
                    -344.97247314453125,
                    203.51092529296875,
                    295.26373291015625
                ],
                [
                    -325.47906494140625,
                    359.09234619140625,
                    118.30535888671875
                ],
                [
                    -356.671630859375,
                    338.35394287109375,
                    87.92633056640625
                ],
                [
                    -371.04632568359375,
                    308.13165283203125,
                    127.30154418945312
                ],
                [
                    -339.02685546875,
                    330.2816162109375,
                    156.80831909179688
                ],
                [
                    -157.43878173828125,
                    418.79364013671875,
                    220.82620239257812
                ],
                [
                    -206.43780517578125,
                    379.30938720703125,
                    248.16036987304688
                ],
                [
                    -163.43911743164062,
                    393.04644775390625,
                    259.3304443359375
                ],
                [
                    -203.0848388671875,
                    405.96954345703125,
                    205.52645874023438
                ],
                [
                    -18.625343322753906,
                    478.2274169921875,
                    140.89715576171875
                ],
                [
                    -13.578628540039062,
                    451.2906494140625,
                    212.7095947265625
                ],
                [
                    -50.23621368408203,
                    461.030517578125,
                    183.97998046875
                ],
                [
                    20.551279067993164,
                    467.59033203125,
                    173.2998046875
                ],
                [
                    208.50830078125,
                    431.7772216796875,
                    139.93243408203125
                ],
                [
                    217.70907592773438,
                    410.0467529296875,
                    184.997314453125
                ],
                [
                    174.5189208984375,
                    417.7237548828125,
                    211.6971435546875
                ],
                [
                    156.02310180664062,
                    444.043701171875,
                    166.71502685546875
                ],
                [
                    370.86712646484375,
                    315.81298828125,
                    112.41873168945312
                ],
                [
                    331.1884765625,
                    327.30706787109375,
                    184.255615234375
                ],
                [
                    330.73248291015625,
                    351.71490478515625,
                    131.5142822265625
                ],
                [
                    370.42327880859375,
                    293.21875,
                    165.96466064453125
                ],
                [
                    365.2313232421875,
                    174.034912109375,
                    297.18359375
                ],
                [
                    412.9171142578125,
                    126.15252685546875,
                    255.87982177734375
                ],
                [
                    398.8587646484375,
                    176.38442993164062,
                    248.79925537109375
                ],
                [
                    382.7421875,
                    124.08883666992188,
                    299.7786865234375
                ],
                [
                    337.9937744140625,
                    -62.87995147705078,
                    364.2508544921875
                ],
                [
                    361.009033203125,
                    -13.690086364746094,
                    348.685302734375
                ],
                [
                    311.68231201171875,
                    -26.69614028930664,
                    392.056396484375
                ],
                [
                    330.27520751953125,
                    22.052627563476562,
                    377.9774169921875
                ],
                [
                    203.15667724609375,
                    -173.56219482421875,
                    422.84857177734375
                ],
                [
                    255.46368408203125,
                    -207.51666259765625,
                    375.19549560546875
                ],
                [
                    250.3145751953125,
                    -162.25027465820312,
                    400.52069091796875
                ],
                [
                    208.9315185546875,
                    -221.14413452148438,
                    396.13739013671875
                ],
                [
                    105.79811096191406,
                    -335.0460205078125,
                    355.4493408203125
                ],
                [
                    140.99368286132812,
                    -357.51373291015625,
                    319.95513916015625
                ],
                [
                    70.48912048339844,
                    -364.52227783203125,
                    334.9090576171875
                ],
                [
                    97.50770568847656,
                    -388.92510986328125,
                    299.978515625
                ],
                [
                    -191.37252807617188,
                    -315.27044677734375,
                    336.72601318359375
                ],
                [
                    -245.07015991210938,
                    -327.36181640625,
                    287.01220703125
                ],
                [
                    -204.61282348632812,
                    -347.49774169921875,
                    295.1844482421875
                ],
                [
                    -239.58059692382812,
                    -297.9144287109375,
                    321.17218017578125
                ],
                [
                    -344.48236083984375,
                    -239.6241455078125,
                    272.3570556640625
                ],
                [
                    -392.548095703125,
                    -195.3607177734375,
                    242.217529296875
                ],
                [
                    -368.9586181640625,
                    -189.6182861328125,
                    280.3424072265625
                ],
                [
                    -375.306640625,
                    -237.019775390625,
                    231.9222412109375
                ],
                [
                    -462.19873046875,
                    -105.47915649414062,
                    161.4263916015625
                ],
                [
                    -478.23291015625,
                    -118.41864013671875,
                    87.143310546875
                ],
                [
                    -461.49755859375,
                    -148.3362274169922,
                    122.47625732421875
                ],
                [
                    -479.2158203125,
                    -80.79568481445312,
                    119.82659912109375
                ],
                [
                    -456.6087646484375,
                    176.37387084960938,
                    96.55218505859375
                ],
                [
                    -477.003662109375,
                    129.61398315429688,
                    73.12890625
                ],
                [
                    -453.67333984375,
                    203.01731872558594,
                    46.914398193359375
                ],
                [
                    -475.306884765625,
                    152.52102661132812,
                    25.556915283203125
                ],
                [
                    -499.6744384765625,
                    27.476898193359375,
                    -25.957183837890625
                ],
                [
                    -495.4578857421875,
                    -41.40946960449219,
                    -65.3374252319336
                ],
                [
                    -500.1636962890625,
                    -30.230239868164062,
                    -15.345016479492188
                ],
                [
                    -495.4652099609375,
                    11.6328125,
                    -77.8196029663086
                ],
                [
                    -429.5108642578125,
                    249.7376708984375,
                    -61.955780029296875
                ],
                [
                    -392.7266845703125,
                    285.3570861816406,
                    -121.59910583496094
                ],
                [
                    -398.8966064453125,
                    293.0422668457031,
                    -74.4207992553711
                ],
                [
                    -422.2562255859375,
                    243.98541259765625,
                    -113.72252655029297
                ],
                [
                    -455.9813232421875,
                    116.36701202392578,
                    -174.3616180419922
                ],
                [
                    -425.9599609375,
                    82.09547424316406,
                    -251.68772888183594
                ],
                [
                    -456.8365478515625,
                    63.311309814453125,
                    -198.6102294921875
                ],
                [
                    -429.07666015625,
                    128.65283203125,
                    -226.0775909423828
                ],
                [
                    -352.769287109375,
                    181.412109375,
                    -306.04351806640625
                ],
                [
                    -291.8646240234375,
                    221.09423828125,
                    -340.9578857421875
                ],
                [
                    -323.8316650390625,
                    230.71951293945312,
                    -303.94268798828125
                ],
                [
                    -313.015625,
                    172.48699951171875,
                    -350.7357177734375
                ],
                [
                    -308.48590087890625,
                    351.2337646484375,
                    -173.956298828125
                ],
                [
                    -241.34222412109375,
                    395.51031494140625,
                    -183.7679443359375
                ],
                [
                    -276.0340576171875,
                    389.92559814453125,
                    -143.90557861328125
                ],
                [
                    -271.5245361328125,
                    358.439697265625,
                    -216.29653930664062
                ],
                [
                    -266.89495849609375,
                    422.49420166015625,
                    14.173145294189453
                ],
                [
                    -206.42431640625,
                    454.44012451171875,
                    -17.131467819213867
                ],
                [
                    -222.50787353515625,
                    446.00885009765625,
                    30.73843002319336
                ],
                [
                    -247.928466796875,
                    432.51715087890625,
                    -29.622541427612305
                ],
                [
                    -121.62419128417969,
                    472.5059814453125,
                    -104.24433898925781
                ],
                [
                    -76.18828582763672,
                    487.7254638671875,
                    -74.52655029296875
                ],
                [
                    -90.70698547363281,
                    467.8001708984375,
                    -147.69131469726562
                ],
                [
                    -52.98316955566406,
                    481.16357421875,
                    -121.76588439941406
                ],
                [
                    61.44921875,
                    494.19482421875,
                    30.1151123046875
                ],
                [
                    51.725921630859375,
                    496.0543212890625,
                    -18.823959350585938
                ],
                [
                    110.26600646972656,
                    486.067138671875,
                    22.6656494140625
                ],
                [
                    102.02561950683594,
                    487.5372314453125,
                    -29.6656494140625
                ],
                [
                    121.19871520996094,
                    469.4173583984375,
                    -120.00173950195312
                ],
                [
                    178.67897033691406,
                    454.400146484375,
                    -104.549072265625
                ],
                [
                    136.1932373046875,
                    448.486572265625,
                    -172.51898193359375
                ],
                [
                    188.79989624023438,
                    435.0703125,
                    -157.45932006835938
                ],
                [
                    285.1080322265625,
                    404.5208740234375,
                    -68.67835235595703
                ],
                [
                    335.6473388671875,
                    369.1383056640625,
                    -32.96321105957031
                ],
                [
                    296.16143798828125,
                    402.829833984375,
                    -18.175796508789062
                ],
                [
                    322.11956787109375,
                    372.3358154296875,
                    -82.3050537109375
                ],
                [
                    431.925048828125,
                    250.79010009765625,
                    32.56968688964844
                ],
                [
                    464.2132568359375,
                    187.74322509765625,
                    15.27499008178711
                ],
                [
                    452.03759765625,
                    207.5447998046875,
                    59.37064743041992
                ],
                [
                    447.2557373046875,
                    224.5811767578125,
                    -13.546581268310547
                ],
                [
                    481.372802734375,
                    78.50949096679688,
                    112.02528381347656
                ],
                [
                    476.73193359375,
                    12.49749755859375,
                    152.03579711914062
                ],
                [
                    469.6099853515625,
                    60.61798095703125,
                    161.64865112304688
                ],
                [
                    487.6702880859375,
                    31.285064697265625,
                    107.91819763183594
                ],
                [
                    426.840087890625,
                    -92.44769287109375,
                    244.39111328125
                ],
                [
                    425.836181640625,
                    -157.42626953125,
                    209.763916015625
                ],
                [
                    408.4505615234375,
                    -143.12754821777344,
                    250.60491943359375
                ],
                [
                    444.4459228515625,
                    -112.18578338623047,
                    200.55691528320312
                ],
                [
                    328.58203125,
                    -265.8270263671875,
                    266.67547607421875
                ],
                [
                    286.97308349609375,
                    -326.1533203125,
                    247.73675537109375
                ],
                [
                    285.82257080078125,
                    -289.369140625,
                    290.3035888671875
                ],
                [
                    327.8779296875,
                    -300.65399169921875,
                    229.09027099609375
                ],
                [
                    287.7197265625,
                    -386.76324462890625,
                    133.68975830078125
                ],
                [
                    268.037353515625,
                    -417.19781494140625,
                    66.3486328125
                ],
                [
                    306.9815673828125,
                    -384.7801513671875,
                    86.52734375
                ],
                [
                    248.95947265625,
                    -418.0389404296875,
                    118.43023681640625
                ],
                [
                    143.82562255859375,
                    -452.98687744140625,
                    161.66995239257812
                ],
                [
                    70.85125732421875,
                    -481.3746337890625,
                    120.49322509765625
                ],
                [
                    82.1201171875,
                    -462.6907958984375,
                    174.47756958007812
                ],
                [
                    132.1455078125,
                    -472.0567626953125,
                    109.3739013671875
                ],
                [
                    -37.0967903137207,
                    -418.62786865234375,
                    271.79315185546875
                ],
                [
                    -98.89791107177734,
                    -432.72650146484375,
                    230.06866455078125
                ],
                [
                    -91.36116027832031,
                    -410.27813720703125,
                    271.4912109375
                ],
                [
                    -50.49988555908203,
                    -442.10235595703125,
                    228.60595703125
                ],
                [
                    -53.98991394042969,
                    -488.4422607421875,
                    92.2037353515625
                ],
                [
                    -63.626190185546875,
                    -496.1407470703125,
                    17.44287109375
                ],
                [
                    -93.14469146728516,
                    -487.853271484375,
                    58.50579833984375
                ],
                [
                    -27.599807739257812,
                    -497.4205322265625,
                    46.125762939453125
                ],
                [
                    -302.33892822265625,
                    -370.50433349609375,
                    150.7420654296875
                ],
                [
                    -281.51904296875,
                    -404.04730224609375,
                    94.0439453125
                ],
                [
                    -315.7525634765625,
                    -376.02935791015625,
                    102.98226928710938
                ],
                [
                    -267.95294189453125,
                    -401.9285888671875,
                    133.90127563476562
                ],
                [
                    -409.87017822265625,
                    -284.89764404296875,
                    54.24192810058594
                ],
                [
                    -416.06561279296875,
                    -280.28546142578125,
                    -21.489990234375
                ],
                [
                    -428.66595458984375,
                    -260.85205078125,
                    22.162796020507812
                ],
                [
                    -396.08477783203125,
                    -308.535400390625,
                    13.691802978515625
                ],
                [
                    -455.82366943359375,
                    -181.85546875,
                    -106.92132568359375
                ],
                [
                    -435.93072509765625,
                    -174.76251220703125,
                    -179.03677368164062
                ],
                [
                    -458.802001953125,
                    -144.352294921875,
                    -145.88034057617188
                ],
                [
                    -434.45013427734375,
                    -207.827392578125,
                    -142.879638671875
                ],
                [
                    -411.58856201171875,
                    -67.42100524902344,
                    -278.9905700683594
                ],
                [
                    -371.8895263671875,
                    -76.00785827636719,
                    -328.1512756347656
                ],
                [
                    -390.63037109375,
                    -43.30194091796875,
                    -312.0968322753906
                ],
                [
                    -390.3216552734375,
                    -103.86871337890625,
                    -297.4141845703125
                ],
                [
                    -240.76763916015625,
                    53.1508903503418,
                    -436.95196533203125
                ],
                [
                    -281.23919677734375,
                    61.37315368652344,
                    -411.608642578125
                ],
                [
                    -249.5360107421875,
                    4.952428817749023,
                    -435.6318359375
                ],
                [
                    -288.60333251953125,
                    5.232616424560547,
                    -411.28594970703125
                ],
                [
                    -197.0535888671875,
                    312.7412109375,
                    -337.07513427734375
                ],
                [
                    -189.14794921875,
                    278.9141540527344,
                    -369.6048583984375
                ],
                [
                    -141.73687744140625,
                    333.934326171875,
                    -343.79034423828125
                ],
                [
                    -132.78485107421875,
                    303.4595031738281,
                    -374.430908203125
                ],
                [
                    -51.215362548828125,
                    424.02734375,
                    -257.629638671875
                ],
                [
                    -45.596527099609375,
                    397.43243408203125,
                    -298.366943359375
                ],
                [
                    0.81744384765625,
                    430.6639404296875,
                    -252.00128173828125
                ],
                [
                    7.719390869140625,
                    402.1864013671875,
                    -296.5589599609375
                ],
                [
                    500.08428955078125,
                    -32.380767822265625,
                    -27.934932708740234
                ],
                [
                    497.17755126953125,
                    -68.1768569946289,
                    -12.872802734375
                ],
                [
                    495.297607421875,
                    -43.26679229736328,
                    -69.19165802001953
                ],
                [
                    490.8800048828125,
                    -86.06771087646484,
                    -54.460777282714844
                ],
                [
                    467.7691650390625,
                    134.81256103515625,
                    -117.99673461914062
                ],
                [
                    476.2275390625,
                    88.69345092773438,
                    -126.66110229492188
                ],
                [
                    453.550048828125,
                    135.3279571533203,
                    -162.3253173828125
                ],
                [
                    461.57244873046875,
                    92.995849609375,
                    -168.735107421875
                ],
                [
                    340.06842041015625,
                    310.58221435546875,
                    -194.05361938476562
                ],
                [
                    339.40399169921875,
                    284.2625732421875,
                    -231.51214599609375
                ],
                [
                    375.088623046875,
                    253.73098754882812,
                    -210.73379516601562
                ],
                [
                    137.32164001464844,
                    358.50323486328125,
                    -321.0582580566406
                ],
                [
                    168.81341552734375,
                    369.9818420410156,
                    -290.7259826660156
                ],
                [
                    176.0780029296875,
                    321.85882568359375,
                    -341.0686950683594
                ],
                [
                    203.4188232421875,
                    341.95660400390625,
                    -303.8104248046875
                ],
                [
                    374.1319580078125,
                    281.7227783203125,
                    -173.846435546875
                ],
                [
                    318.1886901855469,
                    196.048095703125,
                    -330.15765380859375
                ],
                [
                    286.31695556640625,
                    157.31088256835938,
                    -376.58673095703125
                ],
                [
                    279.7587890625,
                    201.85687255859375,
                    -360.695068359375
                ],
                [
                    321.8524475097656,
                    151.68157958984375,
                    -348.97235107421875
                ],
                [
                    403.1043701171875,
                    38.410423278808594,
                    -291.58990478515625
                ],
                [
                    418.134765625,
                    -3.512769937515259,
                    -273.2152099609375
                ],
                [
                    374.906494140625,
                    16.856365203857422,
                    -328.8736877441406
                ],
                [
                    391.7802734375,
                    -24.826040267944336,
                    -309.04461669921875
                ],
                [
                    443.522216796875,
                    -141.8421630859375,
                    -179.96942138671875
                ],
                [
                    411.0596923828125,
                    -184.93609619140625,
                    -211.93115234375
                ],
                [
                    424.75823974609375,
                    -144.63037109375,
                    -217.89212036132812
                ],
                [
                    430.22552490234375,
                    -181.75372314453125,
                    -173.76217651367188
                ],
                [
                    447.8367919921875,
                    -209.050537109375,
                    79.45364379882812
                ],
                [
                    432.0269775390625,
                    -249.47640991210938,
                    37.56858825683594
                ],
                [
                    450.6322021484375,
                    -213.98284912109375,
                    37.86650848388672
                ],
                [
                    429.37542724609375,
                    -243.95248413085938,
                    80.12006378173828
                ],
                [
                    353.688232421875,
                    -349.6844787597656,
                    -49.285491943359375
                ],
                [
                    366.2789306640625,
                    -321.5521240234375,
                    -106.5560531616211
                ],
                [
                    379.97271728515625,
                    -317.34539794921875,
                    -67.39094543457031
                ],
                [
                    341.67864990234375,
                    -351.8514709472656,
                    -92.05842590332031
                ],
                [
                    222.50479125976562,
                    -422.84381103515625,
                    -145.46360778808594
                ],
                [
                    219.7430419921875,
                    -437.5372314453125,
                    -100.2779541015625
                ],
                [
                    182.69863891601562,
                    -438.98126220703125,
                    -154.4972381591797
                ],
                [
                    176.24093627929688,
                    -455.43768310546875,
                    -109.08041381835938
                ],
                [
                    6.2563629150390625,
                    -490.11468505859375,
                    -106.033447265625
                ],
                [
                    43.37799835205078,
                    -480.86761474609375,
                    -134.4712371826172
                ],
                [
                    19.758338928222656,
                    -472.16015625,
                    -167.0736541748047
                ],
                [
                    -19.765472412109375,
                    -480.63458251953125,
                    -142.09181213378906
                ],
                [
                    -181.72474670410156,
                    -465.9097900390625,
                    -21.153396606445312
                ],
                [
                    -231.4347381591797,
                    -440.86639404296875,
                    -51.762481689453125
                ],
                [
                    -192.7603302001953,
                    -458.0238037109375,
                    -61.40083312988281
                ],
                [
                    -219.50523376464844,
                    -449.89898681640625,
                    -11.141265869140625
                ],
                [
                    -103.5743408203125,
                    -428.71563720703125,
                    -236.8583984375
                ],
                [
                    -153.66705322265625,
                    -398.10198974609375,
                    -261.3450012207031
                ],
                [
                    -111.58148193359375,
                    -405.0045166015625,
                    -271.5935363769531
                ],
                [
                    -145.25808715820312,
                    -421.349609375,
                    -227.936767578125
                ],
                [
                    -334.6693115234375,
                    -330.56878662109375,
                    -173.14132690429688
                ],
                [
                    -314.74774169921875,
                    -360.43988037109375,
                    -147.75164794921875
                ],
                [
                    -283.3299865722656,
                    -371.44256591796875,
                    -182.62667846679688
                ],
                [
                    -304.8016052246094,
                    -337.31939697265625,
                    -212.6670684814453
                ],
                [
                    -254.459716796875,
                    -238.70660400390625,
                    -358.0631103515625
                ],
                [
                    -288.1745300292969,
                    -213.92987060546875,
                    -348.423583984375
                ],
                [
                    -270.7847595214844,
                    -269.70355224609375,
                    -323.4951171875
                ],
                [
                    -304.2486572265625,
                    -244.24661254882812,
                    -313.42584228515625
                ],
                [
                    -197.77349853515625,
                    -138.32199096679688,
                    -439.28240966796875
                ],
                [
                    -161.31488037109375,
                    -102.90652465820312,
                    -463.8931884765625
                ],
                [
                    -132.2479248046875,
                    -137.88336181640625,
                    -463.79010009765625
                ],
                [
                    -166.29443359375,
                    -165.0022430419922,
                    -442.7222900390625
                ],
                [
                    -40.6658935546875,
                    -333.6333923339844,
                    -371.4349365234375
                ],
                [
                    -85.77975463867188,
                    -315.9671325683594,
                    -378.44427490234375
                ],
                [
                    -20.582000732421875,
                    -297.96307373046875,
                    -401.926513671875
                ],
                [
                    -66.4859390258789,
                    -283.5884094238281,
                    -407.060546875
                ],
                [
                    160.27772521972656,
                    -382.71551513671875,
                    -277.77935791015625
                ],
                [
                    115.10769653320312,
                    -366.1591796875,
                    -320.6806335449219
                ],
                [
                    155.8367462158203,
                    -356.34613037109375,
                    -313.58306884765625
                ],
                [
                    118.19378662109375,
                    -392.55792236328125,
                    -286.17401123046875
                ],
                [
                    317.2259216308594,
                    -274.0218200683594,
                    -271.9969177246094
                ],
                [
                    314.3992614746094,
                    -239.22018432617188,
                    -306.1475830078125
                ],
                [
                    274.7193298339844,
                    -269.46710205078125,
                    -318.8807067871094
                ],
                [
                    282.965087890625,
                    -297.38427734375,
                    -284.8540954589844
                ],
                [
                    288.1415710449219,
                    -80.64422607421875,
                    -400.7298278808594
                ],
                [
                    242.58908081054688,
                    -113.96458435058594,
                    -422.3570556640625
                ],
                [
                    252.14898681640625,
                    -76.7413330078125,
                    -425.02056884765625
                ],
                [
                    276.0937194824219,
                    -121.44802856445312,
                    -398.8307800292969
                ],
                [
                    113.78369140625,
                    -177.00479125976562,
                    -454.12432861328125
                ],
                [
                    129.751708984375,
                    -210.07440185546875,
                    -434.909912109375
                ],
                [
                    88.49209594726562,
                    -232.82894897460938,
                    -433.76483154296875
                ],
                [
                    67.79499816894531,
                    -196.39773559570312,
                    -455.577392578125
                ],
                [
                    29.700485229492188,
                    -11.98172378540039,
                    -501.8670654296875
                ],
                [
                    -16.252391815185547,
                    -5.245090484619141,
                    -503.017578125
                ],
                [
                    -24.54205322265625,
                    -51.88449478149414,
                    -499.36248779296875
                ],
                [
                    25.25937271118164,
                    -57.655941009521484,
                    -498.107177734375
                ],
                [
                    176.2269287109375,
                    107.57160186767578,
                    -455.38336181640625
                ],
                [
                    143.54721069335938,
                    77.76468658447266,
                    -473.51702880859375
                ],
                [
                    165.2120361328125,
                    41.59467315673828,
                    -470.828857421875
                ],
                [
                    202.704345703125,
                    65.25353240966797,
                    -452.19317626953125
                ],
                [
                    78.8919677734375,
                    266.7767333984375,
                    -415.970703125
                ],
                [
                    44.16194152832031,
                    224.12408447265625,
                    -445.7052001953125
                ],
                [
                    82.80477905273438,
                    226.44464111328125,
                    -438.83978271484375
                ],
                [
                    32.88871765136719,
                    258.7568664550781,
                    -427.10009765625
                ],
                [
                    -70.40855407714844,
                    133.8070831298828,
                    -478.90081787109375
                ],
                [
                    -133.65992736816406,
                    144.05764770507812,
                    -461.5616455078125
                ],
                [
                    -93.13345336914062,
                    168.30523681640625,
                    -462.8721923828125
                ],
                [
                    -108.87535095214844,
                    111.814697265625,
                    -477.3411865234375
                ]
            ],
            "landing_zones": {
                "rules": [
                    {
                        "max": 10,
                        "min": 10
                    },
                    {
                        "max": 10,
                        "min": 10
                    },
                    {
                        "max": 10,
                        "min": 10
                    },
                    {
                        "max": 10,
                        "min": 10
                    },
                    {
                        "max": 10,
                        "min": 10
                    },
                    {
                        "max": 10,
                        "min": 10
                    },
                    {
                        "max": 10,
                        "min": 10
                    },
                    {
                        "max": 10,
                        "min": 10
                    },
                    {
                        "max": 10,
                        "min": 10
                    },
                    {
                        "max": 10,
                        "min": 10
                    }
                ],
                "list": [
                    [
                        169.46563720703125,
                        71.54141235351562,
                        -465.29345703125
                    ],
                    [
                        -50.337738037109375,
                        -309.87451171875,
                        -390.086181640625
                    ],
                    [
                        -60.64862060546875,
                        -493.610107421875,
                        53.030517578125
                    ],
                    [
                        -21.59832763671875,
                        -256.4456787109375,
                        429.302490234375
                    ],
                    [
                        13.97503662109375,
                        191.9073486328125,
                        462.310302734375
                    ],
                    [
                        -471.06787109375,
                        -112.634521484375,
                        125.8082275390625
                    ],
                    [
                        -412.608154296875,
                        267.4393310546875,
                        -93.27198028564453
                    ],
                    [
                        82.837646484375,
                        491.970947265625,
                        2.35614013671875
                    ],
                    [
                        451.0799560546875,
                        216.269287109375,
                        21.482421875
                    ],
                    [
                        442.035400390625,
                        -226.80618286132812,
                        59.8499755859375
                    ]
                ]
            }
        }
    ]
}