{
    "name": "Asphodel Meadows 4v4 NS",
    "description":"Unshared 4v4 barren(ish) green planet.  Similar to Lune 4v4 but bigger.",
    "version":"1.0",
    "creator":"Grand Homie",
    "players":[8, 8],
    "planets": [
        {
            "name": "Asphodel Meadows 4v4 NS",
            "mass": 35000,
            "position_x": -60400,
            "position_y": -37900,
            "velocity_x": 44.50753402709961,
            "velocity_y": -70.93021392822266,
            "required_thrust_to_move": 0,
            "starting_planet": true,
            "respawn": false,
            "start_destroyed": false,
            "min_spawn_delay": 0,
            "max_spawn_delay": 0,
            "planet": {
                "seed": 1386552704,
                "radius": 700,
                "heightRange": 0,
                "waterHeight": 0,
                "waterDepth": 0,
                "temperature": 50,
                "metalDensity": 75,
                "metalClusters": 100,
                "metalSpotLimit": -1,
                "biomeScale": 50,
                "biome": "grass",
                "symmetryType": "terrain and CSG",
                "symmetricalMetal": true,
                "symmetricalStarts": false,
                "numArmies": 2,
                "landingZonesPerArmy": 0,
                "landingZoneSize": 80
            },
            "planetCSG": [
                {
                    "spec": "/pa/terrain/jungle/brushes/jungle_plateau_06.json",
                    "rotation": 0.05999999865889549,
                    "op": "BO_Add",
                    "transform": [
                        1.316995620727539,
                        -0.08337914943695068,
                        -0.03114326111972332,
                        -16.511354446411133,
                        0.07200045883655548,
                        1.2695564031600952,
                        -0.3541775941848755,
                        -187.7758331298828,
                        0.05232512578368187,
                        0.35167279839515686,
                        1.2712149620056152,
                        673.9654541015625
                    ],
                    "mirrored": false,
                    "proj": "BP_Bend",
                    "position": [
                        -16.511354446411133,
                        -187.77581787109375,
                        673.9654541015625
                    ],
                    "height": 699.829833984375,
                    "weightScale": [
                        1,
                        1,
                        1
                    ],
                    "scale": [
                        1.3199996948242188,
                        1.3199996948242188,
                        1.3199996948242188
                    ],
                    "weight": [
                        0,
                        0,
                        0,
                        0
                    ],
                    "weightHard": false,
                    "no_features": false,
                    "pathable": false,
                    "flooded": false,
                    "twinId": 0,
                    "mergeable": false
                },
                {
                    "spec": "/pa/terrain/jungle/brushes/jungle_plateau_06.json",
                    "rotation": 0.05999999865889549,
                    "op": "BO_Add",
                    "transform": [
                        1.316995620727539,
                        -0.08337914943695068,
                        -0.03114326111972332,
                        -16.511354446411133,
                        0.07200045883655548,
                        1.2695564031600952,
                        -0.3541775941848755,
                        -187.7758331298828,
                        -0.05232512578368187,
                        -0.35167279839515686,
                        -1.2712149620056152,
                        -673.9654541015625
                    ],
                    "mirrored": true,
                    "proj": "BP_Bend",
                    "position": [
                        -16.511354446411133,
                        -187.77581787109375,
                        673.9654541015625
                    ],
                    "height": 699.829833984375,
                    "weightScale": [
                        1,
                        1,
                        1
                    ],
                    "scale": [
                        1.3199996948242188,
                        1.3199996948242188,
                        1.3199996948242188
                    ],
                    "weight": [
                        0,
                        0,
                        0,
                        0
                    ],
                    "weightHard": false,
                    "no_features": false,
                    "pathable": false,
                    "flooded": false,
                    "twinId": 0,
                    "mergeable": false
                },
                {
                    "spec": "/pa/terrain/jungle/brushes/jungle_plateau_06.json",
                    "rotation": 1.6307963132858276,
                    "op": "BO_Add",
                    "transform": [
                        -0.07200044393539429,
                        -1.2695564031600952,
                        0.3541775643825531,
                        187.7758331298828,
                        1.316995620727539,
                        -0.08337913453578949,
                        -0.03114325739443302,
                        -16.511354446411133,
                        0.05232512205839157,
                        0.35167279839515686,
                        1.2712148427963257,
                        673.9654541015625
                    ],
                    "mirrored": false,
                    "proj": "BP_Bend",
                    "position": [
                        187.77581787109375,
                        -16.511354446411133,
                        673.9654541015625
                    ],
                    "height": 699.829833984375,
                    "weightScale": [
                        1,
                        1,
                        1
                    ],
                    "scale": [
                        1.3199996948242188,
                        1.3199996948242188,
                        1.3199996948242188
                    ],
                    "weight": [
                        0,
                        0,
                        0,
                        0
                    ],
                    "weightHard": false,
                    "no_features": false,
                    "pathable": false,
                    "flooded": false,
                    "twinId": 0,
                    "mergeable": false
                },
                {
                    "spec": "/pa/terrain/jungle/brushes/jungle_plateau_06.json",
                    "rotation": 1.6307963132858276,
                    "op": "BO_Add",
                    "transform": [
                        -0.07200044393539429,
                        -1.2695564031600952,
                        0.3541775643825531,
                        187.7758331298828,
                        1.316995620727539,
                        -0.08337913453578949,
                        -0.03114325739443302,
                        -16.511354446411133,
                        -0.05232512205839157,
                        -0.35167279839515686,
                        -1.2712148427963257,
                        -673.9654541015625
                    ],
                    "mirrored": true,
                    "proj": "BP_Bend",
                    "position": [
                        187.77581787109375,
                        -16.511354446411133,
                        673.9654541015625
                    ],
                    "height": 699.829833984375,
                    "weightScale": [
                        1,
                        1,
                        1
                    ],
                    "scale": [
                        1.3199996948242188,
                        1.3199996948242188,
                        1.3199996948242188
                    ],
                    "weight": [
                        0,
                        0,
                        0,
                        0
                    ],
                    "weightHard": false,
                    "no_features": false,
                    "pathable": false,
                    "flooded": false,
                    "twinId": 0,
                    "mergeable": false
                },
                {
                    "spec": "/pa/terrain/jungle/brushes/jungle_plateau_06.json",
                    "rotation": 3.2015926837921143,
                    "op": "BO_Add",
                    "transform": [
                        -1.316995620727539,
                        0.08337919414043427,
                        0.03114326111972332,
                        16.511354446411133,
                        -0.07200050354003906,
                        -1.2695564031600952,
                        0.3541775941848755,
                        187.7758331298828,
                        0.052325136959552765,
                        0.35167279839515686,
                        1.2712149620056152,
                        673.9654541015625
                    ],
                    "mirrored": false,
                    "proj": "BP_Bend",
                    "position": [
                        16.511354446411133,
                        187.77581787109375,
                        673.9654541015625
                    ],
                    "height": 699.829833984375,
                    "weightScale": [
                        1,
                        1,
                        1
                    ],
                    "scale": [
                        1.3199996948242188,
                        1.3199996948242188,
                        1.3199996948242188
                    ],
                    "weight": [
                        0,
                        0,
                        0,
                        0
                    ],
                    "weightHard": false,
                    "no_features": false,
                    "pathable": false,
                    "flooded": false,
                    "twinId": 0,
                    "mergeable": false
                },
                {
                    "spec": "/pa/terrain/jungle/brushes/jungle_plateau_06.json",
                    "rotation": 3.2015926837921143,
                    "op": "BO_Add",
                    "transform": [
                        -1.316995620727539,
                        0.08337919414043427,
                        0.03114326111972332,
                        16.511354446411133,
                        -0.07200050354003906,
                        -1.2695564031600952,
                        0.3541775941848755,
                        187.7758331298828,
                        -0.052325136959552765,
                        -0.35167279839515686,
                        -1.2712149620056152,
                        -673.9654541015625
                    ],
                    "mirrored": true,
                    "proj": "BP_Bend",
                    "position": [
                        16.511354446411133,
                        187.77581787109375,
                        673.9654541015625
                    ],
                    "height": 699.829833984375,
                    "weightScale": [
                        1,
                        1,
                        1
                    ],
                    "scale": [
                        1.3199996948242188,
                        1.3199996948242188,
                        1.3199996948242188
                    ],
                    "weight": [
                        0,
                        0,
                        0,
                        0
                    ],
                    "weightHard": false,
                    "no_features": false,
                    "pathable": false,
                    "flooded": false,
                    "twinId": 0,
                    "mergeable": false
                },
                {
                    "spec": "/pa/terrain/jungle/brushes/jungle_plateau_06.json",
                    "rotation": 4.772388935089111,
                    "op": "BO_Add",
                    "transform": [
                        0.0720004066824913,
                        1.2695564031600952,
                        -0.3541775941848755,
                        -187.7758331298828,
                        -1.316995620727539,
                        0.0833790972828865,
                        0.03114326111972332,
                        16.511354446411133,
                        0.052325110882520676,
                        0.35167279839515686,
                        1.2712149620056152,
                        673.9654541015625
                    ],
                    "mirrored": false,
                    "proj": "BP_Bend",
                    "position": [
                        -187.77581787109375,
                        16.511354446411133,
                        673.9654541015625
                    ],
                    "height": 699.829833984375,
                    "weightScale": [
                        1,
                        1,
                        1
                    ],
                    "scale": [
                        1.3199996948242188,
                        1.3199996948242188,
                        1.3199996948242188
                    ],
                    "weight": [
                        0,
                        0,
                        0,
                        0
                    ],
                    "weightHard": false,
                    "no_features": false,
                    "pathable": false,
                    "flooded": false,
                    "twinId": 0,
                    "mergeable": false
                },
                {
                    "spec": "/pa/terrain/jungle/brushes/jungle_plateau_06.json",
                    "rotation": 4.772388935089111,
                    "op": "BO_Add",
                    "transform": [
                        0.0720004066824913,
                        1.2695564031600952,
                        -0.3541775941848755,
                        -187.7758331298828,
                        -1.316995620727539,
                        0.0833790972828865,
                        0.03114326111972332,
                        16.511354446411133,
                        -0.052325110882520676,
                        -0.35167279839515686,
                        -1.2712149620056152,
                        -673.9654541015625
                    ],
                    "mirrored": true,
                    "proj": "BP_Bend",
                    "position": [
                        -187.77581787109375,
                        16.511354446411133,
                        673.9654541015625
                    ],
                    "height": 699.829833984375,
                    "weightScale": [
                        1,
                        1,
                        1
                    ],
                    "scale": [
                        1.3199996948242188,
                        1.3199996948242188,
                        1.3199996948242188
                    ],
                    "weight": [
                        0,
                        0,
                        0,
                        0
                    ],
                    "weightHard": false,
                    "no_features": false,
                    "pathable": false,
                    "flooded": false,
                    "twinId": 0,
                    "mergeable": false
                }
            ],
            "metal_spots": [
                [
                    52.829097747802734,
                    -299.5301513671875,
                    630.2984619140625
                ],
                [
                    52.829097747802734,
                    -299.5301513671875,
                    -630.2984619140625
                ],
                [
                    177.58291625976562,
                    -303.2159423828125,
                    605.263427734375
                ],
                [
                    177.58291625976562,
                    -303.2159423828125,
                    -605.263427734375
                ],
                [
                    33.54916000366211,
                    -528.7034912109375,
                    457.496337890625
                ],
                [
                    33.54916000366211,
                    -528.7034912109375,
                    -457.496337890625
                ],
                [
                    37.84292984008789,
                    -562.462646484375,
                    414.807861328125
                ],
                [
                    37.84292984008789,
                    -562.462646484375,
                    -414.807861328125
                ],
                [
                    32.36082458496094,
                    -651.1602783203125,
                    254.29034423828125
                ],
                [
                    32.36082458496094,
                    -651.1602783203125,
                    -254.29034423828125
                ],
                [
                    423.5364990234375,
                    -555.478515625,
                    42.93206024169922
                ],
                [
                    423.5364990234375,
                    -555.478515625,
                    -42.93206024169922
                ],
                [
                    200.4654541015625,
                    -664.1171875,
                    92.48047637939453
                ],
                [
                    200.4654541015625,
                    -664.1171875,
                    -92.48047637939453
                ],
                [
                    42.732627868652344,
                    -697.4879760742188,
                    40.331634521484375
                ],
                [
                    42.732627868652344,
                    -697.4879760742188,
                    -40.331634521484375
                ],
                [
                    251.3585205078125,
                    -463.0361328125,
                    460.73565673828125
                ],
                [
                    251.3585205078125,
                    -463.0361328125,
                    -460.73565673828125
                ],
                [
                    331.6858825683594,
                    -458.8143310546875,
                    411.53302001953125
                ],
                [
                    331.6858825683594,
                    -458.8143310546875,
                    -411.53302001953125
                ],
                [
                    218.94171142578125,
                    -604.555908203125,
                    276.4410095214844
                ],
                [
                    218.94171142578125,
                    -604.555908203125,
                    -276.4410095214844
                ],
                [
                    332.1928405761719,
                    -558.136474609375,
                    260.7036437988281
                ],
                [
                    332.1928405761719,
                    -558.136474609375,
                    -260.7036437988281
                ],
                [
                    276.2725830078125,
                    -613.1275634765625,
                    193.58062744140625
                ],
                [
                    276.2725830078125,
                    -613.1275634765625,
                    -193.58062744140625
                ],
                [
                    -52.829097747802734,
                    -299.5301513671875,
                    630.2984619140625
                ],
                [
                    -52.829097747802734,
                    -299.5301513671875,
                    -630.2984619140625
                ],
                [
                    -177.58291625976562,
                    -303.2159423828125,
                    605.263427734375
                ],
                [
                    -177.58291625976562,
                    -303.2159423828125,
                    -605.263427734375
                ],
                [
                    -33.54916000366211,
                    -528.7034912109375,
                    457.496337890625
                ],
                [
                    -33.54916000366211,
                    -528.7034912109375,
                    -457.496337890625
                ],
                [
                    -37.84292984008789,
                    -562.462646484375,
                    414.807861328125
                ],
                [
                    -37.84292984008789,
                    -562.462646484375,
                    -414.807861328125
                ],
                [
                    -32.36082458496094,
                    -651.1602783203125,
                    254.29034423828125
                ],
                [
                    -32.36082458496094,
                    -651.1602783203125,
                    -254.29034423828125
                ],
                [
                    -423.5364990234375,
                    -555.478515625,
                    42.93206024169922
                ],
                [
                    -423.5364990234375,
                    -555.478515625,
                    -42.93206024169922
                ],
                [
                    -200.4654541015625,
                    -664.1171875,
                    92.48047637939453
                ],
                [
                    -200.4654541015625,
                    -664.1171875,
                    -92.48047637939453
                ],
                [
                    -42.732627868652344,
                    -697.4879760742188,
                    40.331634521484375
                ],
                [
                    -42.732627868652344,
                    -697.4879760742188,
                    -40.331634521484375
                ],
                [
                    -251.3585205078125,
                    -463.0361328125,
                    460.73565673828125
                ],
                [
                    -251.3585205078125,
                    -463.0361328125,
                    -460.73565673828125
                ],
                [
                    -331.6858825683594,
                    -458.8143310546875,
                    411.53302001953125
                ],
                [
                    -331.6858825683594,
                    -458.8143310546875,
                    -411.53302001953125
                ],
                [
                    -218.94171142578125,
                    -604.555908203125,
                    276.4410095214844
                ],
                [
                    -218.94171142578125,
                    -604.555908203125,
                    -276.4410095214844
                ],
                [
                    -332.1928405761719,
                    -558.136474609375,
                    260.7036437988281
                ],
                [
                    -332.1928405761719,
                    -558.136474609375,
                    -260.7036437988281
                ],
                [
                    -276.2725830078125,
                    -613.1275634765625,
                    193.58062744140625
                ],
                [
                    -276.2725830078125,
                    -613.1275634765625,
                    -193.58062744140625
                ],
                [
                    299.5301513671875,
                    52.829097747802734,
                    630.2984619140625
                ],
                [
                    299.5301513671875,
                    52.829097747802734,
                    -630.2984619140625
                ],
                [
                    303.2159423828125,
                    177.58291625976562,
                    605.263427734375
                ],
                [
                    303.2159423828125,
                    177.58291625976562,
                    -605.263427734375
                ],
                [
                    528.7034912109375,
                    33.54916000366211,
                    457.496337890625
                ],
                [
                    528.7034912109375,
                    33.54916000366211,
                    -457.496337890625
                ],
                [
                    562.462646484375,
                    37.84292984008789,
                    414.807861328125
                ],
                [
                    562.462646484375,
                    37.84292984008789,
                    -414.807861328125
                ],
                [
                    651.1602783203125,
                    32.36082458496094,
                    254.29034423828125
                ],
                [
                    651.1602783203125,
                    32.36082458496094,
                    -254.29034423828125
                ],
                [
                    555.478515625,
                    423.5364990234375,
                    42.93206024169922
                ],
                [
                    555.478515625,
                    423.5364990234375,
                    -42.93206024169922
                ],
                [
                    664.1171875,
                    200.4654541015625,
                    92.48047637939453
                ],
                [
                    664.1171875,
                    200.4654541015625,
                    -92.48047637939453
                ],
                [
                    697.4879760742188,
                    42.732627868652344,
                    40.331634521484375
                ],
                [
                    697.4879760742188,
                    42.732627868652344,
                    -40.331634521484375
                ],
                [
                    463.0361328125,
                    251.3585205078125,
                    460.73565673828125
                ],
                [
                    463.0361328125,
                    251.3585205078125,
                    -460.73565673828125
                ],
                [
                    458.8143310546875,
                    331.6858825683594,
                    411.53302001953125
                ],
                [
                    458.8143310546875,
                    331.6858825683594,
                    -411.53302001953125
                ],
                [
                    604.555908203125,
                    218.94171142578125,
                    276.4410095214844
                ],
                [
                    604.555908203125,
                    218.94171142578125,
                    -276.4410095214844
                ],
                [
                    558.136474609375,
                    332.1928405761719,
                    260.7036437988281
                ],
                [
                    558.136474609375,
                    332.1928405761719,
                    -260.7036437988281
                ],
                [
                    613.1275634765625,
                    276.2725830078125,
                    193.58062744140625
                ],
                [
                    613.1275634765625,
                    276.2725830078125,
                    -193.58062744140625
                ],
                [
                    299.5301513671875,
                    -52.829097747802734,
                    630.2984619140625
                ],
                [
                    299.5301513671875,
                    -52.829097747802734,
                    -630.2984619140625
                ],
                [
                    303.2159423828125,
                    -177.58291625976562,
                    605.263427734375
                ],
                [
                    303.2159423828125,
                    -177.58291625976562,
                    -605.263427734375
                ],
                [
                    528.7034912109375,
                    -33.54916000366211,
                    457.496337890625
                ],
                [
                    528.7034912109375,
                    -33.54916000366211,
                    -457.496337890625
                ],
                [
                    562.462646484375,
                    -37.84292984008789,
                    414.807861328125
                ],
                [
                    562.462646484375,
                    -37.84292984008789,
                    -414.807861328125
                ],
                [
                    651.1602783203125,
                    -32.36082458496094,
                    254.29034423828125
                ],
                [
                    651.1602783203125,
                    -32.36082458496094,
                    -254.29034423828125
                ],
                [
                    555.478515625,
                    -423.5364990234375,
                    42.93206024169922
                ],
                [
                    555.478515625,
                    -423.5364990234375,
                    -42.93206024169922
                ],
                [
                    664.1171875,
                    -200.4654541015625,
                    92.48047637939453
                ],
                [
                    664.1171875,
                    -200.4654541015625,
                    -92.48047637939453
                ],
                [
                    697.4879760742188,
                    -42.732627868652344,
                    40.331634521484375
                ],
                [
                    697.4879760742188,
                    -42.732627868652344,
                    -40.331634521484375
                ],
                [
                    463.0361328125,
                    -251.3585205078125,
                    460.73565673828125
                ],
                [
                    463.0361328125,
                    -251.3585205078125,
                    -460.73565673828125
                ],
                [
                    458.8143310546875,
                    -331.6858825683594,
                    411.53302001953125
                ],
                [
                    458.8143310546875,
                    -331.6858825683594,
                    -411.53302001953125
                ],
                [
                    604.555908203125,
                    -218.94171142578125,
                    276.4410095214844
                ],
                [
                    604.555908203125,
                    -218.94171142578125,
                    -276.4410095214844
                ],
                [
                    558.136474609375,
                    -332.1928405761719,
                    260.7036437988281
                ],
                [
                    558.136474609375,
                    -332.1928405761719,
                    -260.7036437988281
                ],
                [
                    613.1275634765625,
                    -276.2725830078125,
                    193.58062744140625
                ],
                [
                    613.1275634765625,
                    -276.2725830078125,
                    -193.58062744140625
                ],
                [
                    -52.829097747802734,
                    299.5301513671875,
                    630.2984619140625
                ],
                [
                    -52.829097747802734,
                    299.5301513671875,
                    -630.2984619140625
                ],
                [
                    -177.58291625976562,
                    303.2159423828125,
                    605.263427734375
                ],
                [
                    -177.58291625976562,
                    303.2159423828125,
                    -605.263427734375
                ],
                [
                    -33.54916000366211,
                    528.7034912109375,
                    457.496337890625
                ],
                [
                    -33.54916000366211,
                    528.7034912109375,
                    -457.496337890625
                ],
                [
                    -37.84292984008789,
                    562.462646484375,
                    414.807861328125
                ],
                [
                    -37.84292984008789,
                    562.462646484375,
                    -414.807861328125
                ],
                [
                    -32.36082458496094,
                    651.1602783203125,
                    254.29034423828125
                ],
                [
                    -32.36082458496094,
                    651.1602783203125,
                    -254.29034423828125
                ],
                [
                    -423.5364990234375,
                    555.478515625,
                    42.93206024169922
                ],
                [
                    -423.5364990234375,
                    555.478515625,
                    -42.93206024169922
                ],
                [
                    -200.4654541015625,
                    664.1171875,
                    92.48047637939453
                ],
                [
                    -200.4654541015625,
                    664.1171875,
                    -92.48047637939453
                ],
                [
                    -42.732627868652344,
                    697.4879760742188,
                    40.331634521484375
                ],
                [
                    -42.732627868652344,
                    697.4879760742188,
                    -40.331634521484375
                ],
                [
                    -251.3585205078125,
                    463.0361328125,
                    460.73565673828125
                ],
                [
                    -251.3585205078125,
                    463.0361328125,
                    -460.73565673828125
                ],
                [
                    -331.6858825683594,
                    458.8143310546875,
                    411.53302001953125
                ],
                [
                    -331.6858825683594,
                    458.8143310546875,
                    -411.53302001953125
                ],
                [
                    -218.94171142578125,
                    604.555908203125,
                    276.4410095214844
                ],
                [
                    -218.94171142578125,
                    604.555908203125,
                    -276.4410095214844
                ],
                [
                    -332.1928405761719,
                    558.136474609375,
                    260.7036437988281
                ],
                [
                    -332.1928405761719,
                    558.136474609375,
                    -260.7036437988281
                ],
                [
                    -276.2725830078125,
                    613.1275634765625,
                    193.58062744140625
                ],
                [
                    -276.2725830078125,
                    613.1275634765625,
                    -193.58062744140625
                ],
                [
                    52.829097747802734,
                    299.5301513671875,
                    630.2984619140625
                ],
                [
                    52.829097747802734,
                    299.5301513671875,
                    -630.2984619140625
                ],
                [
                    177.58291625976562,
                    303.2159423828125,
                    605.263427734375
                ],
                [
                    177.58291625976562,
                    303.2159423828125,
                    -605.263427734375
                ],
                [
                    33.54916000366211,
                    528.7034912109375,
                    457.496337890625
                ],
                [
                    33.54916000366211,
                    528.7034912109375,
                    -457.496337890625
                ],
                [
                    37.84292984008789,
                    562.462646484375,
                    414.807861328125
                ],
                [
                    37.84292984008789,
                    562.462646484375,
                    -414.807861328125
                ],
                [
                    32.36082458496094,
                    651.1602783203125,
                    254.29034423828125
                ],
                [
                    32.36082458496094,
                    651.1602783203125,
                    -254.29034423828125
                ],
                [
                    423.5364990234375,
                    555.478515625,
                    42.93206024169922
                ],
                [
                    423.5364990234375,
                    555.478515625,
                    -42.93206024169922
                ],
                [
                    200.4654541015625,
                    664.1171875,
                    92.48047637939453
                ],
                [
                    200.4654541015625,
                    664.1171875,
                    -92.48047637939453
                ],
                [
                    42.732627868652344,
                    697.4879760742188,
                    40.331634521484375
                ],
                [
                    42.732627868652344,
                    697.4879760742188,
                    -40.331634521484375
                ],
                [
                    251.3585205078125,
                    463.0361328125,
                    460.73565673828125
                ],
                [
                    251.3585205078125,
                    463.0361328125,
                    -460.73565673828125
                ],
                [
                    331.6858825683594,
                    458.8143310546875,
                    411.53302001953125
                ],
                [
                    331.6858825683594,
                    458.8143310546875,
                    -411.53302001953125
                ],
                [
                    218.94171142578125,
                    604.555908203125,
                    276.4410095214844
                ],
                [
                    218.94171142578125,
                    604.555908203125,
                    -276.4410095214844
                ],
                [
                    332.1928405761719,
                    558.136474609375,
                    260.7036437988281
                ],
                [
                    332.1928405761719,
                    558.136474609375,
                    -260.7036437988281
                ],
                [
                    276.2725830078125,
                    613.1275634765625,
                    193.58062744140625
                ],
                [
                    276.2725830078125,
                    613.1275634765625,
                    -193.58062744140625
                ],
                [
                    -299.5301513671875,
                    -52.829097747802734,
                    630.2984619140625
                ],
                [
                    -299.5301513671875,
                    -52.829097747802734,
                    -630.2984619140625
                ],
                [
                    -303.2159423828125,
                    -177.58291625976562,
                    605.263427734375
                ],
                [
                    -303.2159423828125,
                    -177.58291625976562,
                    -605.263427734375
                ],
                [
                    -528.7034912109375,
                    -33.54916000366211,
                    457.496337890625
                ],
                [
                    -528.7034912109375,
                    -33.54916000366211,
                    -457.496337890625
                ],
                [
                    -562.462646484375,
                    -37.84292984008789,
                    414.807861328125
                ],
                [
                    -562.462646484375,
                    -37.84292984008789,
                    -414.807861328125
                ],
                [
                    -651.1602783203125,
                    -32.36082458496094,
                    254.29034423828125
                ],
                [
                    -651.1602783203125,
                    -32.36082458496094,
                    -254.29034423828125
                ],
                [
                    -555.478515625,
                    -423.5364990234375,
                    42.93206024169922
                ],
                [
                    -555.478515625,
                    -423.5364990234375,
                    -42.93206024169922
                ],
                [
                    -664.1171875,
                    -200.4654541015625,
                    92.48047637939453
                ],
                [
                    -664.1171875,
                    -200.4654541015625,
                    -92.48047637939453
                ],
                [
                    -697.4879760742188,
                    -42.732627868652344,
                    40.331634521484375
                ],
                [
                    -697.4879760742188,
                    -42.732627868652344,
                    -40.331634521484375
                ],
                [
                    -463.0361328125,
                    -251.3585205078125,
                    460.73565673828125
                ],
                [
                    -463.0361328125,
                    -251.3585205078125,
                    -460.73565673828125
                ],
                [
                    -458.8143310546875,
                    -331.6858825683594,
                    411.53302001953125
                ],
                [
                    -458.8143310546875,
                    -331.6858825683594,
                    -411.53302001953125
                ],
                [
                    -604.555908203125,
                    -218.94171142578125,
                    276.4410095214844
                ],
                [
                    -604.555908203125,
                    -218.94171142578125,
                    -276.4410095214844
                ],
                [
                    -558.136474609375,
                    -332.1928405761719,
                    260.7036437988281
                ],
                [
                    -558.136474609375,
                    -332.1928405761719,
                    -260.7036437988281
                ],
                [
                    -613.1275634765625,
                    -276.2725830078125,
                    193.58062744140625
                ],
                [
                    -613.1275634765625,
                    -276.2725830078125,
                    -193.58062744140625
                ],
                [
                    -299.5301513671875,
                    52.829097747802734,
                    630.2984619140625
                ],
                [
                    -299.5301513671875,
                    52.829097747802734,
                    -630.2984619140625
                ],
                [
                    -303.2159423828125,
                    177.58291625976562,
                    605.263427734375
                ],
                [
                    -303.2159423828125,
                    177.58291625976562,
                    -605.263427734375
                ],
                [
                    -528.7034912109375,
                    33.54916000366211,
                    457.496337890625
                ],
                [
                    -528.7034912109375,
                    33.54916000366211,
                    -457.496337890625
                ],
                [
                    -562.462646484375,
                    37.84292984008789,
                    414.807861328125
                ],
                [
                    -562.462646484375,
                    37.84292984008789,
                    -414.807861328125
                ],
                [
                    -651.1602783203125,
                    32.36082458496094,
                    254.29034423828125
                ],
                [
                    -651.1602783203125,
                    32.36082458496094,
                    -254.29034423828125
                ],
                [
                    -555.478515625,
                    423.5364990234375,
                    42.93206024169922
                ],
                [
                    -555.478515625,
                    423.5364990234375,
                    -42.93206024169922
                ],
                [
                    -664.1171875,
                    200.4654541015625,
                    92.48047637939453
                ],
                [
                    -664.1171875,
                    200.4654541015625,
                    -92.48047637939453
                ],
                [
                    -697.4879760742188,
                    42.732627868652344,
                    40.331634521484375
                ],
                [
                    -697.4879760742188,
                    42.732627868652344,
                    -40.331634521484375
                ],
                [
                    -463.0361328125,
                    251.3585205078125,
                    460.73565673828125
                ],
                [
                    -463.0361328125,
                    251.3585205078125,
                    -460.73565673828125
                ],
                [
                    -458.8143310546875,
                    331.6858825683594,
                    411.53302001953125
                ],
                [
                    -458.8143310546875,
                    331.6858825683594,
                    -411.53302001953125
                ],
                [
                    -604.555908203125,
                    218.94171142578125,
                    276.4410095214844
                ],
                [
                    -604.555908203125,
                    218.94171142578125,
                    -276.4410095214844
                ],
                [
                    -558.136474609375,
                    332.1928405761719,
                    260.7036437988281
                ],
                [
                    -558.136474609375,
                    332.1928405761719,
                    -260.7036437988281
                ],
                [
                    -613.1275634765625,
                    276.2725830078125,
                    193.58062744140625
                ],
                [
                    -613.1275634765625,
                    276.2725830078125,
                    -193.58062744140625
                ],
                [
                    320.0298156738281,
                    -622.3352661132812,
                    -0.28150177001953125
                ],
                [
                    -320.0298156738281,
                    -622.3352661132812,
                    -0.28150177001953125
                ],
                [
                    622.3352661132812,
                    320.02981567382807,
                    -0.28150177001953125
                ],
                [
                    622.3352661132812,
                    -320.0298156738282,
                    -0.28150177001953125
                ],
                [
                    -320.029815673828,
                    622.3352661132812,
                    -0.28150177001953125
                ],
                [
                    320.02981567382824,
                    622.3352661132812,
                    -0.28150177001953125
                ],
                [
                    -622.3352661132812,
                    -320.02981567382795,
                    -0.28150177001953125
                ],
                [
                    -622.3352661132812,
                    320.0298156738283,
                    -0.28150177001953125
                ]
            ],
            "landing_zones": {
                "rules": [
                    {
                        "max": 10,
                        "min": 0
                    },
                    {
                        "max": 10,
                        "min": 0
                    },
                    {
                        "max": 10,
                        "min": 0
                    },
                    {
                        "max": 10,
                        "min": 0
                    },
                    {
                        "max": 10,
                        "min": 0
                    },
                    {
                        "max": 10,
                        "min": 0
                    },
                    {
                        "max": 10,
                        "min": 0
                    },
                    {
                        "max": 10,
                        "min": 0
                    }
                ],
                "list": [
                    [
                        -3.8304624557495117,
                        -542.427734375,
                        -442.19732666015625
                    ],
                    [
                        -548.02685546875,
                        2.558837890625,
                        -435.233154296875
                    ],
                    [
                        3.43890380859375,
                        550.1522827148438,
                        -432.529541015625
                    ],
                    [
                        547.8790283203125,
                        2.4587936401367188,
                        -435.41748046875
                    ],
                    [
                        3.524658203125,
                        -549.124755859375,
                        433.86083984375
                    ],
                    [
                        -546.995849609375,
                        4.510986328125,
                        436.5205078125
                    ],
                    [
                        3.8262481689453125,
                        547.9329833984375,
                        435.405517578125
                    ],
                    [
                        545.8203125,
                        1.506378173828125,
                        437.9891357421875
                    ]
                ]
            }
        }
    ]
}