{
    "name": "Castillon 4v4 NS",
    "description":"4v4 unshared map.  Many metal clusters that 1, 2 or even 3 players from each team can fight for.",
    "version":"1.0",
    "creator":"Grand Homie",
    "players":[8, 8],
    "planets": [
        {
            "name": "Castillon 4v4 NS",
            "mass": 10000,
            "position_x": 3300,
            "position_y": -13700,
            "velocity_x": 183.12767028808594,
            "velocity_y": 44.11104965209961,
            "required_thrust_to_move": 0,
            "starting_planet": true,
            "respawn": false,
            "start_destroyed": false,
            "min_spawn_delay": 0,
            "max_spawn_delay": 0,
            "planet": {
                "seed": 1202745600,
                "radius": 550,
                "heightRange": 0,
                "waterHeight": 0,
                "waterDepth": 0,
                "temperature": 100,
                "metalDensity": 50,
                "metalClusters": 50,
                "metalSpotLimit": -1,
                "biomeScale": 50,
                "biome": "desert",
                "symmetryType": "none",
                "symmetricalMetal": false,
                "symmetricalStarts": false,
                "numArmies": 2,
                "landingZonesPerArmy": 0,
                "landingZoneSize": 0
            },
            "planetCSG": [
                {
                    "mergeable": false,
                    "twinId": 0,
                    "flooded": false,
                    "pathable": true,
                    "no_features": true,
                    "scale": [
                        1,
                        1,
                        1
                    ],
                    "weightScale": [
                        1,
                        1,
                        1
                    ],
                    "height": 550.9332275390625,
                    "position": [
                        171.0867919921875,
                        177.38302612304688,
                        492.7392578125
                    ],
                    "transform": [
                        0.6991021633148193,
                        0.6440662145614624,
                        0.31053996086120605,
                        171.08677673339844,
                        -0.7148725986480713,
                        0.6207202672958374,
                        0.3219682574272156,
                        177.3830108642578,
                        0.0146104097366333,
                        -0.4470852017402649,
                        0.8943720459938049,
                        492.7392883300781
                    ],
                    "op": "BO_Add",
                    "weightHard": false,
                    "weight": [
                        0,
                        0,
                        0,
                        0
                    ],
                    "mirrored": false,
                    "proj": "BP_Bend",
                    "spec": "/pa/terrain/metal/brushes/metal_t2_medium_4_ramp.json",
                    "rotation": -0.7999995350837708
                },
                {
                    "mergeable": false,
                    "twinId": 0,
                    "flooded": false,
                    "pathable": true,
                    "no_features": true,
                    "scale": [
                        1,
                        1,
                        1
                    ],
                    "weightScale": [
                        1,
                        1,
                        1
                    ],
                    "height": 550.17138671875,
                    "position": [
                        176.02215576171875,
                        -177.1163330078125,
                        490.2392578125
                    ],
                    "transform": [
                        0.6127278804779053,
                        0.7226358652114868,
                        0.31994056701660156,
                        176.0221405029297,
                        -0.6470388770103455,
                        0.6911600232124329,
                        -0.32192936539649963,
                        -177.1163330078125,
                        -0.4537678360939026,
                        -0.009758874773979187,
                        0.8910664916038513,
                        490.2392883300781
                    ],
                    "op": "BO_Add",
                    "weightHard": false,
                    "weight": [
                        0,
                        0,
                        0,
                        0
                    ],
                    "mirrored": false,
                    "proj": "BP_Bend",
                    "spec": "/pa/terrain/metal/brushes/metal_t2_medium_4_ramp.json",
                    "rotation": -0.8099995851516724
                },
                {
                    "mergeable": false,
                    "twinId": 0,
                    "flooded": false,
                    "pathable": true,
                    "no_features": true,
                    "scale": [
                        1,
                        1,
                        1
                    ],
                    "weightScale": [
                        1,
                        1,
                        1
                    ],
                    "height": 549.0189819335938,
                    "position": [
                        398.3941650390625,
                        -333.4384765625,
                        -177.54635620117188
                    ],
                    "transform": [
                        -0.2563939094543457,
                        0.638512372970581,
                        0.7256473898887634,
                        398.3941955566406,
                        0.19747501611709595,
                        0.769511342048645,
                        -0.607335090637207,
                        -333.4385070800781,
                        -0.9461848735809326,
                        -0.01241976022720337,
                        -0.3233882188796997,
                        -177.5462646484375
                    ],
                    "op": "BO_Add",
                    "weightHard": false,
                    "weight": [
                        0,
                        0,
                        0,
                        0
                    ],
                    "mirrored": false,
                    "proj": "BP_Bend",
                    "spec": "/pa/terrain/metal/brushes/metal_t2_medium_4_ramp.json",
                    "rotation": 5.573187351226807
                },
                {
                    "mergeable": false,
                    "twinId": 0,
                    "flooded": false,
                    "pathable": true,
                    "no_features": true,
                    "scale": [
                        1,
                        1,
                        1
                    ],
                    "weightScale": [
                        1,
                        1,
                        1
                    ],
                    "height": 550.936279296875,
                    "position": [
                        401.9384765625,
                        327.47412109375,
                        -186.3785400390625
                    ],
                    "transform": [
                        0.6297493577003479,
                        -0.26676732301712036,
                        0.7295553088188171,
                        401.9384765625,
                        -0.7767693996429443,
                        -0.20814219117164612,
                        0.594395637512207,
                        327.47412109375,
                        -0.0067141056060791016,
                        -0.941016435623169,
                        -0.33829402923583984,
                        -186.37844848632812
                    ],
                    "op": "BO_Add",
                    "weightHard": false,
                    "weight": [
                        0,
                        0,
                        0,
                        0
                    ],
                    "mirrored": false,
                    "proj": "BP_Bend",
                    "spec": "/pa/terrain/metal/brushes/metal_t2_medium_4_ramp.json",
                    "rotation": 5.403186321258545
                },
                {
                    "mergeable": false,
                    "twinId": 0,
                    "flooded": false,
                    "pathable": true,
                    "no_features": true,
                    "scale": [
                        1,
                        1,
                        1
                    ],
                    "weightScale": [
                        1,
                        1,
                        1
                    ],
                    "height": 550.9332275390625,
                    "position": [
                        -171.0867919921875,
                        -177.38302612304688,
                        -492.7392578125
                    ],
                    "transform": [
                        -0.7396608591079712,
                        0.5970484018325806,
                        -0.31054016947746277,
                        -171.08689880371094,
                        0.6728211641311646,
                        0.6660692095756531,
                        -0.3219684660434723,
                        -177.3831329345703,
                        0.014610469341278076,
                        -0.4470854699611664,
                        -0.8943722248077393,
                        -492.7393798828125
                    ],
                    "op": "BO_Add",
                    "weightHard": false,
                    "weight": [
                        0,
                        0,
                        0,
                        0
                    ],
                    "mirrored": false,
                    "proj": "BP_Bend",
                    "spec": "/pa/terrain/metal/brushes/metal_t2_medium_4_ramp.json",
                    "rotation": 2.341593027114868
                },
                {
                    "mergeable": false,
                    "twinId": 0,
                    "flooded": false,
                    "pathable": true,
                    "no_features": true,
                    "scale": [
                        1,
                        1,
                        1
                    ],
                    "weightScale": [
                        1,
                        1,
                        1
                    ],
                    "height": 550.17138671875,
                    "position": [
                        -176.02215576171875,
                        177.1163330078125,
                        -490.2392578125
                    ],
                    "transform": [
                        0.6432294845581055,
                        -0.695624828338623,
                        -0.3199407160282135,
                        -176.02224731445312,
                        -0.616725742816925,
                        -0.7183389663696289,
                        0.3219295144081116,
                        177.11642456054688,
                        -0.4537681043148041,
                        -0.00975888967514038,
                        -0.8910664916038513,
                        -490.23931884765625
                    ],
                    "op": "BO_Add",
                    "weightHard": false,
                    "weight": [
                        0,
                        0,
                        0,
                        0
                    ],
                    "mirrored": false,
                    "proj": "BP_Bend",
                    "spec": "/pa/terrain/metal/brushes/metal_t2_medium_4_ramp.json",
                    "rotation": 2.3315930366516113
                },
                {
                    "mergeable": false,
                    "twinId": 0,
                    "flooded": false,
                    "pathable": true,
                    "no_features": true,
                    "scale": [
                        1,
                        1,
                        1
                    ],
                    "weightScale": [
                        1,
                        1,
                        1
                    ],
                    "height": 552.0189819335938,
                    "position": [
                        -398.3941650390625,
                        333.4384765625,
                        177.54635620117188
                    ],
                    "transform": [
                        -0.23954607546329498,
                        -0.6450221538543701,
                        -0.7256472706794739,
                        -400.5710754394531,
                        0.21760523319244385,
                        -0.7640629410743713,
                        0.6073349714279175,
                        335.26043701171875,
                        -0.9461846947669983,
                        -0.012419909238815308,
                        0.3233884572982788,
                        178.51657104492188
                    ],
                    "op": "BO_Add",
                    "weightHard": false,
                    "weight": [
                        0,
                        0,
                        0,
                        0
                    ],
                    "mirrored": false,
                    "proj": "BP_Bend",
                    "spec": "/pa/terrain/metal/brushes/metal_t2_medium_4_ramp.json",
                    "rotation": 8.7147798538208
                },
                {
                    "mergeable": false,
                    "twinId": 0,
                    "flooded": false,
                    "pathable": true,
                    "no_features": true,
                    "scale": [
                        1,
                        1,
                        1
                    ],
                    "weightScale": [
                        1,
                        1,
                        1
                    ],
                    "height": 550.936279296875,
                    "position": [
                        -401.9384765625,
                        -327.47412109375,
                        186.3785400390625
                    ],
                    "transform": [
                        -0.6334917545318604,
                        -0.25775426626205444,
                        -0.7295552492141724,
                        -401.9384460449219,
                        0.7737202644348145,
                        -0.21920479834079742,
                        -0.5943955779075623,
                        -327.4740905761719,
                        -0.0067140161991119385,
                        -0.9410163760185242,
                        0.3382941484451294,
                        186.37852478027344
                    ],
                    "op": "BO_Add",
                    "weightHard": false,
                    "weight": [
                        0,
                        0,
                        0,
                        0
                    ],
                    "mirrored": false,
                    "proj": "BP_Bend",
                    "spec": "/pa/terrain/metal/brushes/metal_t2_medium_4_ramp.json",
                    "rotation": 8.544778823852539
                }
            ],
            "metal_spots": [
                [
                    187.28433227539062,
                    267.7665100097656,
                    -442.14434814453125
                ],
                [
                    154.39016723632812,
                    342.8155822753906,
                    -400.31878662109375
                ],
                [
                    147.93521118164062,
                    260.40411376953125,
                    -461.09259033203125
                ],
                [
                    111.3094482421875,
                    336.8821716308594,
                    -419.71563720703125
                ],
                [
                    158.60963439941406,
                    -337.7735595703125,
                    -401.2442321777344
                ],
                [
                    117.44013977050781,
                    -331.259765625,
                    -420.278076171875
                ],
                [
                    149.58673095703125,
                    -255.85911560058594,
                    -459.5623779296875
                ],
                [
                    192.46014404296875,
                    -263.0174865722656,
                    -439.05810546875
                ],
                [
                    -187.28433227539062,
                    -267.7665100097656,
                    442.14434814453125
                ],
                [
                    -154.39016723632812,
                    -342.8155822753906,
                    400.31878662109375
                ],
                [
                    -147.93521118164062,
                    -260.40411376953125,
                    461.09259033203125
                ],
                [
                    -111.3094482421875,
                    -336.8821716308594,
                    419.71563720703125
                ],
                [
                    -149.58673095703125,
                    255.85911560058594,
                    459.5623779296875
                ],
                [
                    -192.46014404296875,
                    263.0174865722656,
                    439.05810546875
                ],
                [
                    155.04270935058594,
                    -184.6956787109375,
                    517.09130859375
                ],
                [
                    183.93856811523438,
                    -155.52272033691406,
                    517.0974731445312
                ],
                [
                    179.30470275878906,
                    -211.87371826171875,
                    497.9058837890625
                ],
                [
                    209.5724334716797,
                    -182.68527221679688,
                    497.5296630859375
                ],
                [
                    177.6459197998047,
                    155.39859008789062,
                    519.866943359375
                ],
                [
                    149.78854370117188,
                    185.21438598632812,
                    519.240234375
                ],
                [
                    174.91824340820312,
                    211.74658203125,
                    500.45684814453125
                ],
                [
                    205.5111846923828,
                    181.6217041015625,
                    500.4132080078125
                ],
                [
                    404.72698974609375,
                    -365.0100402832031,
                    -163.5503387451172
                ],
                [
                    431.0736999511719,
                    -332.7227478027344,
                    -165.0330352783203
                ],
                [
                    392.9912109375,
                    -357.5301818847656,
                    -203.82415771484375
                ],
                [
                    419.48260498046875,
                    -325.5807189941406,
                    -204.04644775390625
                ],
                [
                    435.75836181640625,
                    326.58355712890625,
                    -172.55763244628906
                ],
                [
                    408.7529602050781,
                    360.31494140625,
                    -170.90040588378906
                ],
                [
                    423.5625915527344,
                    318.04937744140625,
                    -212.89207458496094
                ],
                [
                    397.4321594238281,
                    350.5915222167969,
                    -211.8050994873047
                ],
                [
                    -394.97021484375,
                    359.48516845703125,
                    203.69021606445312
                ],
                [
                    -405.0015869140625,
                    368.03277587890625,
                    165.6414794921875
                ],
                [
                    -431.9134521484375,
                    336.28887939453125,
                    165.3704833984375
                ],
                [
                    -422.4029541015625,
                    326.603271484375,
                    205.26907348632812
                ],
                [
                    -423.899169921875,
                    -317.9649963378906,
                    213.0843505859375
                ],
                [
                    -396.9128723144531,
                    -350.74853515625,
                    213.0128936767578
                ],
                [
                    -435.1346435546875,
                    -326.92071533203125,
                    173.35418701171875
                ],
                [
                    -408.361328125,
                    -358.76422119140625,
                    173.79824829101562
                ],
                [
                    -181.875244140625,
                    212.27633666992188,
                    -497.3487243652344
                ],
                [
                    -211.3203887939453,
                    181.4818572998047,
                    -498.0904235839844
                ],
                [
                    -154.77847290039062,
                    185.79031372070312,
                    -515.9456787109375
                ],
                [
                    -182.69052124023438,
                    155.01914978027344,
                    -517.3150634765625
                ],
                [
                    -180.79388427734375,
                    -155.54031372070312,
                    -519.0324096679688
                ],
                [
                    -148.82373046875,
                    -183.07191467285156,
                    -520.25048828125
                ],
                [
                    -205.00967407226562,
                    -183.10723876953125,
                    -500.2546691894531
                ],
                [
                    -174.25372314453125,
                    -211.22470092773438,
                    -500.6487121582031
                ],
                [
                    395.26708984375,
                    -368.37982177734375,
                    97.14704132080078
                ],
                [
                    440.92919921875,
                    -313.4713134765625,
                    97.04248046875
                ],
                [
                    409.63134765625,
                    -332.9322509765625,
                    153.73809814453125
                ],
                [
                    444.0216064453125,
                    317.070556640625,
                    86.86972045898438
                ],
                [
                    398.7894287109375,
                    372.1217041015625,
                    87.89115905761719
                ],
                [
                    414.5380859375,
                    340.0400390625,
                    135.38705444335938
                ],
                [
                    327.90252685546875,
                    280.727783203125,
                    344.880615234375
                ],
                [
                    274.798095703125,
                    332.1971435546875,
                    343.4476318359375
                ],
                [
                    325.0430908203125,
                    322.67431640625,
                    309.6829833984375
                ],
                [
                    320.94140625,
                    -326.25299072265625,
                    303.4130859375
                ],
                [
                    324.6067810058594,
                    -281.8989562988281,
                    343.0396423339844
                ],
                [
                    272.7291259765625,
                    -329.35284423828125,
                    344.585205078125
                ],
                [
                    360.4083251953125,
                    -89.05366516113281,
                    407.80487060546875
                ],
                [
                    391.200439453125,
                    -93.87706756591797,
                    377.450439453125
                ],
                [
                    363.27587890625,
                    86.07563781738281,
                    408.05419921875
                ],
                [
                    394.5887451171875,
                    89.15948486328125,
                    377.6185302734375
                ],
                [
                    521.0655517578125,
                    -110.11160278320312,
                    -132.10543823242188
                ],
                [
                    502.4920654296875,
                    -104.63397216796875,
                    -193.1336669921875
                ],
                [
                    519.7080078125,
                    110.26742553710938,
                    -137.4109649658203
                ],
                [
                    501.5919189453125,
                    98.73109436035156,
                    -200.50401306152344
                ],
                [
                    -395.26708984375,
                    368.37982177734375,
                    -97.14704132080078
                ],
                [
                    -440.92919921875,
                    313.4713134765625,
                    -97.04248046875
                ],
                [
                    -409.63134765625,
                    332.9322509765625,
                    -153.73809814453125
                ],
                [
                    -444.0216064453125,
                    -317.070556640625,
                    -86.86972045898438
                ],
                [
                    -398.7894287109375,
                    -372.1217041015625,
                    -87.89115905761719
                ],
                [
                    -414.5380859375,
                    -340.0400390625,
                    -135.38705444335938
                ],
                [
                    -327.90252685546875,
                    -280.727783203125,
                    -344.880615234375
                ],
                [
                    -274.798095703125,
                    -332.1971435546875,
                    -343.4476318359375
                ],
                [
                    -325.0430908203125,
                    -322.67431640625,
                    -309.6829833984375
                ],
                [
                    -320.94140625,
                    326.25299072265625,
                    -303.4130859375
                ],
                [
                    -324.6067810058594,
                    281.8989562988281,
                    -343.0396423339844
                ],
                [
                    -272.7291259765625,
                    329.35284423828125,
                    -344.585205078125
                ],
                [
                    -360.4083251953125,
                    89.05366516113281,
                    -407.80487060546875
                ],
                [
                    -391.200439453125,
                    93.87706756591797,
                    -377.450439453125
                ],
                [
                    -363.27587890625,
                    -86.07563781738281,
                    -408.05419921875
                ],
                [
                    -394.5887451171875,
                    -89.15948486328125,
                    -377.6185302734375
                ],
                [
                    -521.0655517578125,
                    110.11160278320312,
                    132.10543823242188
                ],
                [
                    -502.4920654296875,
                    104.63397216796875,
                    193.1336669921875
                ],
                [
                    -519.7080078125,
                    -110.26742553710938,
                    137.4109649658203
                ],
                [
                    -501.5919189453125,
                    -98.73109436035156,
                    200.50401306152344
                ],
                [
                    32.00007247924805,
                    -542.0076904296875,
                    85.50454711914062
                ],
                [
                    -31.909255981445312,
                    -547.5662841796875,
                    -52.272796630859375
                ],
                [
                    -32.00007247924805,
                    542.0076904296875,
                    -85.50454711914062
                ],
                [
                    31.909255981445312,
                    547.5662841796875,
                    52.272796630859375
                ],
                [
                    -124.47198486328125,
                    311.01702880859375,
                    438.626708984375
                ],
                [
                    -166.13092041015625,
                    322.8023986816406,
                    415.287353515625
                ],
                [
                    -1.6160449981689453,
                    550.8011474609375,
                    -17.474411010742188
                ],
                [
                    -76.52913665771484,
                    544.5299072265625,
                    -30.055206298828125
                ],
                [
                    -44.51380920410156,
                    547.8017578125,
                    44.34247589111328
                ],
                [
                    73.47055053710938,
                    546.686279296875,
                    -8.393157958984375
                ],
                [
                    42.91954803466797,
                    542.7135009765625,
                    -84.10649871826172
                ],
                [
                    1.6160449981689453,
                    -550.8011474609375,
                    17.474411010742188
                ],
                [
                    76.52913665771484,
                    -544.5299072265625,
                    30.055206298828125
                ],
                [
                    44.51380920410156,
                    -547.8017578125,
                    -44.34247589111328
                ],
                [
                    -73.47055053710938,
                    -546.686279296875,
                    8.393157958984375
                ],
                [
                    -42.91954803466797,
                    -542.7135009765625,
                    84.10649871826172
                ],
                [
                    279.39990234375,
                    -471.51397705078125,
                    -18.5540771484375
                ],
                [
                    259.15380859375,
                    -480.4122314453125,
                    -52.161285400390625
                ],
                [
                    278.787353515625,
                    474.0836181640625,
                    -26.597930908203125
                ],
                [
                    264.8121337890625,
                    479.59100341796875,
                    -56.99336242675781
                ],
                [
                    -279.39990234375,
                    471.51397705078125,
                    18.5540771484375
                ],
                [
                    -259.15380859375,
                    480.4122314453125,
                    52.161285400390625
                ],
                [
                    -278.787353515625,
                    -474.0836181640625,
                    26.597930908203125
                ],
                [
                    -264.8121337890625,
                    -479.59100341796875,
                    56.99336242675781
                ],
                [
                    -383.16729736328125,
                    -127.14077758789062,
                    -369.6773681640625
                ],
                [
                    -352.4844970703125,
                    -125.55860900878906,
                    -399.09564208984375
                ],
                [
                    -383.03338623046875,
                    137.8957061767578,
                    -369.511962890625
                ],
                [
                    -352.79693603515625,
                    136.13113403320312,
                    -397.325927734375
                ],
                [
                    383.16729736328125,
                    127.14077758789062,
                    369.6773681640625
                ],
                [
                    352.4844970703125,
                    125.55860900878906,
                    399.09564208984375
                ],
                [
                    383.03338623046875,
                    -137.8957061767578,
                    369.511962890625
                ],
                [
                    352.79693603515625,
                    -136.13113403320312,
                    397.325927734375
                ]
            ],
            "landing_zones": {
                "rules": [
                    {
                        "max": 10,
                        "min": 0
                    },
                    {
                        "max": 10,
                        "min": 0
                    },
                    {
                        "max": 10,
                        "min": 0
                    },
                    {
                        "max": 10,
                        "min": 0
                    },
                    {
                        "max": 10,
                        "min": 0
                    },
                    {
                        "max": 10,
                        "min": 0
                    },
                    {
                        "max": 10,
                        "min": 0
                    },
                    {
                        "max": 10,
                        "min": 0
                    }
                ],
                "list": [
                    [
                        172.47564697265625,
                        -189.43450927734375,
                        509.4681396484375
                    ],
                    [
                        178.28717041015625,
                        184.54876708984375,
                        509.977294921875
                    ],
                    [
                        408.128662109375,
                        -351.09930419921875,
                        -184.06201171875
                    ],
                    [
                        416.77294921875,
                        338.4794921875,
                        -194.09901428222656
                    ],
                    [
                        -415.195556640625,
                        -344.0135498046875,
                        187.507568359375
                    ],
                    [
                        -413.473876953125,
                        349.32672119140625,
                        184.7205810546875
                    ],
                    [
                        -174.78680419921875,
                        -187.7017822265625,
                        -510.00048828125
                    ],
                    [
                        -183.35345458984375,
                        184.17214965820312,
                        -507.5076904296875
                    ]
                ]
            }
        }
    ]
}