{
    "name": "Hastings 3v3 NS",
    "description":"TODO",
    "version":"1.0",
    "creator":"Grand Homie",
    "players":[6, 6],
    "planets": [
        {
            "name": "Hastings",
            "mass": 10000,
            "position_x": 2900,
            "position_y": -18100,
            "velocity_x": 163.0758819580078,
            "velocity_y": 26.12818717956543,
            "required_thrust_to_move": 0,
            "starting_planet": true,
            "respawn": false,
            "start_destroyed": false,
            "min_spawn_delay": 0,
            "max_spawn_delay": 0,
            "planet": {
                "seed": 1930573312,
                "radius": 450,
                "heightRange": 0,
                "waterHeight": 0,
                "waterDepth": 0,
                "temperature": 0,
                "metalDensity": 50,
                "metalClusters": 50,
                "metalSpotLimit": -1,
                "biomeScale": 50,
                "biome": "desert",
                "symmetryType": "terrain and CSG",
                "symmetricalMetal": true,
                "symmetricalStarts": true,
                "numArmies": 2,
                "landingZonesPerArmy": 1,
                "landingZoneSize": 100
            },
            "planetCSG": [
                {
                    "mergeable": false,
                    "twinId": 0,
                    "flooded": false,
                    "pathable": false,
                    "no_features": false,
                    "scale": [
                        1,
                        1,
                        1
                    ],
                    "weightScale": [
                        1,
                        1,
                        1
                    ],
                    "height": 455.78863525390625,
                    "position": [
                        -360.885986328125,
                        -6.2541961669921875,
                        278.326171875
                    ],
                    "mirrored": false,
                    "proj": "BP_Bend",
                    "op": "BO_Add",
                    "transform": [
                        0.5760483145713806,
                        0.20309314131736755,
                        -0.7917838096618652,
                        -360.88604736328125,
                        -0.349194198846817,
                        0.9369499087333679,
                        -0.013721705414354801,
                        -6.254197597503662,
                        0.7390750050544739,
                        0.2843906879425049,
                        0.6106473803520203,
                        278.3261413574219
                    ],
                    "weightHard": false,
                    "weight": [
                        0,
                        0,
                        0,
                        0
                    ],
                    "rotation": -0.34999993443489075,
                    "spec": "/pa/terrain/metal/brushes/metal_structure_06.json"
                },
                {
                    "mergeable": false,
                    "twinId": 0,
                    "flooded": false,
                    "pathable": false,
                    "no_features": false,
                    "scale": [
                        1,
                        1,
                        1
                    ],
                    "weightScale": [
                        1,
                        1,
                        1
                    ],
                    "height": 455.78863525390625,
                    "position": [
                        -360.885986328125,
                        -6.2541961669921875,
                        278.326171875
                    ],
                    "mirrored": true,
                    "proj": "BP_Bend",
                    "op": "BO_Add",
                    "transform": [
                        0.5760483145713806,
                        0.20309314131736755,
                        -0.7917838096618652,
                        -360.8860168457031,
                        -0.349194198846817,
                        0.9369499087333679,
                        -0.013721705414354801,
                        -6.254197597503662,
                        -0.7390750050544739,
                        -0.2843906879425049,
                        -0.6106473803520203,
                        -278.3261413574219
                    ],
                    "weightHard": false,
                    "weight": [
                        0,
                        0,
                        0,
                        0
                    ],
                    "rotation": -0.34999993443489075,
                    "spec": "/pa/terrain/metal/brushes/metal_structure_06.json"
                },
                {
                    "mergeable": false,
                    "twinId": 0,
                    "flooded": false,
                    "pathable": false,
                    "no_features": false,
                    "scale": [
                        1,
                        1,
                        1
                    ],
                    "weightScale": [
                        1,
                        1,
                        1
                    ],
                    "height": 455.78863525390625,
                    "position": [
                        185.85928344726562,
                        -309.4093322753906,
                        278.326171875
                    ],
                    "mirrored": false,
                    "proj": "BP_Bend",
                    "op": "BO_Add",
                    "transform": [
                        0.014386877417564392,
                        -0.9129690527915955,
                        0.4077751934528351,
                        185.8592987060547,
                        0.6734696626663208,
                        -0.29259106516838074,
                        -0.6788439750671387,
                        -309.40936279296875,
                        0.7390749454498291,
                        0.2843906581401825,
                        0.610647439956665,
                        278.326171875
                    ],
                    "weightHard": false,
                    "weight": [
                        0,
                        0,
                        0,
                        0
                    ],
                    "rotation": 1.744395136833191,
                    "spec": "/pa/terrain/metal/brushes/metal_structure_06.json"
                },
                {
                    "mergeable": false,
                    "twinId": 0,
                    "flooded": false,
                    "pathable": false,
                    "no_features": false,
                    "scale": [
                        1,
                        1,
                        1
                    ],
                    "weightScale": [
                        1,
                        1,
                        1
                    ],
                    "height": 455.78863525390625,
                    "position": [
                        185.85928344726562,
                        -309.4093322753906,
                        278.326171875
                    ],
                    "mirrored": true,
                    "proj": "BP_Bend",
                    "op": "BO_Add",
                    "transform": [
                        0.014386877417564392,
                        -0.9129690527915955,
                        0.4077751934528351,
                        185.8592987060547,
                        0.6734696626663208,
                        -0.29259106516838074,
                        -0.6788439750671387,
                        -309.40936279296875,
                        -0.7390749454498291,
                        -0.2843906581401825,
                        -0.610647439956665,
                        -278.326171875
                    ],
                    "weightHard": false,
                    "weight": [
                        0,
                        0,
                        0,
                        0
                    ],
                    "rotation": 1.744395136833191,
                    "spec": "/pa/terrain/metal/brushes/metal_structure_06.json"
                },
                {
                    "mergeable": false,
                    "twinId": 0,
                    "flooded": false,
                    "pathable": false,
                    "no_features": false,
                    "scale": [
                        1,
                        1,
                        1
                    ],
                    "weightScale": [
                        1,
                        1,
                        1
                    ],
                    "height": 455.78863525390625,
                    "position": [
                        175.02670288085938,
                        315.6635437011719,
                        278.326171875
                    ],
                    "mirrored": false,
                    "proj": "BP_Bend",
                    "op": "BO_Add",
                    "transform": [
                        -0.590435266494751,
                        0.709875762462616,
                        0.384008526802063,
                        175.02671813964844,
                        -0.32427531480789185,
                        -0.64435875415802,
                        0.6925657391548157,
                        315.6636047363281,
                        0.7390749454498291,
                        0.28439077734947205,
                        0.610647439956665,
                        278.326171875
                    ],
                    "weightHard": false,
                    "weight": [
                        0,
                        0,
                        0,
                        0
                    ],
                    "rotation": 3.83879017829895,
                    "spec": "/pa/terrain/metal/brushes/metal_structure_06.json"
                },
                {
                    "mergeable": false,
                    "twinId": 0,
                    "flooded": false,
                    "pathable": false,
                    "no_features": false,
                    "scale": [
                        1,
                        1,
                        1
                    ],
                    "weightScale": [
                        1,
                        1,
                        1
                    ],
                    "height": 455.78863525390625,
                    "position": [
                        175.02670288085938,
                        315.6635437011719,
                        278.326171875
                    ],
                    "mirrored": true,
                    "proj": "BP_Bend",
                    "op": "BO_Add",
                    "transform": [
                        -0.590435266494751,
                        0.709875762462616,
                        0.384008526802063,
                        175.02671813964844,
                        -0.32427531480789185,
                        -0.64435875415802,
                        0.6925657391548157,
                        315.6636047363281,
                        -0.7390749454498291,
                        -0.28439077734947205,
                        -0.610647439956665,
                        -278.326171875
                    ],
                    "weightHard": false,
                    "weight": [
                        0,
                        0,
                        0,
                        0
                    ],
                    "rotation": 3.83879017829895,
                    "spec": "/pa/terrain/metal/brushes/metal_structure_06.json"
                }
            ],
            "metal_spots": [
                [
                    7.0657501220703125,
                    -222.43798828125,
                    389.0860595703125
                ],
                [
                    7.0657501220703125,
                    -222.43798828125,
                    -389.0860595703125
                ],
                [
                    -39.85069274902344,
                    -233.7889404296875,
                    380.25860595703125
                ],
                [
                    -39.85069274902344,
                    -233.7889404296875,
                    -380.25860595703125
                ],
                [
                    -83.45532989501953,
                    -242.6002197265625,
                    368.3438720703125
                ],
                [
                    -83.45532989501953,
                    -242.6002197265625,
                    -368.3438720703125
                ],
                [
                    -126.6632080078125,
                    -247.13165283203125,
                    353.43975830078125
                ],
                [
                    -126.6632080078125,
                    -247.13165283203125,
                    -353.43975830078125
                ],
                [
                    -95.75223541259766,
                    -202.5205078125,
                    389.60614013671875
                ],
                [
                    -95.75223541259766,
                    -202.5205078125,
                    -389.60614013671875
                ],
                [
                    -69.512451171875,
                    -275.89776611328125,
                    347.349365234375
                ],
                [
                    -69.512451171875,
                    -275.89776611328125,
                    -347.349365234375
                ],
                [
                    -265.82513427734375,
                    -154.74139404296875,
                    331.637451171875
                ],
                [
                    -265.82513427734375,
                    -154.74139404296875,
                    -331.637451171875
                ],
                [
                    -70.66177368164062,
                    -375.4801025390625,
                    237.93914794921875
                ],
                [
                    -70.66177368164062,
                    -375.4801025390625,
                    -237.93914794921875
                ],
                [
                    42.089447021484375,
                    -400.32470703125,
                    200.84376525878906
                ],
                [
                    42.089447021484375,
                    -400.32470703125,
                    -200.84376525878906
                ],
                [
                    108.19346618652344,
                    -392.9892578125,
                    189.9119873046875
                ],
                [
                    108.19346618652344,
                    -392.9892578125,
                    -189.9119873046875
                ],
                [
                    96.1534423828125,
                    -415.5570068359375,
                    140.61936950683594
                ],
                [
                    96.1534423828125,
                    -415.5570068359375,
                    -140.61936950683594
                ],
                [
                    34.61872863769531,
                    -424.1300048828125,
                    144.59323120117188
                ],
                [
                    34.61872863769531,
                    -424.1300048828125,
                    -144.59323120117188
                ],
                [
                    -215.28622436523438,
                    -393.6947021484375,
                    32.43137741088867
                ],
                [
                    -215.28622436523438,
                    -393.6947021484375,
                    -32.43137741088867
                ],
                [
                    -158.2713623046875,
                    -420.7626953125,
                    28.959016799926758
                ],
                [
                    -158.2713623046875,
                    -420.7626953125,
                    -28.959016799926758
                ],
                [
                    -448.31829833984375,
                    -56.63739013671875,
                    36.23896026611328
                ],
                [
                    -448.31829833984375,
                    -56.63739013671875,
                    -36.23896026611328
                ],
                [
                    189.1040802001953,
                    117.3381118774414,
                    389.0860595703125
                ],
                [
                    189.1040802001953,
                    117.3381118774414,
                    -389.0860595703125
                ],
                [
                    222.3925018310547,
                    82.38275909423828,
                    380.25860595703125
                ],
                [
                    222.3925018310547,
                    82.38275909423828,
                    -380.25860595703125
                ],
                [
                    251.82562255859375,
                    49.025672912597656,
                    368.3438720703125
                ],
                [
                    251.82562255859375,
                    49.025672912597656,
                    -368.3438720703125
                ],
                [
                    277.3538818359375,
                    13.872270584106445,
                    353.43975830078125
                ],
                [
                    277.3538818359375,
                    13.872270584106445,
                    -353.43975830078125
                ],
                [
                    223.26402282714844,
                    18.33638572692871,
                    389.60614013671875
                ],
                [
                    223.26402282714844,
                    18.33638572692871,
                    -389.60614013671875
                ],
                [
                    273.6907043457031,
                    77.74933624267578,
                    347.349365234375
                ],
                [
                    273.6907043457031,
                    77.74933624267578,
                    -347.349365234375
                ],
                [
                    266.92254638671875,
                    -152.8406219482422,
                    331.637451171875
                ],
                [
                    266.92254638671875,
                    -152.8406219482422,
                    -331.637451171875
                ],
                [
                    360.5061950683594,
                    126.54515838623047,
                    237.93914794921875
                ],
                [
                    360.5061950683594,
                    126.54515838623047,
                    -237.93914794921875
                ],
                [
                    325.6466369628906,
                    236.61288452148438,
                    200.84376525878906
                ],
                [
                    325.6466369628906,
                    236.61288452148438,
                    -200.84376525878906
                ],
                [
                    286.241943359375,
                    290.19293212890625,
                    189.9119873046875
                ],
                [
                    286.241943359375,
                    290.19293212890625,
                    -189.9119873046875
                ],
                [
                    311.80621337890625,
                    291.0498352050781,
                    140.61936950683594
                ],
                [
                    311.80621337890625,
                    291.0498352050781,
                    -140.61936950683594
                ],
                [
                    349.99798583984375,
                    242.0457000732422,
                    144.59323120117188
                ],
                [
                    349.99798583984375,
                    242.0457000732422,
                    -144.59323120117188
                ],
                [
                    448.59271240234375,
                    10.404011726379395,
                    32.43137741088867
                ],
                [
                    448.59271240234375,
                    10.404011726379395,
                    -32.43137741088867
                ],
                [
                    443.52685546875,
                    73.31432342529297,
                    28.959016799926758
                ],
                [
                    443.52685546875,
                    73.31432342529297,
                    -28.959016799926758
                ],
                [
                    273.20855712890625,
                    -359.93634033203125,
                    36.23896026611328
                ],
                [
                    273.20855712890625,
                    -359.93634033203125,
                    -36.23896026611328
                ],
                [
                    -196.16983032226562,
                    105.0998764038086,
                    389.0860595703125
                ],
                [
                    -196.16983032226562,
                    105.0998764038086,
                    -389.0860595703125
                ],
                [
                    -182.54180908203125,
                    151.40618896484375,
                    380.25860595703125
                ],
                [
                    -182.54180908203125,
                    151.40618896484375,
                    -380.25860595703125
                ],
                [
                    -168.3702850341797,
                    193.5745391845703,
                    368.3438720703125
                ],
                [
                    -168.3702850341797,
                    193.5745391845703,
                    -368.3438720703125
                ],
                [
                    -150.69068908691406,
                    233.25938415527344,
                    353.43975830078125
                ],
                [
                    -150.69068908691406,
                    233.25938415527344,
                    -353.43975830078125
                ],
                [
                    -127.51178741455078,
                    184.1841278076172,
                    389.60614013671875
                ],
                [
                    -127.51178741455078,
                    184.1841278076172,
                    -389.60614013671875
                ],
                [
                    -204.17825317382812,
                    198.1484375,
                    347.349365234375
                ],
                [
                    -204.17825317382812,
                    198.1484375,
                    -347.349365234375
                ],
                [
                    -1.0974111557006836,
                    307.58203125,
                    331.637451171875
                ],
                [
                    -1.0974111557006836,
                    307.58203125,
                    -331.637451171875
                ],
                [
                    -289.84442138671875,
                    248.9349365234375,
                    237.93914794921875
                ],
                [
                    -289.84442138671875,
                    248.9349365234375,
                    -237.93914794921875
                ],
                [
                    -367.736083984375,
                    163.71182250976562,
                    200.84376525878906
                ],
                [
                    -367.736083984375,
                    163.71182250976562,
                    -200.84376525878906
                ],
                [
                    -394.4354248046875,
                    102.79634094238281,
                    189.9119873046875
                ],
                [
                    -394.4354248046875,
                    102.79634094238281,
                    -189.9119873046875
                ],
                [
                    -407.95965576171875,
                    124.5071792602539,
                    140.61936950683594
                ],
                [
                    -407.95965576171875,
                    124.5071792602539,
                    -140.61936950683594
                ],
                [
                    -384.6167297363281,
                    182.0843048095703,
                    144.59323120117188
                ],
                [
                    -384.6167297363281,
                    182.0843048095703,
                    -144.59323120117188
                ],
                [
                    -233.30650329589844,
                    383.2906799316406,
                    32.43137741088867
                ],
                [
                    -233.30650329589844,
                    383.2906799316406,
                    -32.43137741088867
                ],
                [
                    -285.2554931640625,
                    347.4483642578125,
                    28.959016799926758
                ],
                [
                    -285.2554931640625,
                    347.4483642578125,
                    -28.959016799926758
                ],
                [
                    175.10972595214844,
                    416.57373046875,
                    36.23896026611328
                ],
                [
                    175.10972595214844,
                    416.57373046875,
                    -36.23896026611328
                ],
                [
                    329.4820556640625,
                    -239.2906494140625,
                    191.09036254882812
                ],
                [
                    329.4820556640625,
                    -239.2906494140625,
                    -191.09036254882812
                ],
                [
                    374.1961669921875,
                    -167.24786376953125,
                    186.39337158203125
                ],
                [
                    374.1961669921875,
                    -167.24786376953125,
                    -186.39337158203125
                ],
                [
                    389.791259765625,
                    -188.1434326171875,
                    124.89505004882812
                ],
                [
                    389.791259765625,
                    -188.1434326171875,
                    -124.89505004882812
                ],
                [
                    362.425048828125,
                    -215.00909423828125,
                    157.50563049316406
                ],
                [
                    362.425048828125,
                    -215.00909423828125,
                    -157.50563049316406
                ],
                [
                    348.16845703125,
                    -256.8555908203125,
                    122.19126892089844
                ],
                [
                    348.16845703125,
                    -256.8555908203125,
                    -122.19126892089844
                ],
                [
                    42.49075344862288,
                    404.9851550032278,
                    191.09036254882812
                ],
                [
                    42.49075344862288,
                    404.9851550032278,
                    -191.09036254882812
                ],
                [
                    -42.25718474300058,
                    407.687318498764,
                    186.39337158203125
                ],
                [
                    -42.25718474300058,
                    407.687318498764,
                    -186.39337158203125
                ],
                [
                    -31.95863768112227,
                    431.6408494387641,
                    124.89505004882812
                ],
                [
                    -31.95863768112227,
                    431.6408494387641,
                    -124.89505004882812
                ],
                [
                    4.990813240971534,
                    421.37384637211244,
                    157.50563049316406
                ],
                [
                    4.990813240971534,
                    421.37384637211244,
                    -157.50563049316406
                ],
                [
                    48.35923823882678,
                    429.95052399564946,
                    122.19126892089844
                ],
                [
                    48.35923823882678,
                    429.95052399564946,
                    -122.19126892089844
                ],
                [
                    -371.9728091126853,
                    -165.69450558916515,
                    191.09036254882812
                ],
                [
                    -371.9728091126853,
                    -165.69450558916515,
                    -191.09036254882812
                ],
                [
                    -331.93898224918684,
                    -240.4394547292326,
                    186.39337158203125
                ],
                [
                    -331.93898224918684,
                    -240.4394547292326,
                    -186.39337158203125
                ],
                [
                    -357.8326220845027,
                    -243.49741682157645,
                    124.89505004882812
                ],
                [
                    -357.8326220845027,
                    -243.49741682157645,
                    -124.89505004882812
                ],
                [
                    -367.4158620690965,
                    -206.36475213383105,
                    157.50563049316406
                ],
                [
                    -367.4158620690965,
                    -206.36475213383105,
                    -157.50563049316406
                ],
                [
                    -396.52769527007666,
                    -173.09493317533682,
                    122.19126892089844
                ],
                [
                    -396.52769527007666,
                    -173.09493317533682,
                    -122.19126892089844
                ]
            ],
            "landing_zones": {
                "list": [
                    [
                        -51.50555419921875,
                        -238.299560546875,
                        372.7464599609375
                    ],
                    [
                        237.6851806640625,
                        76.93376922607422,
                        379.427734375
                    ],
                    [
                        -195.3734130859375,
                        168.9478759765625,
                        375.7933349609375
                    ],
                    [
                        -51.50555419921875,
                        -238.299560546875,
                        -372.7464599609375
                    ],
                    [
                        237.6851806640625,
                        76.93376922607422,
                        -379.427734375
                    ],
                    [
                        -195.3734130859375,
                        168.9478759765625,
                        -375.7933349609375
                    ]
                ],
                "rules": [
                    {
                        "min": "6",
                        "max": "6"
                    },
                    {
                        "min": "6",
                        "max": "6"
                    },
                    {
                        "min": "6",
                        "max": "6"
                    },
                    {
                        "min": "6",
                        "max": "6"
                    },
                    {
                        "min": "6",
                        "max": "6"
                    },
                    {
                        "min": "6",
                        "max": "6"
                    }
                ]
            }
        }
    ]
}