{
    "name": "Heavy Metal Gauntlet 4v4",
    "version":"1.0",
    "creator":"Nomega",
    "description":"Map from Nomega. Two very large platforms connected by a large bridge surrounded by water. Four players spawn on each platfrom. Good amount of starting metal with strategic metal points points to capture. Many different strategic options.",
    "players":[8, 8],
    "planets": [
        {
            "name": "Nomegatron",
            "mass": 20000,
            "position_x": -7000,
            "position_y": -14500,
            "velocity_x": 158.69525146484375,
            "velocity_y": -76.61150360107422,
            "required_thrust_to_move": 0,
            "starting_planet": true,
            "respawn": false,
            "start_destroyed": false,
            "min_spawn_delay": 0,
            "max_spawn_delay": 0,
            "planet": {
                "seed": 1592234624,
                "radius": 705,
                "heightRange": 35,
                "waterHeight": 70,
                "waterDepth": 100,
                "temperature": 50,
                "metalDensity": 50,
                "metalClusters": 50,
                "metalSpotLimit": -1,
                "biomeScale": 50,
                "biome": "earth",
                "symmetryType": "none",
                "symmetricalMetal": false,
                "symmetricalStarts": false,
                "numArmies": 2,
                "landingZonesPerArmy": 0,
                "landingZoneSize": 0
            },
            "planetCSG": [
                {
                    "weight": [
                        0,
                        0,
                        0,
                        0
                    ],
                    "spec": "/pa/terrain/desert/brushes/desert_metal_t1_large_8_ramp.json",
                    "proj": "BP_Bend",
                    "transform": [
                        1.287123441696167,
                        -0.3598284125328064,
                        -1.1141966581344604,
                        -460.1456298828125,
                        -0.6751452088356018,
                        1.1247113943099976,
                        -1.1431539058685303,
                        -472.1045227050781,
                        0.9566032290458679,
                        1.2779457569122314,
                        0.692359983921051,
                        285.9337463378906
                    ],
                    "op": "BO_Add",
                    "rotation": -0.12999998033046722,
                    "scale": [
                        1.7399992942810059,
                        1.7399992942810059,
                        1.7399992942810059
                    ],
                    "height": 718.5922241210938,
                    "position": [
                        -462.70703125,
                        -474.732421875,
                        287.525390625
                    ],
                    "weightHard": false,
                    "weightScale": [
                        1,
                        1,
                        1
                    ],
                    "mirrored": false,
                    "twinId": 0,
                    "flooded": false,
                    "pathable": true,
                    "mergeable": false,
                    "no_features": true
                },
                {
                    "weight": [
                        0,
                        0,
                        0,
                        0
                    ],
                    "spec": "/pa/terrain/desert/brushes/desert_metal_t3_small_2_ramp.json",
                    "proj": "BP_Bend",
                    "transform": [
                        -4.882273197174072,
                        4.047767162322998,
                        0.4787924289703369,
                        52.061622619628906,
                        2.5832576751708984,
                        3.650730848312378,
                        -4.522078990936279,
                        -491.70941162109375,
                        -3.152846336364746,
                        -3.276888847351074,
                        -4.4465508460998535,
                        -483.4968566894531
                    ],
                    "op": "BO_Add",
                    "rotation": -2.26999831199646,
                    "scale": [
                        6.360051155090332,
                        6.360051155090332,
                        6.360051155090332
                    ],
                    "height": 691.5618286132812,
                    "position": [
                        54.39532470703125,
                        -513.750732421875,
                        -505.170166015625
                    ],
                    "weightHard": false,
                    "weightScale": [
                        1,
                        1,
                        1
                    ],
                    "mirrored": false,
                    "twinId": 0,
                    "flooded": false,
                    "pathable": true,
                    "mergeable": false,
                    "no_features": true
                },
                {
                    "weight": [
                        0,
                        0,
                        0,
                        0
                    ],
                    "spec": "/pa/terrain/desert/brushes/desert_metal_t1_large_8_ramp.json",
                    "proj": "BP_Bend",
                    "transform": [
                        0.01849987357854843,
                        -1.368762493133545,
                        1.122071623802185,
                        459.9510803222656,
                        -1.4164332151412964,
                        0.6613976955413818,
                        0.8301612734794617,
                        340.2934265136719,
                        -1.0612598657608032,
                        -0.9066091179847717,
                        -1.0884326696395874,
                        -446.1620788574219
                    ],
                    "op": "BO_Add",
                    "rotation": -0.06999999284744263,
                    "scale": [
                        1.7699992656707764,
                        1.7699992656707764,
                        1.7699992656707764
                    ],
                    "height": 725.544677734375,
                    "position": [
                        458.04931640625,
                        338.8863525390625,
                        -444.317138671875
                    ],
                    "weightHard": false,
                    "weightScale": [
                        1,
                        1,
                        1
                    ],
                    "mirrored": false,
                    "twinId": 0,
                    "flooded": false,
                    "pathable": true,
                    "mergeable": false,
                    "no_features": true
                },
                {
                    "weight": [
                        0,
                        0,
                        0,
                        0
                    ],
                    "spec": "/pa/terrain/desert/brushes/desert_metal_t2_medium_wide_ramp.json",
                    "proj": "BP_Bend",
                    "transform": [
                        -0.14244653284549713,
                        0.8303014039993286,
                        -0.9636950492858887,
                        -539.5518798828125,
                        0.9569545984268188,
                        0.7088247537612915,
                        0.4692597985267639,
                        262.7283630371094,
                        0.8380611538887024,
                        -0.6682562828063965,
                        -0.6996331810951233,
                        -391.70941162109375
                    ],
                    "op": "BO_Add",
                    "rotation": 0.2200000286102295,
                    "scale": [
                        1.2799997329711914,
                        1.2799997329711914,
                        1.2799997329711914
                    ],
                    "height": 716.64404296875,
                    "position": [
                        -544.069091796875,
                        264.927978515625,
                        -394.989013671875
                    ],
                    "weightHard": false,
                    "weightScale": [
                        1,
                        1,
                        1
                    ],
                    "mirrored": false,
                    "twinId": 0,
                    "flooded": false,
                    "pathable": true,
                    "mergeable": false,
                    "no_features": true
                },
                {
                    "weight": [
                        0,
                        0,
                        0,
                        0
                    ],
                    "spec": "/pa/terrain/desert/brushes/desert_metal_t2_medium_wide_ramp.json",
                    "proj": "BP_Bend",
                    "transform": [
                        0.09068289399147034,
                        0.7985897660255432,
                        0.9962078928947449,
                        557.7042236328125,
                        -0.9306413531303406,
                        0.7250897288322449,
                        -0.49653881788253784,
                        -277.9759216308594,
                        -0.8741180896759033,
                        -0.6891288757324219,
                        0.631995439529419,
                        353.8081970214844
                    ],
                    "op": "BO_Add",
                    "rotation": -1.1299992799758911,
                    "scale": [
                        1.2799997329711914,
                        1.2799997329711914,
                        1.2799997329711914
                    ],
                    "height": 716.57861328125,
                    "position": [
                        562.3740234375,
                        -280.303466796875,
                        356.7706298828125
                    ],
                    "weightHard": false,
                    "weightScale": [
                        1,
                        1,
                        1
                    ],
                    "mirrored": false,
                    "twinId": 0,
                    "flooded": false,
                    "pathable": true,
                    "mergeable": false,
                    "no_features": true
                }
            ],
            "metal_spots": [
                [
                    -72.71879577636719,
                    513.4910888671875,
                    479.9271240234375
                ],
                [
                    -40.84367370605469,
                    536.876953125,
                    457.572998046875
                ],
                [
                    -143.1685028076172,
                    502.5172119140625,
                    475.66748046875
                ],
                [
                    -30.789321899414062,
                    486.6695556640625,
                    511.3328857421875
                ],
                [
                    -116.51113891601562,
                    531.2684326171875,
                    450.928955078125
                ],
                [
                    557.2451171875,
                    -136.9112548828125,
                    -412.284423828125
                ],
                [
                    545.8321533203125,
                    -163.21463012695312,
                    -417.93560791015625
                ],
                [
                    570.9566650390625,
                    -149.5298309326172,
                    -388.5574951171875
                ],
                [
                    79.3979263305664,
                    93.05928802490234,
                    -695.8402099609375
                ],
                [
                    116.4228286743164,
                    81.93212127685547,
                    -692.1015625
                ],
                [
                    97.68482208251953,
                    57.69186019897461,
                    -697.446533203125
                ],
                [
                    -475.4183349609375,
                    -453.76690673828125,
                    -259.4539794921875
                ],
                [
                    -484.31842041015625,
                    -463.853759765625,
                    -222.43890380859375
                ],
                [
                    -32.47032165527344,
                    -701.3040771484375,
                    79.67023468017578
                ],
                [
                    -73.92399597167969,
                    -695.076171875,
                    102.9731216430664
                ],
                [
                    -40.04643249511719,
                    -691.6162109375,
                    138.36907958984375
                ],
                [
                    -512.4939575195312,
                    -427.38079833984375,
                    -232.27490234375
                ],
                [
                    261.4698486328125,
                    561.05908203125,
                    -394.9442443847656
                ],
                [
                    293.30908203125,
                    553.9886474609375,
                    -382.4316101074219
                ],
                [
                    326.1139221191406,
                    544.2821044921875,
                    -369.7735290527344
                ],
                [
                    333.25048828125,
                    521.1361694335938,
                    -395.67559814453125
                ],
                [
                    337.5753479003906,
                    496.84857177734375,
                    -422.33203125
                ],
                [
                    305.6372985839844,
                    505.05377197265625,
                    -436.8126525878906
                ],
                [
                    272.515625,
                    514.0761108398438,
                    -447.9216003417969
                ],
                [
                    267.44439697265625,
                    537.1513671875,
                    -423.41864013671875
                ],
                [
                    300.4646301269531,
                    529.425048828125,
                    -410.56182861328125
                ],
                [
                    585.658935546875,
                    404.347412109375,
                    -180.88525390625
                ],
                [
                    592.3436279296875,
                    380.9500732421875,
                    -207.9805450439453
                ],
                [
                    597.7442626953125,
                    358.1396179199219,
                    -231.75631713867188
                ],
                [
                    578.017333984375,
                    373.4921569824219,
                    -256.2000732421875
                ],
                [
                    572.3125610351562,
                    398.0870361328125,
                    -230.6596221923828
                ],
                [
                    542.6723022460938,
                    440.29620361328125,
                    -225.74876403808594
                ],
                [
                    562.7826538085938,
                    424.78497314453125,
                    -205.2186279296875
                ],
                [
                    549.6023559570312,
                    416.25262451171875,
                    -252.8372039794922
                ],
                [
                    556.6455078125,
                    392.0424499511719,
                    -275.87298583984375
                ],
                [
                    557.9798583984375,
                    164.77220153808594,
                    -448.0154724121094
                ],
                [
                    547.04541015625,
                    101.16439819335938,
                    -479.352294921875
                ],
                [
                    573.4368896484375,
                    118.48123168945312,
                    -443.13916015625
                ],
                [
                    579.337158203125,
                    148.5904083251953,
                    -426.0620422363281
                ],
                [
                    569.4971313476562,
                    84.48481750488281,
                    -455.75482177734375
                ],
                [
                    589.586669921875,
                    69.56271362304688,
                    -432.18487548828125
                ],
                [
                    601.3319702148438,
                    132.45533752441406,
                    -400.1202697753906
                ],
                [
                    276.73828125,
                    288.7686462402344,
                    -615.8358154296875
                ],
                [
                    271.52032470703125,
                    258.86016845703125,
                    -631.2225952148438
                ],
                [
                    267.7672424316406,
                    226.51531982421875,
                    -645.0919799804688
                ],
                [
                    299.7457580566406,
                    215.52259826660156,
                    -634.7883911132812
                ],
                [
                    303.18133544921875,
                    246.99539184570312,
                    -621.5161743164062
                ],
                [
                    308.06842041015625,
                    280.40313720703125,
                    -604.6368408203125
                ],
                [
                    338.685302734375,
                    272.02716064453125,
                    -591.9569702148438
                ],
                [
                    331.59002685546875,
                    206.86444091796875,
                    -621.6853637695312
                ],
                [
                    611.601318359375,
                    353.0747985839844,
                    23.34725570678711
                ],
                [
                    593.568603515625,
                    379.9429016113281,
                    51.26066207885742
                ],
                [
                    576.497802734375,
                    407.2681579589844,
                    31.3087158203125
                ],
                [
                    111.33700561523438,
                    648.3182983398438,
                    -257.69091796875
                ],
                [
                    59.4049072265625,
                    650.728515625,
                    -268.85723876953125
                ],
                [
                    57.650848388671875,
                    625.0200805664062,
                    -324.2835388183594
                ],
                [
                    336.624267578125,
                    238.073974609375,
                    -607.6533203125
                ],
                [
                    -295.77374267578125,
                    -644.3109741210938,
                    197.40585327148438
                ],
                [
                    -309.8604736328125,
                    -627.177734375,
                    228.53211975097656
                ],
                [
                    -322.0443115234375,
                    -610.32666015625,
                    255.96719360351562
                ],
                [
                    -288.46917724609375,
                    -620.4122314453125,
                    271.0884704589844
                ],
                [
                    -258.6160888671875,
                    -625.0546875,
                    289.96710205078125
                ],
                [
                    -248.2854461669922,
                    -642.0590209960938,
                    260.28216552734375
                ],
                [
                    -235.79443359375,
                    -657.75244140625,
                    230.91009521484375
                ],
                [
                    -264.3039245605469,
                    -652.677734375,
                    214.01795959472656
                ],
                [
                    -277.8640441894531,
                    -636.3211059570312,
                    243.9399871826172
                ],
                [
                    -317.33624267578125,
                    -443.58416748046875,
                    494.2105407714844
                ],
                [
                    -322.6867370605469,
                    -391.3186340332031,
                    533.28271484375
                ],
                [
                    -382.163818359375,
                    -374.6054382324219,
                    505.2810363769531
                ],
                [
                    -379.3136901855469,
                    -428.1125183105469,
                    463.20465087890625
                ],
                [
                    -381.02374267578125,
                    -401.9668884277344,
                    484.6861267089844
                ],
                [
                    -318.5048828125,
                    -416.8683166503906,
                    516.198974609375
                ],
                [
                    -348.80047607421875,
                    -437.2468566894531,
                    478.4009704589844
                ],
                [
                    -352.4029541015625,
                    -379.8043212890625,
                    522.7393798828125
                ],
                [
                    -350.9775695800781,
                    -408.1945495605469,
                    501.860107421875
                ],
                [
                    -627.8268432617188,
                    -229.66183471679688,
                    307.8002014160156
                ],
                [
                    -589.0973510742188,
                    -265.50592041015625,
                    352.3434143066406
                ],
                [
                    -587.5704956054688,
                    -318.00042724609375,
                    308.7551574707031
                ],
                [
                    -625.6842041015625,
                    -282.6770324707031,
                    264.96258544921875
                ],
                [
                    -609.335205078125,
                    -274.6280822753906,
                    308.1142883300781
                ],
                [
                    -628.0032348632812,
                    -254.82418823242188,
                    286.8394775390625
                ],
                [
                    -587.531982421875,
                    -293.40252685546875,
                    332.255126953125
                ],
                [
                    -609.6704711914062,
                    -245.21566772460938,
                    331.4175720214844
                ],
                [
                    -606.42431640625,
                    -302.70404052734375,
                    286.8019104003906
                ],
                [
                    -541.7771606445312,
                    -498.1044006347656,
                    5.1399993896484375
                ],
                [
                    -531.6416625976562,
                    -503.1598815917969,
                    99.95301055908203
                ],
                [
                    -568.3021240234375,
                    -464.3473815917969,
                    57.93940734863281
                ],
                [
                    -504.6429138183594,
                    -533.8582763671875,
                    45.450775146484375
                ],
                [
                    -538.2748413085938,
                    -499.3510437011719,
                    51.746315002441406
                ],
                [
                    -556.34130859375,
                    -480.65740966796875,
                    32.9642333984375
                ],
                [
                    -550.33251953125,
                    -484.1939392089844,
                    79.30952453613281
                ],
                [
                    -515.501220703125,
                    -520.165771484375,
                    75.75105285644531
                ],
                [
                    -523.8785400390625,
                    -516.4658203125,
                    22.9381103515625
                ],
                [
                    -153.2899169921875,
                    -293.83172607421875,
                    623.9515991210938
                ],
                [
                    -161.24224853515625,
                    -258.6893310546875,
                    637.4942016601562
                ],
                [
                    -209.32345581054688,
                    -243.6505126953125,
                    629.2935180664062
                ],
                [
                    -627.6819458007812,
                    -23.343143463134766,
                    323.63372802734375
                ],
                [
                    -647.1928100585938,
                    -5.764926910400391,
                    283.3712158203125
                ],
                [
                    -658.9833984375,
                    -22.332595825195312,
                    253.88333129882812
                ],
                [
                    -83.83941650390625,
                    554.368408203125,
                    429.9208984375
                ],
                [
                    -104.34595489501953,
                    481.3936767578125,
                    506.6297302246094
                ],
                [
                    2.2456741333007812,
                    514.2973022460938,
                    484.55194091796875
                ],
                [
                    -62.149322509765625,
                    459.0924377441406,
                    533.5455322265625
                ],
                [
                    251.26712036132812,
                    -420.69512939453125,
                    -733.6439208984375
                ],
                [
                    290.7918701171875,
                    -438.78924560546875,
                    -706.4557495117188
                ],
                [
                    -177.53042602539062,
                    -729.7015991210938,
                    -461.26885986328125
                ],
                [
                    -77.18014526367188,
                    -783.93408203125,
                    -394.84588623046875
                ],
                [
                    -126.48314666748047,
                    -761.8074951171875,
                    -426.933837890625
                ],
                [
                    621.385986328125,
                    353.0280456542969,
                    -168.58029174804688
                ],
                [
                    551.4955444335938,
                    456.0924072265625,
                    -164.39962768554688
                ],
                [
                    283.8209533691406,
                    584.2743530273438,
                    -342.4166564941406
                ],
                [
                    217.97592163085938,
                    549.4078979492188,
                    -435.8375244140625
                ],
                [
                    390.0181884765625,
                    502.5628662109375,
                    -366.542724609375
                ],
                [
                    512.1396484375,
                    441.94268798828125,
                    -285.4395751953125
                ],
                [
                    399.02276611328125,
                    217.41156005859375,
                    -576.8174438476562
                ],
                [
                    215.0377197265625,
                    271.5314636230469,
                    -647.4497680664062
                ],
                [
                    509.13751220703125,
                    164.13665771484375,
                    -503.0040283203125
                ],
                [
                    626.652587890625,
                    75.8936767578125,
                    -375.1270751953125
                ],
                [
                    313.16619873046875,
                    343.3948059082031,
                    -568.5037231445312
                ],
                [
                    587.3616943359375,
                    202.49322509765625,
                    -391.2855224609375
                ],
                [
                    585.9110107421875,
                    322.29791259765625,
                    -303.40478515625
                ],
                [
                    311.565185546875,
                    456.0962219238281,
                    -483.75347900390625
                ],
                [
                    -653.3373413085938,
                    -228.83242797851562,
                    249.74453735351562
                ],
                [
                    -607.1676635742188,
                    -199.777099609375,
                    364.6710510253906
                ],
                [
                    -581.237060546875,
                    -451.3733215332031,
                    -4.8427734375
                ],
                [
                    -571.6497802734375,
                    -455.5142822265625,
                    125.26872253417969
                ],
                [
                    -475.50555419921875,
                    -554.2405395507812,
                    112.38307189941406
                ],
                [
                    -357.729248046875,
                    -612.0065307617188,
                    197.61209106445312
                ],
                [
                    -195.0794677734375,
                    -650.7578125,
                    282.7850646972656
                ],
                [
                    -307.95172119140625,
                    -585.5469970703125,
                    322.22998046875
                ],
                [
                    290.1078796386719,
                    166.88980102539062,
                    -653.5703125
                ],
                [
                    559.3890991210938,
                    44.793487548828125,
                    -473.5443115234375
                ],
                [
                    -501.50140380859375,
                    -538.4033203125,
                    -15.07220458984375
                ],
                [
                    -238.981689453125,
                    -676.374755859375,
                    163.8865966796875
                ],
                [
                    -599.2569580078125,
                    -350.15838623046875,
                    244.5596923828125
                ],
                [
                    -546.2183227539062,
                    -324.95465087890625,
                    370.9687194824219
                ],
                [
                    -338.6793212890625,
                    -487.80596923828125,
                    434.6309814453125
                ],
                [
                    -266.7401123046875,
                    -428.839111328125,
                    535.301513671875
                ],
                [
                    -354.449951171875,
                    -338.05975341796875,
                    549.279541015625
                ],
                [
                    -431.8705139160156,
                    -385.56744384765625,
                    454.3499755859375
                ],
                [
                    -173.7739715576172,
                    -632.3934936523438,
                    -590.234130859375
                ],
                [
                    -42.80723571777344,
                    -713.369384765625,
                    -517.0611572265625
                ],
                [
                    85.97456359863281,
                    -770.7621459960938,
                    -420.7561340332031
                ],
                [
                    9.969894409179688,
                    -780.1929321289062,
                    -407.85589599609375
                ],
                [
                    -174.44891357421875,
                    -688.196044921875,
                    -521.2156982421875
                ],
                [
                    -86.33329772949219,
                    -738.9603271484375,
                    -471.9859313964844
                ],
                [
                    209.1460418701172,
                    -395.676513671875,
                    -758.8858642578125
                ],
                [
                    167.75643920898438,
                    -526.1718139648438,
                    -688.0499877929688
                ],
                [
                    207.0982666015625,
                    -478.56854248046875,
                    -710.598876953125
                ],
                [
                    42.51983642578125,
                    -443.436767578125,
                    -761.5439453125
                ],
                [
                    292.18865966796875,
                    -579.1788940429688,
                    -597.9178466796875
                ],
                [
                    300.1593322753906,
                    -520.063720703125,
                    -644.0782470703125
                ],
                [
                    132.05563354492188,
                    -431.88818359375,
                    -756.9847412109375
                ],
                [
                    596.2380981445312,
                    -290.9601135253906,
                    332.48236083984375
                ],
                [
                    562.6993408203125,
                    -321.3703308105469,
                    361.8750915527344
                ],
                [
                    -572.24462890625,
                    238.28567504882812,
                    -408.1112976074219
                ],
                [
                    -578.4056396484375,
                    277.39385986328125,
                    -373.3104248046875
                ],
                [
                    -589.258544921875,
                    243.8402099609375,
                    -379.6025695800781
                ],
                [
                    606.967041015625,
                    -260.5716552734375,
                    338.399169921875
                ],
                [
                    546.8208618164062,
                    -314.6495056152344,
                    390.8941650390625
                ],
                [
                    -9.243453979492188,
                    559.3744506835938,
                    431.46893310546875
                ],
                [
                    10.706024169921875,
                    462.26544189453125,
                    534.2296752929688
                ],
                [
                    -134.99708557128906,
                    447.27520751953125,
                    530.0367431640625
                ],
                [
                    -151.31222534179688,
                    544.9730224609375,
                    423.4940185546875
                ],
                [
                    65.34307861328125,
                    -626.6134033203125,
                    -617.6761474609375
                ],
                [
                    102.67198181152344,
                    -645.8485717773438,
                    -591.0792236328125
                ],
                [
                    24.987510681152344,
                    -604.80810546875,
                    -640.92919921875
                ],
                [
                    30.14586639404297,
                    -658.1776123046875,
                    -585.9182739257812
                ],
                [
                    98.3085708618164,
                    -597.414794921875,
                    -640.7723388671875
                ],
                [
                    586.2491455078125,
                    -635.8262939453125,
                    -13.306404113769531
                ],
                [
                    549.271728515625,
                    -662.90625,
                    -84.36285400390625
                ],
                [
                    553.1466064453125,
                    134.55364990234375,
                    -463.853759765625
                ],
                [
                    593.2977294921875,
                    -625.4110107421875,
                    -71.78465270996094
                ],
                [
                    542.6048583984375,
                    -673.1395263671875,
                    -26.31835174560547
                ],
                [
                    559.9495239257812,
                    -659.1546630859375,
                    10.266357421875
                ],
                [
                    611.98779296875,
                    -610.209228515625,
                    -37.10685729980469
                ],
                [
                    575.0384521484375,
                    -636.854248046875,
                    -109.20271301269531
                ],
                [
                    520.7243041992188,
                    -687.9067993164062,
                    -61.26409912109375
                ],
                [
                    -532.1295166015625,
                    -79.69329071044922,
                    -677.258544921875
                ],
                [
                    -433.2193298339844,
                    -103.53772735595703,
                    -741.410400390625
                ],
                [
                    -476.7131042480469,
                    -31.999794006347656,
                    -721.0040283203125
                ],
                [
                    -505.09228515625,
                    -56.467041015625,
                    -699.8972778320312
                ],
                [
                    -511.9899597167969,
                    -115.81238555908203,
                    -687.4959716796875
                ],
                [
                    -462.169189453125,
                    -128.10971069335938,
                    -719.8466186523438
                ],
                [
                    -454.3981628417969,
                    -69.69438171386719,
                    -732.588134765625
                ],
                [
                    -535.6248779296875,
                    268.0341796875,
                    -438.2620544433594
                ],
                [
                    -541.2603759765625,
                    309.3990478515625,
                    -402.6754455566406
                ],
                [
                    -550.0025634765625,
                    221.07247924804688,
                    -446.60595703125
                ],
                [
                    -557.587158203125,
                    272.354248046875,
                    -407.1885986328125
                ],
                [
                    -524.407470703125,
                    299.3066711425781,
                    -431.6129150390625
                ],
                [
                    -563.5631713867188,
                    322.5801086425781,
                    -359.4194641113281
                ],
                [
                    570.5416259765625,
                    -234.2274169921875,
                    412.72955322265625
                ],
                [
                    579.5111083984375,
                    -342.47015380859375,
                    312.43206787109375
                ],
                [
                    558.1630859375,
                    -283.073486328125,
                    398.8304138183594
                ],
                [
                    592.1094970703125,
                    -253.51425170898438,
                    368.7752990722656
                ],
                [
                    577.0911865234375,
                    -288.7320556640625,
                    366.6218566894531
                ],
                [
                    -645.6119384765625,
                    -286.9932861328125,
                    -4.495264053344727
                ],
                [
                    -660.10595703125,
                    -248.99273681640625,
                    38.246070861816406
                ],
                [
                    -669.8917236328125,
                    -209.1646728515625,
                    81.92469787597656
                ],
                [
                    -110.69142150878906,
                    -576.60107421875,
                    393.0911865234375
                ],
                [
                    -124.05418395996094,
                    -540.137939453125,
                    439.07867431640625
                ],
                [
                    -137.49215698242188,
                    -495.12481689453125,
                    485.3091735839844
                ],
                [
                    660.0149536132812,
                    203.64222717285156,
                    -148.42721557617188
                ],
                [
                    663.9938354492188,
                    147.56695556640625,
                    -191.38687133789062
                ],
                [
                    661.9766235351562,
                    96.64544677734375,
                    -227.35491943359375
                ],
                [
                    105.01249694824219,
                    368.309814453125,
                    -593.738525390625
                ],
                [
                    103.64109802246094,
                    411.24517822265625,
                    -565.21337890625
                ],
                [
                    101.58770751953125,
                    469.46673583984375,
                    -518.254638671875
                ],
                [
                    596.3192138671875,
                    101.06826782226562,
                    -416.41412353515625
                ],
                [
                    568.6195068359375,
                    -650.02490234375,
                    -49.07868194580078
                ],
                [
                    614.6885986328125,
                    -601.5693359375,
                    -91.87447357177734
                ],
                [
                    530.7532958984375,
                    -673.100341796875,
                    -115.79740142822266
                ],
                [
                    600.6557006835938,
                    -622.1070556640625,
                    19.03369903564453
                ],
                [
                    -525.3097534179688,
                    -22.112709045410156,
                    -686.8138427734375
                ],
                [
                    -536.2225952148438,
                    -138.121826171875,
                    -664.562744140625
                ],
                [
                    -439.2730407714844,
                    -159.7857666015625,
                    -727.744384765625
                ],
                [
                    -429.78155517578125,
                    -44.695640563964844,
                    -749.20654296875
                ],
                [
                    -484.58062744140625,
                    -92.21825408935547,
                    -710.478271484375
                ],
                [
                    405.5721740722656,
                    -578.3721923828125,
                    -13.082693099975586
                ],
                [
                    -384.338623046875,
                    -136.4754180908203,
                    -576.969482421875
                ]
            ],
            "landing_zones": {
                "list": [
                    [
                        657.9819946289062,
                        305.95770263671875,
                        -112.00048828125
                    ],
                    [
                        148.51611328125,
                        559.390380859375,
                        -451.7716064453125
                    ],
                    [
                        151.5018310546875,
                        283.9012451171875,
                        -660.0376586914062
                    ],
                    [
                        659.397216796875,
                        40.0693359375,
                        -320.423828125
                    ],
                    [
                        -610.4163208007812,
                        -408.9468994140625,
                        -42.43101501464844
                    ],
                    [
                        -140.7313232421875,
                        -653.2752075195312,
                        308.19647216796875
                    ],
                    [
                        -682.6802368164062,
                        -184.1583251953125,
                        204.1272430419922
                    ],
                    [
                        -220.3245849609375,
                        -433.2227783203125,
                        552.6666870117188
                    ]
                ],
                "rules": [
                    {
                        "min": 0,
                        "max": 10
                    },
                    {
                        "min": 0,
                        "max": 10
                    },
                    {
                        "min": 0,
                        "max": 10
                    },
                    {
                        "min": 0,
                        "max": 10
                    },
                    {
                        "min": 0,
                        "max": 10
                    },
                    {
                        "min": 0,
                        "max": 10
                    },
                    {
                        "min": 0,
                        "max": 10
                    },
                    {
                        "min": 0,
                        "max": 10
                    }
                ]
            }
        }
    ]
}