{
    "name": "Hydaspes 4v4 NS",
    "description":"4v4 unshared mostly barren moon where players spawn close to each other so coordinated pushes and cooperation are key.",
    "version":"1.0",
    "creator":"Grand Homie",
    "players":[8, 8],
    "planets": [
        {
            "name": "Hydaspes 4v4 NS",
            "mass": 10000,
            "position_x": -600,
            "position_y": -17800,
            "velocity_x": 167.45770263671875,
            "velocity_y": -5.644634246826172,
            "required_thrust_to_move": 0,
            "starting_planet": true,
            "respawn": false,
            "start_destroyed": false,
            "min_spawn_delay": 0,
            "max_spawn_delay": 0,
            "planet": {
                "seed": 1068903808,
                "radius": 525,
                "heightRange": 0,
                "waterHeight": 0,
                "waterDepth": 0,
                "temperature": 0,
                "metalDensity": 50,
                "metalClusters": 50,
                "metalSpotLimit": -1,
                "biomeScale": 50,
                "biome": "moon",
                "symmetryType": "terrain and CSG",
                "symmetricalMetal": false,
                "symmetricalStarts": false,
                "numArmies": 2,
                "landingZonesPerArmy": 0,
                "landingZoneSize": 79
            },
            "planetCSG": [
                {
                    "spec": "/pa/terrain/metal/brushes/metal_structure_05.json",
                    "rotation": 0,
                    "weight": [
                        0,
                        0,
                        0,
                        0
                    ],
                    "weightHard": false,
                    "transform": [
                        1.8999990224838257,
                        1.3653291830451053e-7,
                        0.0008870461606420577,
                        0.1884021908044815,
                        1.3653291830451053e-7,
                        1.8999990224838257,
                        -0.0009964845376089215,
                        -0.21164612472057343,
                        -0.000679591903463006,
                        0.00076343584805727,
                        2.4799983501434326,
                        526.7337036132812
                    ],
                    "op": "BO_Add",
                    "position": [
                        0.1884021759033203,
                        -0.21164608001708984,
                        526.733642578125
                    ],
                    "height": 526.7337646484375,
                    "scale": [
                        1.8999991416931152,
                        1.8999991416931152,
                        2.4799985885620117
                    ],
                    "weightScale": [
                        1,
                        1,
                        1
                    ],
                    "proj": "BP_Bend",
                    "mirrored": false,
                    "no_features": false,
                    "pathable": false,
                    "flooded": false,
                    "twinId": 0,
                    "mergeable": false
                },
                {
                    "spec": "/pa/terrain/metal/brushes/metal_structure_05.json",
                    "rotation": 1.5599991083145142,
                    "weight": [
                        0,
                        0,
                        0,
                        0
                    ],
                    "weightHard": false,
                    "transform": [
                        0.014677744358778,
                        -1.3121106624603271,
                        1.449350118637085,
                        284.8081970214844,
                        1.559912919998169,
                        0.016333328559994698,
                        -0.002982950070872903,
                        -0.5861721038818359,
                        -0.0073726726695895195,
                        0.8436213731765747,
                        2.254277467727661,
                        442.9824523925781
                    ],
                    "op": "BO_Add",
                    "position": [
                        284.8081970214844,
                        -0.5861721038818359,
                        442.9824523925781
                    ],
                    "height": 526.6398315429688,
                    "scale": [
                        1.5599994659423828,
                        1.5599994659423828,
                        2.6799983978271484
                    ],
                    "weightScale": [
                        1,
                        1,
                        1
                    ],
                    "proj": "BP_Bend",
                    "mirrored": false,
                    "no_features": false,
                    "pathable": false,
                    "flooded": false,
                    "twinId": 0,
                    "mergeable": false
                },
                {
                    "spec": "/pa/terrain/metal/brushes/metal_structure_05.json",
                    "rotation": 4.701591968536377,
                    "weight": [
                        0,
                        0,
                        0,
                        0
                    ],
                    "weightHard": false,
                    "transform": [
                        -0.014677473343908787,
                        1.3121106624603271,
                        -1.449350118637085,
                        -284.8081970214844,
                        -1.559912919998169,
                        -0.01633300632238388,
                        0.002982950070872903,
                        0.5861721038818359,
                        -0.007372498512268066,
                        0.8436213731765747,
                        2.254277467727661,
                        442.9824523925781
                    ],
                    "op": "BO_Add",
                    "position": [
                        -284.8081970214844,
                        0.5861721038818359,
                        442.9824523925781
                    ],
                    "height": 526.6398315429688,
                    "scale": [
                        1.5599994659423828,
                        1.5599994659423828,
                        2.6799983978271484
                    ],
                    "weightScale": [
                        1,
                        1,
                        1
                    ],
                    "proj": "BP_Bend",
                    "mirrored": false,
                    "no_features": false,
                    "pathable": false,
                    "flooded": false,
                    "twinId": 0,
                    "mergeable": false
                },
                {
                    "spec": "/pa/terrain/metal/brushes/metal_structure_05.json",
                    "rotation": 4.71238899230957,
                    "weight": [
                        0,
                        0,
                        0,
                        0
                    ],
                    "weightHard": false,
                    "transform": [
                        1.5919017926080414e-7,
                        1.8999990224838257,
                        -0.0009964845376089215,
                        -0.21164612472057343,
                        -1.8999990224838257,
                        -1.1387565734821692e-7,
                        -0.0008870461606420577,
                        -0.1884021908044815,
                        0.000679591903463006,
                        -0.00076343584805727,
                        -2.4799983501434326,
                        -526.7337036132812
                    ],
                    "op": "BO_Add",
                    "position": [
                        -0.21164608001708984,
                        -0.1884021759033203,
                        526.733642578125
                    ],
                    "height": 526.7337646484375,
                    "scale": [
                        1.8999991416931152,
                        1.8999991416931152,
                        2.4799985885620117
                    ],
                    "weightScale": [
                        1,
                        1,
                        1
                    ],
                    "proj": "BP_Bend",
                    "mirrored": true,
                    "no_features": false,
                    "pathable": false,
                    "flooded": false,
                    "twinId": 0,
                    "mergeable": false
                },
                {
                    "spec": "/pa/terrain/metal/brushes/metal_structure_05.json",
                    "rotation": 6.272387981414795,
                    "weight": [
                        0,
                        0,
                        0,
                        0
                    ],
                    "weightHard": false,
                    "transform": [
                        1.559912919998169,
                        0.01633349619805813,
                        -0.002982950070872903,
                        -0.5861720442771912,
                        -0.014677885919809341,
                        1.3121106624603271,
                        -1.449350118637085,
                        -284.8081970214844,
                        0.007372763007879257,
                        -0.8436213731765747,
                        -2.254277467727661,
                        -442.982421875
                    ],
                    "op": "BO_Add",
                    "position": [
                        -0.5861721038818359,
                        -284.8081970214844,
                        442.9824523925781
                    ],
                    "height": 526.6398315429688,
                    "scale": [
                        1.5599994659423828,
                        1.5599994659423828,
                        2.6799983978271484
                    ],
                    "weightScale": [
                        1,
                        1,
                        1
                    ],
                    "proj": "BP_Bend",
                    "mirrored": true,
                    "no_features": false,
                    "pathable": false,
                    "flooded": false,
                    "twinId": 0,
                    "mergeable": false
                },
                {
                    "spec": "/pa/terrain/metal/brushes/metal_structure_05.json",
                    "rotation": 9.413980484008789,
                    "weight": [
                        0,
                        0,
                        0,
                        0
                    ],
                    "weightHard": false,
                    "transform": [
                        -1.559912919998169,
                        -0.01633373089134693,
                        0.002982950070872903,
                        0.5861720442771912,
                        0.01467808336019516,
                        -1.3121106624603271,
                        1.449350118637085,
                        284.8081970214844,
                        0.007372889667749405,
                        -0.8436213731765747,
                        -2.254277467727661,
                        -442.982421875
                    ],
                    "op": "BO_Add",
                    "position": [
                        0.5861721038818359,
                        284.8081970214844,
                        442.9824523925781
                    ],
                    "height": 526.6398315429688,
                    "scale": [
                        1.5599994659423828,
                        1.5599994659423828,
                        2.6799983978271484
                    ],
                    "weightScale": [
                        1,
                        1,
                        1
                    ],
                    "proj": "BP_Bend",
                    "mirrored": true,
                    "no_features": false,
                    "pathable": false,
                    "flooded": false,
                    "twinId": 0,
                    "mergeable": false
                }
            ],
            "metal_spots": [
                [
                    449.1148681640625,
                    -18.474985122680664,
                    273.3074951171875
                ],
                [
                    499.44512939453125,
                    -18.512296676635742,
                    167.59799194335938
                ],
                [
                    497.733642578125,
                    -146.8807373046875,
                    81.65170288085938
                ],
                [
                    483.3262939453125,
                    -187.17440795898438,
                    80.59848022460938
                ],
                [
                    484.4256591796875,
                    -166.49737548828125,
                    113.33489990234375
                ],
                [
                    461.6683349609375,
                    -111.0841064453125,
                    222.87033081054688
                ],
                [
                    448.2991943359375,
                    -153.53280639648438,
                    222.49722290039062
                ],
                [
                    371.0975341796875,
                    -157.95635986328125,
                    335.181884765625
                ],
                [
                    362.990966796875,
                    -200.33889770507812,
                    319.2808837890625
                ],
                [
                    390.170166015625,
                    -266.6910400390625,
                    225.06927490234375
                ],
                [
                    407.6134033203125,
                    -273.5138244628906,
                    181.40142822265625
                ],
                [
                    377.523681640625,
                    -300.23822021484375,
                    202.402099609375
                ],
                [
                    33.12846374511719,
                    -87.99783325195312,
                    517.247802734375
                ],
                [
                    29.2366943359375,
                    -130.8028106689453,
                    508.1712646484375
                ],
                [
                    154.69171142578125,
                    -128.227783203125,
                    485.42236328125
                ],
                [
                    198.38165283203125,
                    -147.54656982421875,
                    463.0458984375
                ],
                [
                    156.24884033203125,
                    -172.72796630859375,
                    470.663330078125
                ],
                [
                    33.49395751953125,
                    -272.07916259765625,
                    446.51123046875
                ],
                [
                    29.74017333984375,
                    -394.855224609375,
                    344.305908203125
                ],
                [
                    29.244903564453125,
                    -476.408447265625,
                    215.31146240234375
                ],
                [
                    136.4144287109375,
                    -418.837890625,
                    283.99285888671875
                ],
                [
                    183.24334716796875,
                    -400.4525146484375,
                    282.7564697265625
                ],
                [
                    162.94427490234375,
                    -428.82177734375,
                    252.5487060546875
                ],
                [
                    141.64996337890625,
                    -321.977783203125,
                    389.1337890625
                ],
                [
                    163.64141845703125,
                    -286.3470458984375,
                    408.21954345703125
                ],
                [
                    184.939697265625,
                    -320.170166015625,
                    370.97967529296875
                ],
                [
                    285.45806884765625,
                    -304.9068603515625,
                    314.20147705078125
                ],
                [
                    289.006591796875,
                    -376.12030029296875,
                    220.99237060546875
                ],
                [
                    280.4727783203125,
                    -405.8209228515625,
                    176.44677734375
                ],
                [
                    113.10113525390625,
                    -498.85498046875,
                    112.43659973144531
                ],
                [
                    129.9384765625,
                    -503.9063720703125,
                    63.08729553222656
                ],
                [
                    166.99667358398438,
                    -487.5272216796875,
                    95.71858215332031
                ],
                [
                    361.7808837890625,
                    -363.1851806640625,
                    108.5927734375
                ],
                [
                    337.4359130859375,
                    -393.568359375,
                    77.71658325195312
                ],
                [
                    372.906982421875,
                    -362.5726318359375,
                    64.88677978515625
                ],
                [
                    272.0255126953125,
                    -274.009521484375,
                    353.02978515625
                ],
                [
                    360.48193359375,
                    -23.698013305664062,
                    383.04339599609375
                ],
                [
                    390.6766357421875,
                    -25.119380950927734,
                    352.3203125
                ],
                [
                    525.1129150390625,
                    -26.631332397460938,
                    30.359130859375
                ],
                [
                    30.22833251953125,
                    -522.1217041015625,
                    31.21026611328125
                ],
                [
                    -449.1148681640625,
                    -18.474985122680664,
                    273.3074951171875
                ],
                [
                    -499.44512939453125,
                    -18.512296676635742,
                    167.59799194335938
                ],
                [
                    -497.733642578125,
                    -146.8807373046875,
                    81.65170288085938
                ],
                [
                    -483.3262939453125,
                    -187.17440795898438,
                    80.59848022460938
                ],
                [
                    -484.4256591796875,
                    -166.49737548828125,
                    113.33489990234375
                ],
                [
                    -461.6683349609375,
                    -111.0841064453125,
                    222.87033081054688
                ],
                [
                    -448.2991943359375,
                    -153.53280639648438,
                    222.49722290039062
                ],
                [
                    -371.0975341796875,
                    -157.95635986328125,
                    335.181884765625
                ],
                [
                    -362.990966796875,
                    -200.33889770507812,
                    319.2808837890625
                ],
                [
                    -390.170166015625,
                    -266.6910400390625,
                    225.06927490234375
                ],
                [
                    -407.6134033203125,
                    -273.5138244628906,
                    181.40142822265625
                ],
                [
                    -377.523681640625,
                    -300.23822021484375,
                    202.402099609375
                ],
                [
                    -33.12846374511719,
                    -87.99783325195312,
                    517.247802734375
                ],
                [
                    -29.2366943359375,
                    -130.8028106689453,
                    508.1712646484375
                ],
                [
                    -154.69171142578125,
                    -128.227783203125,
                    485.42236328125
                ],
                [
                    -198.38165283203125,
                    -147.54656982421875,
                    463.0458984375
                ],
                [
                    -156.24884033203125,
                    -172.72796630859375,
                    470.663330078125
                ],
                [
                    -33.49395751953125,
                    -272.07916259765625,
                    446.51123046875
                ],
                [
                    -29.74017333984375,
                    -394.855224609375,
                    344.305908203125
                ],
                [
                    -29.244903564453125,
                    -476.408447265625,
                    215.31146240234375
                ],
                [
                    -136.4144287109375,
                    -418.837890625,
                    283.99285888671875
                ],
                [
                    -183.24334716796875,
                    -400.4525146484375,
                    282.7564697265625
                ],
                [
                    -162.94427490234375,
                    -428.82177734375,
                    252.5487060546875
                ],
                [
                    -141.64996337890625,
                    -321.977783203125,
                    389.1337890625
                ],
                [
                    -163.64141845703125,
                    -286.3470458984375,
                    408.21954345703125
                ],
                [
                    -184.939697265625,
                    -320.170166015625,
                    370.97967529296875
                ],
                [
                    -285.45806884765625,
                    -304.9068603515625,
                    314.20147705078125
                ],
                [
                    -289.006591796875,
                    -376.12030029296875,
                    220.99237060546875
                ],
                [
                    -280.4727783203125,
                    -405.8209228515625,
                    176.44677734375
                ],
                [
                    -113.10113525390625,
                    -498.85498046875,
                    112.43659973144531
                ],
                [
                    -129.9384765625,
                    -503.9063720703125,
                    63.08729553222656
                ],
                [
                    -166.99667358398438,
                    -487.5272216796875,
                    95.71858215332031
                ],
                [
                    -361.7808837890625,
                    -363.1851806640625,
                    108.5927734375
                ],
                [
                    -337.4359130859375,
                    -393.568359375,
                    77.71658325195312
                ],
                [
                    -372.906982421875,
                    -362.5726318359375,
                    64.88677978515625
                ],
                [
                    -272.0255126953125,
                    -274.009521484375,
                    353.02978515625
                ],
                [
                    -360.48193359375,
                    -23.698013305664062,
                    383.04339599609375
                ],
                [
                    -390.6766357421875,
                    -25.119380950927734,
                    352.3203125
                ],
                [
                    -525.1129150390625,
                    -26.631332397460938,
                    30.359130859375
                ],
                [
                    -30.22833251953125,
                    -522.1217041015625,
                    31.21026611328125
                ],
                [
                    -449.1148681640625,
                    18.474985122680664,
                    273.3074951171875
                ],
                [
                    -499.44512939453125,
                    18.512296676635742,
                    167.59799194335938
                ],
                [
                    -497.733642578125,
                    146.8807373046875,
                    81.65170288085938
                ],
                [
                    -483.3262939453125,
                    187.17440795898438,
                    80.59848022460938
                ],
                [
                    -484.4256591796875,
                    166.49737548828125,
                    113.33489990234375
                ],
                [
                    -461.6683349609375,
                    111.0841064453125,
                    222.87033081054688
                ],
                [
                    -448.2991943359375,
                    153.53280639648438,
                    222.49722290039062
                ],
                [
                    -371.0975341796875,
                    157.95635986328125,
                    335.181884765625
                ],
                [
                    -362.990966796875,
                    200.33889770507812,
                    319.2808837890625
                ],
                [
                    -390.170166015625,
                    266.6910400390625,
                    225.06927490234375
                ],
                [
                    -407.6134033203125,
                    273.5138244628906,
                    181.40142822265625
                ],
                [
                    -377.523681640625,
                    300.23822021484375,
                    202.402099609375
                ],
                [
                    -33.12846374511719,
                    87.99783325195312,
                    517.247802734375
                ],
                [
                    -29.2366943359375,
                    130.8028106689453,
                    508.1712646484375
                ],
                [
                    -154.69171142578125,
                    128.227783203125,
                    485.42236328125
                ],
                [
                    -198.38165283203125,
                    147.54656982421875,
                    463.0458984375
                ],
                [
                    -156.24884033203125,
                    172.72796630859375,
                    470.663330078125
                ],
                [
                    -33.49395751953125,
                    272.07916259765625,
                    446.51123046875
                ],
                [
                    -29.74017333984375,
                    394.855224609375,
                    344.305908203125
                ],
                [
                    -29.244903564453125,
                    476.408447265625,
                    215.31146240234375
                ],
                [
                    -136.4144287109375,
                    418.837890625,
                    283.99285888671875
                ],
                [
                    -183.24334716796875,
                    400.4525146484375,
                    282.7564697265625
                ],
                [
                    -162.94427490234375,
                    428.82177734375,
                    252.5487060546875
                ],
                [
                    -141.64996337890625,
                    321.977783203125,
                    389.1337890625
                ],
                [
                    -163.64141845703125,
                    286.3470458984375,
                    408.21954345703125
                ],
                [
                    -184.939697265625,
                    320.170166015625,
                    370.97967529296875
                ],
                [
                    -285.45806884765625,
                    304.9068603515625,
                    314.20147705078125
                ],
                [
                    -289.006591796875,
                    376.12030029296875,
                    220.99237060546875
                ],
                [
                    -280.4727783203125,
                    405.8209228515625,
                    176.44677734375
                ],
                [
                    -113.10113525390625,
                    498.85498046875,
                    112.43659973144531
                ],
                [
                    -129.9384765625,
                    503.9063720703125,
                    63.08729553222656
                ],
                [
                    -166.99667358398438,
                    487.5272216796875,
                    95.71858215332031
                ],
                [
                    -361.7808837890625,
                    363.1851806640625,
                    108.5927734375
                ],
                [
                    -337.4359130859375,
                    393.568359375,
                    77.71658325195312
                ],
                [
                    -372.906982421875,
                    362.5726318359375,
                    64.88677978515625
                ],
                [
                    -272.0255126953125,
                    274.009521484375,
                    353.02978515625
                ],
                [
                    -360.48193359375,
                    23.698013305664062,
                    383.04339599609375
                ],
                [
                    -390.6766357421875,
                    25.119380950927734,
                    352.3203125
                ],
                [
                    -525.1129150390625,
                    26.631332397460938,
                    30.359130859375
                ],
                [
                    -30.22833251953125,
                    522.1217041015625,
                    31.21026611328125
                ],
                [
                    449.1148681640625,
                    18.474985122680664,
                    273.3074951171875
                ],
                [
                    499.44512939453125,
                    18.512296676635742,
                    167.59799194335938
                ],
                [
                    497.733642578125,
                    146.8807373046875,
                    81.65170288085938
                ],
                [
                    483.3262939453125,
                    187.17440795898438,
                    80.59848022460938
                ],
                [
                    484.4256591796875,
                    166.49737548828125,
                    113.33489990234375
                ],
                [
                    461.6683349609375,
                    111.0841064453125,
                    222.87033081054688
                ],
                [
                    448.2991943359375,
                    153.53280639648438,
                    222.49722290039062
                ],
                [
                    371.0975341796875,
                    157.95635986328125,
                    335.181884765625
                ],
                [
                    362.990966796875,
                    200.33889770507812,
                    319.2808837890625
                ],
                [
                    390.170166015625,
                    266.6910400390625,
                    225.06927490234375
                ],
                [
                    407.6134033203125,
                    273.5138244628906,
                    181.40142822265625
                ],
                [
                    377.523681640625,
                    300.23822021484375,
                    202.402099609375
                ],
                [
                    33.12846374511719,
                    87.99783325195312,
                    517.247802734375
                ],
                [
                    29.2366943359375,
                    130.8028106689453,
                    508.1712646484375
                ],
                [
                    154.69171142578125,
                    128.227783203125,
                    485.42236328125
                ],
                [
                    198.38165283203125,
                    147.54656982421875,
                    463.0458984375
                ],
                [
                    156.24884033203125,
                    172.72796630859375,
                    470.663330078125
                ],
                [
                    33.49395751953125,
                    272.07916259765625,
                    446.51123046875
                ],
                [
                    29.74017333984375,
                    394.855224609375,
                    344.305908203125
                ],
                [
                    29.244903564453125,
                    476.408447265625,
                    215.31146240234375
                ],
                [
                    136.4144287109375,
                    418.837890625,
                    283.99285888671875
                ],
                [
                    183.24334716796875,
                    400.4525146484375,
                    282.7564697265625
                ],
                [
                    162.94427490234375,
                    428.82177734375,
                    252.5487060546875
                ],
                [
                    141.64996337890625,
                    321.977783203125,
                    389.1337890625
                ],
                [
                    163.64141845703125,
                    286.3470458984375,
                    408.21954345703125
                ],
                [
                    184.939697265625,
                    320.170166015625,
                    370.97967529296875
                ],
                [
                    285.45806884765625,
                    304.9068603515625,
                    314.20147705078125
                ],
                [
                    289.006591796875,
                    376.12030029296875,
                    220.99237060546875
                ],
                [
                    280.4727783203125,
                    405.8209228515625,
                    176.44677734375
                ],
                [
                    113.10113525390625,
                    498.85498046875,
                    112.43659973144531
                ],
                [
                    129.9384765625,
                    503.9063720703125,
                    63.08729553222656
                ],
                [
                    166.99667358398438,
                    487.5272216796875,
                    95.71858215332031
                ],
                [
                    361.7808837890625,
                    363.1851806640625,
                    108.5927734375
                ],
                [
                    337.4359130859375,
                    393.568359375,
                    77.71658325195312
                ],
                [
                    372.906982421875,
                    362.5726318359375,
                    64.88677978515625
                ],
                [
                    272.0255126953125,
                    274.009521484375,
                    353.02978515625
                ],
                [
                    360.48193359375,
                    23.698013305664062,
                    383.04339599609375
                ],
                [
                    390.6766357421875,
                    25.119380950927734,
                    352.3203125
                ],
                [
                    525.1129150390625,
                    26.631332397460938,
                    30.359130859375
                ],
                [
                    30.22833251953125,
                    522.1217041015625,
                    31.21026611328125
                ],
                [
                    463.6875,
                    -0.6186676025390625,
                    249.2987060546875
                ],
                [
                    509.16986083984375,
                    0.6888847351074219,
                    138.55438232421875
                ],
                [
                    -2.5841445922851562,
                    -414.21697998046875,
                    321.74517822265625
                ],
                [
                    -1.9186325073242188,
                    -296.32708740234375,
                    431.95574951171875
                ],
                [
                    -463.6875,
                    0.6186676025390625,
                    249.2987060546875
                ],
                [
                    -509.16986083984375,
                    -0.6888847351074219,
                    138.55438232421875
                ],
                [
                    2.5841445922851562,
                    414.21697998046875,
                    321.74517822265625
                ],
                [
                    1.9186325073242188,
                    296.32708740234375,
                    431.95574951171875
                ],
                [
                    -18.474985122680692,
                    -449.1148681640625,
                    -273.3074951171875
                ],
                [
                    -18.512296676635774,
                    -499.44512939453125,
                    -167.59799194335938
                ],
                [
                    -146.88073730468753,
                    -497.733642578125,
                    -81.65170288085938
                ],
                [
                    -187.1744079589844,
                    -483.3262939453125,
                    -80.59848022460938
                ],
                [
                    -166.49737548828128,
                    -484.4256591796875,
                    -113.33489990234375
                ],
                [
                    -111.08410644531253,
                    -461.6683349609375,
                    -222.87033081054688
                ],
                [
                    -153.5328063964844,
                    -448.2991943359375,
                    -222.49722290039062
                ],
                [
                    -157.95635986328128,
                    -371.0975341796875,
                    -335.181884765625
                ],
                [
                    -200.33889770507815,
                    -362.990966796875,
                    -319.2808837890625
                ],
                [
                    -266.6910400390625,
                    -390.170166015625,
                    -225.06927490234375
                ],
                [
                    -273.5138244628906,
                    -407.6134033203125,
                    -181.40142822265625
                ],
                [
                    -300.23822021484375,
                    -377.523681640625,
                    -202.402099609375
                ],
                [
                    -87.99783325195312,
                    -33.12846374511718,
                    -517.247802734375
                ],
                [
                    -130.8028106689453,
                    -29.236694335937493,
                    -508.1712646484375
                ],
                [
                    -128.227783203125,
                    -154.69171142578125,
                    -485.42236328125
                ],
                [
                    -147.54656982421875,
                    -198.38165283203125,
                    -463.0458984375
                ],
                [
                    -172.72796630859375,
                    -156.24884033203125,
                    -470.663330078125
                ],
                [
                    -272.07916259765625,
                    -33.493957519531236,
                    -446.51123046875
                ],
                [
                    -394.855224609375,
                    -29.740173339843725,
                    -344.305908203125
                ],
                [
                    -476.408447265625,
                    -29.244903564453097,
                    -215.31146240234375
                ],
                [
                    -418.837890625,
                    -136.41442871093747,
                    -283.99285888671875
                ],
                [
                    -400.4525146484375,
                    -183.24334716796872,
                    -282.7564697265625
                ],
                [
                    -428.82177734375,
                    -162.94427490234372,
                    -252.5487060546875
                ],
                [
                    -321.977783203125,
                    -141.64996337890622,
                    -389.1337890625
                ],
                [
                    -286.3470458984375,
                    -163.64141845703122,
                    -408.21954345703125
                ],
                [
                    -320.170166015625,
                    -184.93969726562497,
                    -370.97967529296875
                ],
                [
                    -304.9068603515625,
                    -285.45806884765625,
                    -314.20147705078125
                ],
                [
                    -376.12030029296875,
                    -289.006591796875,
                    -220.99237060546875
                ],
                [
                    -405.8209228515625,
                    -280.4727783203125,
                    -176.44677734375
                ],
                [
                    -498.85498046875,
                    -113.10113525390622,
                    -112.43659973144531
                ],
                [
                    -503.9063720703125,
                    -129.93847656249997,
                    -63.08729553222656
                ],
                [
                    -487.5272216796875,
                    -166.99667358398435,
                    -95.71858215332031
                ],
                [
                    -363.1851806640625,
                    -361.7808837890625,
                    -108.5927734375
                ],
                [
                    -393.568359375,
                    -337.4359130859375,
                    -77.71658325195312
                ],
                [
                    -362.5726318359375,
                    -372.906982421875,
                    -64.88677978515625
                ],
                [
                    -274.009521484375,
                    -272.0255126953125,
                    -353.02978515625
                ],
                [
                    -23.698013305664084,
                    -360.48193359375,
                    -383.04339599609375
                ],
                [
                    -25.11938095092776,
                    -390.6766357421875,
                    -352.3203125
                ],
                [
                    -26.63133239746097,
                    -525.1129150390625,
                    -30.359130859375
                ],
                [
                    -522.1217041015625,
                    -30.228332519531218,
                    -31.21026611328125
                ],
                [
                    -18.474985122680636,
                    449.1148681640625,
                    -273.3074951171875
                ],
                [
                    -18.51229667663571,
                    499.44512939453125,
                    -167.59799194335938
                ],
                [
                    -146.88073730468747,
                    497.733642578125,
                    -81.65170288085938
                ],
                [
                    -187.17440795898435,
                    483.3262939453125,
                    -80.59848022460938
                ],
                [
                    -166.49737548828122,
                    484.4256591796875,
                    -113.33489990234375
                ],
                [
                    -111.08410644531247,
                    461.6683349609375,
                    -222.87033081054688
                ],
                [
                    -153.53280639648435,
                    448.2991943359375,
                    -222.49722290039062
                ],
                [
                    -157.95635986328122,
                    371.0975341796875,
                    -335.181884765625
                ],
                [
                    -200.3388977050781,
                    362.990966796875,
                    -319.2808837890625
                ],
                [
                    -266.6910400390625,
                    390.170166015625,
                    -225.06927490234375
                ],
                [
                    -273.5138244628906,
                    407.6134033203125,
                    -181.40142822265625
                ],
                [
                    -300.23822021484375,
                    377.523681640625,
                    -202.402099609375
                ],
                [
                    -87.99783325195312,
                    33.128463745117195,
                    -517.247802734375
                ],
                [
                    -130.8028106689453,
                    29.236694335937507,
                    -508.1712646484375
                ],
                [
                    -128.227783203125,
                    154.69171142578125,
                    -485.42236328125
                ],
                [
                    -147.54656982421875,
                    198.38165283203125,
                    -463.0458984375
                ],
                [
                    -172.72796630859375,
                    156.24884033203125,
                    -470.663330078125
                ],
                [
                    -272.07916259765625,
                    33.493957519531264,
                    -446.51123046875
                ],
                [
                    -394.855224609375,
                    29.740173339843775,
                    -344.305908203125
                ],
                [
                    -476.408447265625,
                    29.244903564453153,
                    -215.31146240234375
                ],
                [
                    -418.837890625,
                    136.41442871093753,
                    -283.99285888671875
                ],
                [
                    -400.4525146484375,
                    183.24334716796878,
                    -282.7564697265625
                ],
                [
                    -428.82177734375,
                    162.94427490234378,
                    -252.5487060546875
                ],
                [
                    -321.977783203125,
                    141.64996337890628,
                    -389.1337890625
                ],
                [
                    -286.3470458984375,
                    163.64141845703128,
                    -408.21954345703125
                ],
                [
                    -320.170166015625,
                    184.93969726562503,
                    -370.97967529296875
                ],
                [
                    -304.9068603515625,
                    285.45806884765625,
                    -314.20147705078125
                ],
                [
                    -376.12030029296875,
                    289.006591796875,
                    -220.99237060546875
                ],
                [
                    -405.8209228515625,
                    280.4727783203125,
                    -176.44677734375
                ],
                [
                    -498.85498046875,
                    113.10113525390628,
                    -112.43659973144531
                ],
                [
                    -503.9063720703125,
                    129.93847656250003,
                    -63.08729553222656
                ],
                [
                    -487.5272216796875,
                    166.9966735839844,
                    -95.71858215332031
                ],
                [
                    -363.1851806640625,
                    361.7808837890625,
                    -108.5927734375
                ],
                [
                    -393.568359375,
                    337.4359130859375,
                    -77.71658325195312
                ],
                [
                    -362.5726318359375,
                    372.906982421875,
                    -64.88677978515625
                ],
                [
                    -274.009521484375,
                    272.0255126953125,
                    -353.02978515625
                ],
                [
                    -23.69801330566404,
                    360.48193359375,
                    -383.04339599609375
                ],
                [
                    -25.11938095092771,
                    390.6766357421875,
                    -352.3203125
                ],
                [
                    -26.631332397460906,
                    525.1129150390625,
                    -30.359130859375
                ],
                [
                    -522.1217041015625,
                    30.228332519531282,
                    -31.21026611328125
                ],
                [
                    18.474985122680692,
                    449.1148681640625,
                    -273.3074951171875
                ],
                [
                    18.512296676635774,
                    499.44512939453125,
                    -167.59799194335938
                ],
                [
                    146.88073730468753,
                    497.733642578125,
                    -81.65170288085938
                ],
                [
                    187.1744079589844,
                    483.3262939453125,
                    -80.59848022460938
                ],
                [
                    166.49737548828128,
                    484.4256591796875,
                    -113.33489990234375
                ],
                [
                    111.08410644531253,
                    461.6683349609375,
                    -222.87033081054688
                ],
                [
                    153.5328063964844,
                    448.2991943359375,
                    -222.49722290039062
                ],
                [
                    157.95635986328128,
                    371.0975341796875,
                    -335.181884765625
                ],
                [
                    200.33889770507815,
                    362.990966796875,
                    -319.2808837890625
                ],
                [
                    266.6910400390625,
                    390.170166015625,
                    -225.06927490234375
                ],
                [
                    273.5138244628906,
                    407.6134033203125,
                    -181.40142822265625
                ],
                [
                    300.23822021484375,
                    377.523681640625,
                    -202.402099609375
                ],
                [
                    87.99783325195312,
                    33.12846374511718,
                    -517.247802734375
                ],
                [
                    130.8028106689453,
                    29.236694335937493,
                    -508.1712646484375
                ],
                [
                    128.227783203125,
                    154.69171142578125,
                    -485.42236328125
                ],
                [
                    147.54656982421875,
                    198.38165283203125,
                    -463.0458984375
                ],
                [
                    172.72796630859375,
                    156.24884033203125,
                    -470.663330078125
                ],
                [
                    272.07916259765625,
                    33.493957519531236,
                    -446.51123046875
                ],
                [
                    394.855224609375,
                    29.740173339843725,
                    -344.305908203125
                ],
                [
                    476.408447265625,
                    29.244903564453097,
                    -215.31146240234375
                ],
                [
                    418.837890625,
                    136.41442871093747,
                    -283.99285888671875
                ],
                [
                    400.4525146484375,
                    183.24334716796872,
                    -282.7564697265625
                ],
                [
                    428.82177734375,
                    162.94427490234372,
                    -252.5487060546875
                ],
                [
                    321.977783203125,
                    141.64996337890622,
                    -389.1337890625
                ],
                [
                    286.3470458984375,
                    163.64141845703122,
                    -408.21954345703125
                ],
                [
                    320.170166015625,
                    184.93969726562497,
                    -370.97967529296875
                ],
                [
                    304.9068603515625,
                    285.45806884765625,
                    -314.20147705078125
                ],
                [
                    376.12030029296875,
                    289.006591796875,
                    -220.99237060546875
                ],
                [
                    405.8209228515625,
                    280.4727783203125,
                    -176.44677734375
                ],
                [
                    498.85498046875,
                    113.10113525390622,
                    -112.43659973144531
                ],
                [
                    503.9063720703125,
                    129.93847656249997,
                    -63.08729553222656
                ],
                [
                    487.5272216796875,
                    166.99667358398435,
                    -95.71858215332031
                ],
                [
                    363.1851806640625,
                    361.7808837890625,
                    -108.5927734375
                ],
                [
                    393.568359375,
                    337.4359130859375,
                    -77.71658325195312
                ],
                [
                    362.5726318359375,
                    372.906982421875,
                    -64.88677978515625
                ],
                [
                    274.009521484375,
                    272.0255126953125,
                    -353.02978515625
                ],
                [
                    23.698013305664084,
                    360.48193359375,
                    -383.04339599609375
                ],
                [
                    25.11938095092776,
                    390.6766357421875,
                    -352.3203125
                ],
                [
                    26.63133239746097,
                    525.1129150390625,
                    -30.359130859375
                ],
                [
                    522.1217041015625,
                    30.228332519531218,
                    -31.21026611328125
                ],
                [
                    18.474985122680636,
                    -449.1148681640625,
                    -273.3074951171875
                ],
                [
                    18.51229667663571,
                    -499.44512939453125,
                    -167.59799194335938
                ],
                [
                    146.88073730468747,
                    -497.733642578125,
                    -81.65170288085938
                ],
                [
                    187.17440795898435,
                    -483.3262939453125,
                    -80.59848022460938
                ],
                [
                    166.49737548828122,
                    -484.4256591796875,
                    -113.33489990234375
                ],
                [
                    111.08410644531247,
                    -461.6683349609375,
                    -222.87033081054688
                ],
                [
                    153.53280639648435,
                    -448.2991943359375,
                    -222.49722290039062
                ],
                [
                    157.95635986328122,
                    -371.0975341796875,
                    -335.181884765625
                ],
                [
                    200.3388977050781,
                    -362.990966796875,
                    -319.2808837890625
                ],
                [
                    266.6910400390625,
                    -390.170166015625,
                    -225.06927490234375
                ],
                [
                    273.5138244628906,
                    -407.6134033203125,
                    -181.40142822265625
                ],
                [
                    300.23822021484375,
                    -377.523681640625,
                    -202.402099609375
                ],
                [
                    87.99783325195312,
                    -33.128463745117195,
                    -517.247802734375
                ],
                [
                    130.8028106689453,
                    -29.236694335937507,
                    -508.1712646484375
                ],
                [
                    128.227783203125,
                    -154.69171142578125,
                    -485.42236328125
                ],
                [
                    147.54656982421875,
                    -198.38165283203125,
                    -463.0458984375
                ],
                [
                    172.72796630859375,
                    -156.24884033203125,
                    -470.663330078125
                ],
                [
                    272.07916259765625,
                    -33.493957519531264,
                    -446.51123046875
                ],
                [
                    394.855224609375,
                    -29.740173339843775,
                    -344.305908203125
                ],
                [
                    476.408447265625,
                    -29.244903564453153,
                    -215.31146240234375
                ],
                [
                    418.837890625,
                    -136.41442871093753,
                    -283.99285888671875
                ],
                [
                    400.4525146484375,
                    -183.24334716796878,
                    -282.7564697265625
                ],
                [
                    428.82177734375,
                    -162.94427490234378,
                    -252.5487060546875
                ],
                [
                    321.977783203125,
                    -141.64996337890628,
                    -389.1337890625
                ],
                [
                    286.3470458984375,
                    -163.64141845703128,
                    -408.21954345703125
                ],
                [
                    320.170166015625,
                    -184.93969726562503,
                    -370.97967529296875
                ],
                [
                    304.9068603515625,
                    -285.45806884765625,
                    -314.20147705078125
                ],
                [
                    376.12030029296875,
                    -289.006591796875,
                    -220.99237060546875
                ],
                [
                    405.8209228515625,
                    -280.4727783203125,
                    -176.44677734375
                ],
                [
                    498.85498046875,
                    -113.10113525390628,
                    -112.43659973144531
                ],
                [
                    503.9063720703125,
                    -129.93847656250003,
                    -63.08729553222656
                ],
                [
                    487.5272216796875,
                    -166.9966735839844,
                    -95.71858215332031
                ],
                [
                    363.1851806640625,
                    -361.7808837890625,
                    -108.5927734375
                ],
                [
                    393.568359375,
                    -337.4359130859375,
                    -77.71658325195312
                ],
                [
                    362.5726318359375,
                    -372.906982421875,
                    -64.88677978515625
                ],
                [
                    274.009521484375,
                    -272.0255126953125,
                    -353.02978515625
                ],
                [
                    23.69801330566404,
                    -360.48193359375,
                    -383.04339599609375
                ],
                [
                    25.11938095092771,
                    -390.6766357421875,
                    -352.3203125
                ],
                [
                    26.631332397460906,
                    -525.1129150390625,
                    -30.359130859375
                ],
                [
                    522.1217041015625,
                    -30.228332519531282,
                    -31.21026611328125
                ],
                [
                    -0.6186676025390909,
                    -463.6875,
                    -249.2987060546875
                ],
                [
                    0.6888847351073907,
                    -509.16986083984375,
                    -138.55438232421875
                ],
                [
                    -414.21697998046875,
                    2.5841445922851816,
                    -321.74517822265625
                ],
                [
                    -296.32708740234375,
                    1.918632507324237,
                    -431.95574951171875
                ],
                [
                    0.6186676025390909,
                    463.6875,
                    -249.2987060546875
                ],
                [
                    -0.6888847351073907,
                    509.16986083984375,
                    -138.55438232421875
                ],
                [
                    414.21697998046875,
                    -2.5841445922851816,
                    -321.74517822265625
                ],
                [
                    296.32708740234375,
                    -1.918632507324237,
                    -431.95574951171875
                ]
            ],
            "landing_zones": {
                "rules": [
                    {
                        "max": 10,
                        "min": 0
                    },
                    {
                        "max": 10,
                        "min": 0
                    },
                    {
                        "max": 10,
                        "min": 0
                    },
                    {
                        "max": 10,
                        "min": 0
                    },
                    {
                        "max": 10,
                        "min": 0
                    },
                    {
                        "max": 10,
                        "min": 0
                    },
                    {
                        "max": 10,
                        "min": 0
                    },
                    {
                        "max": 10,
                        "min": 0
                    }
                ],
                "list": [
                    [
                        -102.3846435546875,
                        0.48622894287109375,
                        -515.840576171875
                    ],
                    [
                        0.9961090087890625,
                        -372.6053466796875,
                        -368.95263671875
                    ],
                    [
                        114.79718017578125,
                        6.3122711181640625,
                        -513.926025390625
                    ],
                    [
                        -3.780548095703125,
                        377.42578125,
                        -364.19384765625
                    ],
                    [
                        -374.31884765625,
                        2.179443359375,
                        368.0106201171875
                    ],
                    [
                        0.4951171875,
                        -114.64501953125,
                        513.50146484375
                    ],
                    [
                        378.533203125,
                        0.4730072021484375,
                        367.084228515625
                    ],
                    [
                        4.1398773193359375,
                        117.7032470703125,
                        512.82958984375
                    ]
                ]
            }
        }
    ]
}