{
    "name": "Lune 5v5 NS",
    "description":"5v5 unshared barren moon with balanced spawns (team 1 in the north, team 2 in the south) and metal.",
    "version":"1.0",
    "creator":"Grand Homie",
    "players":[10, 10],
    "planets": [
        {
            "name": "Lune 5v5 NS",
            "mass": 10000,
            "position_x": -600,
            "position_y": -17800,
            "velocity_x": 167.45770263671875,
            "velocity_y": -5.644634246826172,
            "required_thrust_to_move": 0,
            "starting_planet": true,
            "respawn": false,
            "start_destroyed": false,
            "min_spawn_delay": 0,
            "max_spawn_delay": 0,
            "planet": {
                "seed": 1068903808,
                "radius": 550,
                "heightRange": 0,
                "waterHeight": 0,
                "waterDepth": 0,
                "temperature": 0,
                "metalDensity": 50,
                "metalClusters": 50,
                "metalSpotLimit": -1,
                "biomeScale": 50,
                "biome": "moon",
                "symmetryType": "terrain and CSG",
                "symmetricalMetal": true,
                "symmetricalStarts": false,
                "numArmies": 2,
                "landingZonesPerArmy": 0,
                "landingZoneSize": 89
            },
            "planetCSG": [
                {
                    "mergeable": true,
                    "twinId": 0,
                    "flooded": false,
                    "pathable": true,
                    "no_features": false,
                    "scale": [
                        1.3199996948242188,
                        1.3199996948242188,
                        1.3199996948242188
                    ],
                    "weightScale": [
                        1,
                        1,
                        1
                    ],
                    "height": 552.8579711914062,
                    "position": [
                        0,
                        0,
                        550
                    ],
                    "op": "BO_Subtract",
                    "transform": [
                        1.3199996948242188,
                        0,
                        0,
                        0,
                        0,
                        1.3199996948242188,
                        0,
                        0,
                        0,
                        0,
                        1.3199996948242188,
                        552.8579711914062
                    ],
                    "proj": "BP_Bend",
                    "mirrored": false,
                    "weightHard": false,
                    "weight": [
                        0,
                        0,
                        0,
                        0
                    ],
                    "spec": "/pa/terrain/moon/brushes/moon_crater_02.json",
                    "rotation": 0
                },
                {
                    "mergeable": true,
                    "twinId": 0,
                    "flooded": false,
                    "pathable": true,
                    "no_features": false,
                    "scale": [
                        1.3199996948242188,
                        1.3199996948242188,
                        1.3199996948242188
                    ],
                    "weightScale": [
                        1,
                        1,
                        1
                    ],
                    "height": 549.8579711914062,
                    "position": [
                        0,
                        0,
                        550
                    ],
                    "op": "BO_Subtract",
                    "transform": [
                        -1.3199996948242188,
                        1.1539803779214708e-7,
                        0,
                        0,
                        -1.1539803779214708e-7,
                        -1.3199996948242188,
                        0,
                        0,
                        0,
                        0,
                        -1.3199996948242188,
                        -549.8579711914062
                    ],
                    "proj": "BP_Bend",
                    "mirrored": true,
                    "weightHard": false,
                    "weight": [
                        0,
                        0,
                        0,
                        0
                    ],
                    "spec": "/pa/terrain/moon/brushes/moon_crater_02.json",
                    "rotation": 3.1415927410125732
                }
            ],
            "metal_spots": [
                [
                    154.5863800048828,
                    -430.7860107421875,
                    303.845458984375
                ],
                [
                    154.5863800048828,
                    -430.7860107421875,
                    -303.845458984375
                ],
                [
                    108.43240356445312,
                    -503.21923828125,
                    192.03253173828125
                ],
                [
                    108.43240356445312,
                    -503.21923828125,
                    -192.03253173828125
                ],
                [
                    94.33525085449219,
                    -517.92822265625,
                    157.0721435546875
                ],
                [
                    94.33525085449219,
                    -517.92822265625,
                    -157.0721435546875
                ],
                [
                    132.9837188720703,
                    -507.909423828125,
                    162.45751953125
                ],
                [
                    132.9837188720703,
                    -507.909423828125,
                    -162.45751953125
                ],
                [
                    216.34634399414062,
                    -451.89990234375,
                    223.9041748046875
                ],
                [
                    216.34634399414062,
                    -451.89990234375,
                    -223.9041748046875
                ],
                [
                    229.96604919433594,
                    -462.0411376953125,
                    186.00003051757812
                ],
                [
                    229.96604919433594,
                    -462.0411376953125,
                    -186.00003051757812
                ],
                [
                    258.68353271484375,
                    -478.6669921875,
                    73.05789184570312
                ],
                [
                    258.68353271484375,
                    -478.6669921875,
                    -73.05789184570312
                ],
                [
                    36.769222259521484,
                    -269.8489990234375,
                    477.19921875
                ],
                [
                    36.769222259521484,
                    -269.8489990234375,
                    -477.19921875
                ],
                [
                    70.54979705810547,
                    -292.9610595703125,
                    460.4393310546875
                ],
                [
                    70.54979705810547,
                    -292.9610595703125,
                    -460.4393310546875
                ],
                [
                    247.55621337890625,
                    -376.90771484375,
                    313.3647155761719
                ],
                [
                    247.55621337890625,
                    -376.90771484375,
                    -313.3647155761719
                ],
                [
                    178.3651123046875,
                    -518.740966796875,
                    23.436599731445312
                ],
                [
                    178.3651123046875,
                    -518.740966796875,
                    -23.436599731445312
                ],
                [
                    217.95468139648438,
                    -503.5914306640625,
                    22.14544677734375
                ],
                [
                    217.95468139648438,
                    -503.5914306640625,
                    -22.14544677734375
                ],
                [
                    33.725830078125,
                    -116.54052734375,
                    536.655029296875
                ],
                [
                    33.725830078125,
                    -116.54052734375,
                    -536.655029296875
                ],
                [
                    45.540771484375,
                    -164.6475830078125,
                    522.3509521484375
                ],
                [
                    45.540771484375,
                    -164.6475830078125,
                    -522.3509521484375
                ],
                [
                    37.93719482421875,
                    -540.4921875,
                    94.95602416992188
                ],
                [
                    37.93719482421875,
                    -540.4921875,
                    -94.95602416992188
                ],
                [
                    68.58708190917969,
                    -541.646484375,
                    70.07266235351562
                ],
                [
                    68.58708190917969,
                    -541.646484375,
                    -70.07266235351562
                ],
                [
                    35.27803039550781,
                    -493.8980712890625,
                    238.42926025390625
                ],
                [
                    35.27803039550781,
                    -493.8980712890625,
                    -238.42926025390625
                ],
                [
                    28.175018310546875,
                    -400.7105712890625,
                    375.2373046875
                ],
                [
                    28.175018310546875,
                    -400.7105712890625,
                    -375.2373046875
                ],
                [
                    32.45753479003906,
                    -427.8936767578125,
                    343.79339599609375
                ],
                [
                    32.45753479003906,
                    -427.8936767578125,
                    -343.79339599609375
                ],
                [
                    145.86175537109375,
                    -359.5799560546875,
                    389.8682861328125
                ],
                [
                    145.86175537109375,
                    -359.5799560546875,
                    -389.8682861328125
                ],
                [
                    129.7935791015625,
                    -326.8609619140625,
                    423.81396484375
                ],
                [
                    129.7935791015625,
                    -326.8609619140625,
                    -423.81396484375
                ],
                [
                    174.4346923828125,
                    -326.0887451171875,
                    407.35400390625
                ],
                [
                    174.4346923828125,
                    -326.0887451171875,
                    -407.35400390625
                ],
                [
                    229.97222900390625,
                    -355.737548828125,
                    349.41717529296875
                ],
                [
                    229.97222900390625,
                    -355.737548828125,
                    -349.41717529296875
                ],
                [
                    116.15647888183594,
                    -451.25732421875,
                    291.8255920410156
                ],
                [
                    116.15647888183594,
                    -451.25732421875,
                    -291.8255920410156
                ],
                [
                    79.60009765625,
                    -247.5452880859375,
                    484.83184814453125
                ],
                [
                    79.60009765625,
                    -247.5452880859375,
                    -484.83184814453125
                ],
                [
                    295.4058837890625,
                    -459.9053955078125,
                    48.24029541015625
                ],
                [
                    295.4058837890625,
                    -459.9053955078125,
                    -48.24029541015625
                ],
                [
                    -154.5863800048828,
                    -430.7860107421875,
                    303.845458984375
                ],
                [
                    -154.5863800048828,
                    -430.7860107421875,
                    -303.845458984375
                ],
                [
                    -108.43240356445312,
                    -503.21923828125,
                    192.03253173828125
                ],
                [
                    -108.43240356445312,
                    -503.21923828125,
                    -192.03253173828125
                ],
                [
                    -94.33525085449219,
                    -517.92822265625,
                    157.0721435546875
                ],
                [
                    -94.33525085449219,
                    -517.92822265625,
                    -157.0721435546875
                ],
                [
                    -132.9837188720703,
                    -507.909423828125,
                    162.45751953125
                ],
                [
                    -132.9837188720703,
                    -507.909423828125,
                    -162.45751953125
                ],
                [
                    -216.34634399414062,
                    -451.89990234375,
                    223.9041748046875
                ],
                [
                    -216.34634399414062,
                    -451.89990234375,
                    -223.9041748046875
                ],
                [
                    -229.96604919433594,
                    -462.0411376953125,
                    186.00003051757812
                ],
                [
                    -229.96604919433594,
                    -462.0411376953125,
                    -186.00003051757812
                ],
                [
                    -258.68353271484375,
                    -478.6669921875,
                    73.05789184570312
                ],
                [
                    -258.68353271484375,
                    -478.6669921875,
                    -73.05789184570312
                ],
                [
                    -36.769222259521484,
                    -269.8489990234375,
                    477.19921875
                ],
                [
                    -36.769222259521484,
                    -269.8489990234375,
                    -477.19921875
                ],
                [
                    -70.54979705810547,
                    -292.9610595703125,
                    460.4393310546875
                ],
                [
                    -70.54979705810547,
                    -292.9610595703125,
                    -460.4393310546875
                ],
                [
                    -247.55621337890625,
                    -376.90771484375,
                    313.3647155761719
                ],
                [
                    -247.55621337890625,
                    -376.90771484375,
                    -313.3647155761719
                ],
                [
                    -178.3651123046875,
                    -518.740966796875,
                    23.436599731445312
                ],
                [
                    -178.3651123046875,
                    -518.740966796875,
                    -23.436599731445312
                ],
                [
                    -217.95468139648438,
                    -503.5914306640625,
                    22.14544677734375
                ],
                [
                    -217.95468139648438,
                    -503.5914306640625,
                    -22.14544677734375
                ],
                [
                    -33.725830078125,
                    -116.54052734375,
                    536.655029296875
                ],
                [
                    -33.725830078125,
                    -116.54052734375,
                    -536.655029296875
                ],
                [
                    -45.540771484375,
                    -164.6475830078125,
                    522.3509521484375
                ],
                [
                    -45.540771484375,
                    -164.6475830078125,
                    -522.3509521484375
                ],
                [
                    -37.93719482421875,
                    -540.4921875,
                    94.95602416992188
                ],
                [
                    -37.93719482421875,
                    -540.4921875,
                    -94.95602416992188
                ],
                [
                    -68.58708190917969,
                    -541.646484375,
                    70.07266235351562
                ],
                [
                    -68.58708190917969,
                    -541.646484375,
                    -70.07266235351562
                ],
                [
                    -35.27803039550781,
                    -493.8980712890625,
                    238.42926025390625
                ],
                [
                    -35.27803039550781,
                    -493.8980712890625,
                    -238.42926025390625
                ],
                [
                    -28.175018310546875,
                    -400.7105712890625,
                    375.2373046875
                ],
                [
                    -28.175018310546875,
                    -400.7105712890625,
                    -375.2373046875
                ],
                [
                    -32.45753479003906,
                    -427.8936767578125,
                    343.79339599609375
                ],
                [
                    -32.45753479003906,
                    -427.8936767578125,
                    -343.79339599609375
                ],
                [
                    -145.86175537109375,
                    -359.5799560546875,
                    389.8682861328125
                ],
                [
                    -145.86175537109375,
                    -359.5799560546875,
                    -389.8682861328125
                ],
                [
                    -129.7935791015625,
                    -326.8609619140625,
                    423.81396484375
                ],
                [
                    -129.7935791015625,
                    -326.8609619140625,
                    -423.81396484375
                ],
                [
                    -174.4346923828125,
                    -326.0887451171875,
                    407.35400390625
                ],
                [
                    -174.4346923828125,
                    -326.0887451171875,
                    -407.35400390625
                ],
                [
                    -229.97222900390625,
                    -355.737548828125,
                    349.41717529296875
                ],
                [
                    -229.97222900390625,
                    -355.737548828125,
                    -349.41717529296875
                ],
                [
                    -116.15647888183594,
                    -451.25732421875,
                    291.8255920410156
                ],
                [
                    -116.15647888183594,
                    -451.25732421875,
                    -291.8255920410156
                ],
                [
                    -79.60009765625,
                    -247.5452880859375,
                    484.83184814453125
                ],
                [
                    -79.60009765625,
                    -247.5452880859375,
                    -484.83184814453125
                ],
                [
                    -295.4058837890625,
                    -459.9053955078125,
                    48.24029541015625
                ],
                [
                    -295.4058837890625,
                    -459.9053955078125,
                    -48.24029541015625
                ],
                [
                    457.4716611655638,
                    13.900185775798008,
                    303.845458984375
                ],
                [
                    457.4716611655638,
                    13.900185775798008,
                    -303.845458984375
                ],
                [
                    512.097391134805,
                    -52.37795253780341,
                    192.03253173828125
                ],
                [
                    512.097391134805,
                    -52.37795253780341,
                    -192.03253173828125
                ],
                [
                    521.7302068130556,
                    -70.3304676256902,
                    157.0721435546875
                ],
                [
                    521.7302068130556,
                    -70.3304676256902,
                    -157.0721435546875
                ],
                [
                    524.1447963261054,
                    -30.477611171633257,
                    162.45751953125
                ],
                [
                    524.1447963261054,
                    -30.477611171633257,
                    -162.45751953125
                ],
                [
                    496.63704380224476,
                    66.1128506516624,
                    223.9041748046875
                ],
                [
                    496.63704380224476,
                    66.1128506516624,
                    -223.9041748046875
                ],
                [
                    510.4906521318683,
                    75.93214596473834,
                    186.00003051757812
                ],
                [
                    510.4906521318683,
                    75.93214596473834,
                    -186.00003051757812
                ],
                [
                    535.1769698291577,
                    98.10642421442498,
                    73.05789184570312
                ],
                [
                    535.1769698291577,
                    98.10642421442498,
                    -73.05789184570312
                ],
                [
                    268.0039634851065,
                    -48.41831818428807,
                    477.19921875
                ],
                [
                    268.0039634851065,
                    -48.41831818428807,
                    -477.19921875
                ],
                [
                    300.4236109657366,
                    -23.43310188190604,
                    460.4393310546875
                ],
                [
                    300.4236109657366,
                    -23.43310188190604,
                    -460.4393310546875
                ],
                [
                    434.95961524125676,
                    118.96906068561687,
                    313.3647155761719
                ],
                [
                    434.95961524125676,
                    118.96906068561687,
                    -313.3647155761719
                ],
                [
                    548.4698276471604,
                    9.335527918365187,
                    23.436599731445312
                ],
                [
                    548.4698276471604,
                    9.335527918365187,
                    -23.436599731445312
                ],
                [
                    546.2956122385465,
                    51.66890970237219,
                    22.14544677734375
                ],
                [
                    546.2956122385465,
                    51.66890970237219,
                    -22.14544677734375
                ],
                [
                    121.25848258628935,
                    -3.9378330193731372,
                    536.655029296875
                ],
                [
                    121.25848258628935,
                    -3.9378330193731372,
                    -536.655029296875
                ],
                [
                    170.66202903744517,
                    -7.567053754850534,
                    522.3509521484375
                ],
                [
                    170.66202903744517,
                    -7.567053754850534,
                    -522.3509521484375
                ],
                [
                    525.7618548480938,
                    -130.94085491685854,
                    94.95602416992188
                ],
                [
                    525.7618548480938,
                    -130.94085491685854,
                    -94.95602416992188
                ],
                [
                    536.3309923977279,
                    -102.14777743192467,
                    70.07266235351562
                ],
                [
                    536.3309923977279,
                    -102.14777743192467,
                    -70.07266235351562
                ],
                [
                    480.6264900053591,
                    -119.07149682762342,
                    238.42926025390625
                ],
                [
                    480.6264900053591,
                    -119.07149682762342,
                    -238.42926025390625
                ],
                [
                    389.8049594476008,
                    -97.03034159303333,
                    375.2373046875
                ],
                [
                    389.8049594476008,
                    -97.03034159303333,
                    -375.2373046875
                ],
                [
                    416.9809994076478,
                    -101.35746793880124,
                    343.79339599609375
                ],
                [
                    416.9809994076478,
                    -101.35746793880124,
                    -343.79339599609375
                ],
                [
                    387.0546215739647,
                    27.606455666433092,
                    389.8682861328125
                ],
                [
                    387.0546215739647,
                    27.606455666433092,
                    -389.8682861328125
                ],
                [
                    350.971669454003,
                    22.435437148623706,
                    423.81396484375
                ],
                [
                    350.971669454003,
                    22.435437148623706,
                    -423.81396484375
                ],
                [
                    364.0321102890659,
                    65.1302869430028,
                    407.35400390625
                ],
                [
                    364.0321102890659,
                    65.1302869430028,
                    -407.35400390625
                ],
                [
                    409.39184090034786,
                    108.78763883590804,
                    349.41717529296875
                ],
                [
                    409.39184090034786,
                    108.78763883590804,
                    -349.41717529296875
                ],
                [
                    465.06554470539896,
                    -28.974805869288843,
                    291.8255920410156
                ],
                [
                    465.06554470539896,
                    -28.974805869288843,
                    -291.8255920410156
                ],
                [
                    260.02734224197854,
                    -0.7915093222897553,
                    484.83184814453125
                ],
                [
                    260.02734224197854,
                    -0.7915093222897553,
                    -484.83184814453125
                ],
                [
                    528.6814616061761,
                    138.82910771287106,
                    48.24029541015625
                ],
                [
                    528.6814616061761,
                    138.82910771287106,
                    -48.24029541015625
                ],
                [
                    361.9320241247391,
                    -280.1405822924472,
                    303.845458984375
                ],
                [
                    361.9320241247391,
                    -280.1405822924472,
                    -303.845458984375
                ],
                [
                    445.08248025012773,
                    -258.62864051284134,
                    192.03253173828125
                ],
                [
                    445.08248025012773,
                    -258.62864051284134,
                    -192.03253173828125
                ],
                [
                    463.42781544773186,
                    -249.76677770869568,
                    157.0721435546875
                ],
                [
                    463.42781544773186,
                    -249.76677770869568,
                    -157.0721435546875
                ],
                [
                    441.95633811280504,
                    -283.42767596052374,
                    162.45751953125
                ],
                [
                    441.95633811280504,
                    -283.42767596052374,
                    -162.45751953125
                ],
                [
                    362.9276498720892,
                    -345.40234981285823,
                    223.9041748046875
                ],
                [
                    362.9276498720892,
                    -345.40234981285823,
                    -223.9041748046875
                ],
                [
                    368.36381747123824,
                    -361.48927326111175,
                    186.00003051757812
                ],
                [
                    368.36381747123824,
                    -361.48927326111175,
                    -186.00003051757812
                ],
                [
                    375.3017542814888,
                    -393.9388946789804,
                    73.05789184570312
                ],
                [
                    375.3017542814888,
                    -393.9388946789804,
                    -73.05789184570312
                ],
                [
                    245.27933438882303,
                    -118.3575350423335,
                    477.19921875
                ],
                [
                    245.27933438882303,
                    -118.3575350423335,
                    -477.19921875
                ],
                [
                    256.82143848442007,
                    -157.62679031272978,
                    460.4393310546875
                ],
                [
                    256.82143848442007,
                    -157.62679031272978,
                    -460.4393310546875
                ],
                [
                    281.9614612468713,
                    -351.91083908110767,
                    313.3647155761719
                ],
                [
                    281.9614612468713,
                    -351.91083908110767,
                    -313.3647155761719
                ],
                [
                    438.23412583567136,
                    -329.93507675581463,
                    23.436599731445312
                ],
                [
                    438.23412583567136,
                    -329.93507675581463,
                    -23.436599731445312
                ],
                [
                    411.59221112836474,
                    -362.9055302959489,
                    22.14544677734375
                ],
                [
                    411.59221112836474,
                    -362.9055302959489,
                    -22.14544677734375
                ],
                [
                    100.41477329920457,
                    -68.08817394590088,
                    536.655029296875
                ],
                [
                    100.41477329920457,
                    -68.08817394590088,
                    -536.655029296875
                ],
                [
                    142.5162843862094,
                    -94.19074870949724,
                    522.3509521484375
                ],
                [
                    142.5162843862094,
                    -94.19074870949724,
                    -522.3509521484375
                ],
                [
                    502.31537900890004,
                    -203.10168761192256,
                    94.95602416992188
                ],
                [
                    502.31537900890004,
                    -203.10168761192256,
                    -94.95602416992188
                ],
                [
                    493.94184458868176,
                    -232.6081597987142,
                    70.07266235351562
                ],
                [
                    493.94184458868176,
                    -232.6081597987142,
                    -70.07266235351562
                ],
                [
                    458.8234681647833,
                    -186.1742982070358,
                    238.42926025390625
                ],
                [
                    458.8234681647833,
                    -186.1742982070358,
                    -238.42926025390625
                ],
                [
                    372.39184049803225,
                    -150.6224111149951,
                    375.2373046875
                ],
                [
                    372.39184049803225,
                    -150.6224111149951,
                    -375.2373046875
                ],
                [
                    396.9211397163715,
                    -163.09536786868784,
                    343.79339599609375
                ],
                [
                    396.9211397163715,
                    -163.09536786868784,
                    -343.79339599609375
                ],
                [
                    296.90709909590623,
                    -249.83909018142356,
                    389.8682861328125
                ],
                [
                    296.90709909590623,
                    -249.83909018142356,
                    -389.8682861328125
                ],
                [
                    270.7548260477393,
                    -224.44662120699923,
                    423.81396484375
                ],
                [
                    270.7548260477393,
                    -224.44662120699923,
                    -423.81396484375
                ],
                [
                    256.22554157935537,
                    -266.664214774226,
                    407.35400390625
                ],
                [
                    256.22554157935537,
                    -266.664214774226,
                    -407.35400390625
                ],
                [
                    267.26118690735944,
                    -328.64553508626466,
                    349.41717529296875
                ],
                [
                    267.26118690735944,
                    -328.64553508626466,
                    -349.41717529296875
                ],
                [
                    393.276892742915,
                    -249.91755817022977,
                    291.8255920410156
                ],
                [
                    393.276892742915,
                    -249.91755817022977,
                    -291.8255920410156
                ],
                [
                    210.83177638260523,
                    -152.19989246970403,
                    484.83184814453125
                ],
                [
                    210.83177638260523,
                    -152.19989246970403,
                    -484.83184814453125
                ],
                [
                    346.11058494783384,
                    -423.06627374616244,
                    48.24029541015625
                ],
                [
                    346.11058494783384,
                    -423.06627374616244,
                    -48.24029541015625
                ],
                [
                    128.146655485311,
                    439.3767980015685,
                    303.845458984375
                ],
                [
                    128.146655485311,
                    439.3767980015685,
                    -303.845458984375
                ],
                [
                    208.0611897070055,
                    470.84788335175864,
                    192.03253173828125
                ],
                [
                    208.0611897070055,
                    470.84788335175864,
                    -192.03253173828125
                ],
                [
                    228.11174991348815,
                    474.46160321889926,
                    157.0721435546875
                ],
                [
                    228.11174991348815,
                    474.46160321889926,
                    -157.0721435546875
                ],
                [
                    190.95558028385386,
                    489.0732242281522,
                    162.45751953125
                ],
                [
                    190.95558028385386,
                    489.0732242281522,
                    -162.45751953125
                ],
                [
                    90.59222914791698,
                    492.759891139623,
                    223.9041748046875
                ],
                [
                    90.59222914791698,
                    492.759891139623,
                    -223.9041748046875
                ],
                [
                    85.53452476225766,
                    508.969784740239,
                    186.00003051757812
                ],
                [
                    85.53452476225766,
                    508.969784740239,
                    -186.00003051757812
                ],
                [
                    72.07402463575272,
                    539.3000968667303,
                    73.05789184570312
                ],
                [
                    72.07402463575272,
                    539.3000968667303,
                    -73.05789184570312
                ],
                [
                    128.86633629396007,
                    239.92483270744037,
                    477.19921875
                ],
                [
                    128.86633629396007,
                    239.92483270744037,
                    -477.19921875
                ],
                [
                    115.1222055416954,
                    278.4786061454554,
                    460.4393310546875
                ],
                [
                    115.1222055416954,
                    278.4786061454554,
                    -460.4393310546875
                ],
                [
                    21.26361257376726,
                    450.43463795711006,
                    313.3647155761719
                ],
                [
                    21.26361257376726,
                    450.43463795711006,
                    -313.3647155761719
                ],
                [
                    160.6078829850544,
                    524.5106403533482,
                    23.436599731445312
                ],
                [
                    160.6078829850544,
                    524.5106403533482,
                    -23.436599731445312
                ],
                [
                    119.67457487187042,
                    535.5245730217777,
                    22.14544677734375
                ],
                [
                    119.67457487187042,
                    535.5245730217777,
                    -22.14544677734375
                ],
                [
                    41.21603358443908,
                    114.10681269575576,
                    536.655029296875
                ],
                [
                    41.21603358443908,
                    114.10681269575576,
                    -536.655029296875
                ],
                [
                    59.93416304978762,
                    159.97088659261738,
                    522.3509521484375
                ],
                [
                    59.93416304978762,
                    159.97088659261738,
                    -522.3509521484375
                ],
                [
                    287.00150146009196,
                    459.56628864541256,
                    94.95602416992188
                ],
                [
                    287.00150146009196,
                    459.56628864541256,
                    -94.95602416992188
                ],
                [
                    262.8837006125776,
                    478.5156860468111,
                    70.07266235351562
                ],
                [
                    262.8837006125776,
                    478.5156860468111,
                    -70.07266235351562
                ],
                [
                    261.7654763213657,
                    420.30783915826595,
                    238.42926025390625
                ],
                [
                    261.7654763213657,
                    420.30783915826595,
                    -238.42926025390625
                ],
                [
                    212.7376956113449,
                    340.74252224455523,
                    375.2373046875
                ],
                [
                    212.7376956113449,
                    340.74252224455523,
                    -375.2373046875
                ],
                [
                    225.25089550678706,
                    365.2513165580055,
                    343.79339599609375
                ],
                [
                    225.25089550678706,
                    365.2513165580055,
                    -343.79339599609375
                ],
                [
                    93.35115626434481,
                    376.64168396546023,
                    389.8682861328125
                ],
                [
                    93.35115626434481,
                    376.64168396546023,
                    -389.8682861328125
                ],
                [
                    87.11884170930463,
                    340.726824624374,
                    423.81396484375
                ],
                [
                    87.11884170930463,
                    340.726824624374,
                    -423.81396484375
                ],
                [
                    50.549524772180554,
                    366.3414761449967,
                    407.35400390625
                ],
                [
                    50.549524772180554,
                    366.3414761449967,
                    -407.35400390625
                ],
                [
                    23.04584338939813,
                    422.9720071845642,
                    349.41717529296875
                ],
                [
                    23.04584338939813,
                    422.9720071845642,
                    -349.41717529296875
                ],
                [
                    171.26983474258435,
                    433.34990937409947,
                    291.8255920410156
                ],
                [
                    171.26983474258435,
                    433.34990937409947,
                    -291.8255920410156
                ],
                [
                    81.10563785359405,
                    247.05610842235,
                    484.83184814453125
                ],
                [
                    81.10563785359405,
                    247.05610842235,
                    -484.83184814453125
                ],
                [
                    31.33722870552691,
                    545.7065027021871,
                    48.24029541015625
                ],
                [
                    31.33722870552691,
                    545.7065027021871,
                    -48.24029541015625
                ],
                [
                    378.27267253101843,
                    257.64960925726814,
                    303.845458984375
                ],
                [
                    378.27267253101843,
                    257.64960925726814,
                    -303.845458984375
                ],
                [
                    383.50850415613587,
                    343.37794798013596,
                    192.03253173828125
                ],
                [
                    383.50850415613587,
                    343.37794798013596,
                    -192.03253173828125
                ],
                [
                    380.74939213330407,
                    363.5638647717364,
                    157.0721435546875
                ],
                [
                    380.74939213330407,
                    363.5638647717364,
                    -157.0721435546875
                ],
                [
                    406.12775736922435,
                    332.7414867321298,
                    162.45751953125
                ],
                [
                    406.12775736922435,
                    332.7414867321298,
                    -162.45751953125
                ],
                [
                    440.6479670722132,
                    238.42951036532276,
                    223.9041748046875
                ],
                [
                    440.6479670722132,
                    238.42951036532276,
                    -223.9041748046875
                ],
                [
                    457.6274086172235,
                    238.62848025144686,
                    186.00003051757812
                ],
                [
                    457.6274086172235,
                    238.62848025144686,
                    -186.00003051757812
                ],
                [
                    490.6327728982652,
                    235.19936578532491,
                    73.05789184570312
                ],
                [
                    490.6327728982652,
                    235.19936578532491,
                    -73.05789184570312
                ],
                [
                    188.360187649765,
                    196.7000195426187,
                    477.19921875
                ],
                [
                    188.360187649765,
                    196.7000195426187,
                    -477.19921875
                ],
                [
                    229.2741750811174,
                    195.5423456194928,
                    460.4393310546875
                ],
                [
                    229.2741750811174,
                    195.5423456194928,
                    -460.4393310546875
                ],
                [
                    421.81797994705903,
                    159.41485528213065,
                    313.3647155761719
                ],
                [
                    421.81797994705903,
                    159.41485528213065,
                    -313.3647155761719
                ],
                [
                    449.20869710123077,
                    314.8298752809761,
                    23.436599731445312
                ],
                [
                    449.20869710123077,
                    314.8298752809761,
                    -23.436599731445312
                ],
                [
                    472.3326573785365,
                    279.3034782358613,
                    22.14544677734375
                ],
                [
                    472.3326573785365,
                    279.3034782358613,
                    -22.14544677734375
                ],
                [
                    95.78557294964884,
                    74.4597216132682,
                    536.655029296875
                ],
                [
                    95.78557294964884,
                    74.4597216132682,
                    -536.655029296875
                ],
                [
                    133.62067918539836,
                    106.4344988795429,
                    522.3509521484375
                ],
                [
                    133.62067918539836,
                    106.4344988795429,
                    -522.3509521484375
                ],
                [
                    348.38517212350445,
                    414.9684413833684,
                    94.95602416992188
                ],
                [
                    348.38517212350445,
                    414.9684413833684,
                    -94.95602416992188
                ],
                [
                    373.85993033080337,
                    397.88673555882764,
                    70.07266235351562
                ],
                [
                    373.85993033080337,
                    397.88673555882764,
                    -70.07266235351562
                ],
                [
                    318.84652855744923,
                    378.83602716545573,
                    238.42926025390625
                ],
                [
                    318.84652855744923,
                    378.83602716545573,
                    -238.42926025390625
                ],
                [
                    258.3258328714604,
                    307.62080175253556,
                    375.2373046875
                ],
                [
                    258.3258328714604,
                    307.62080175253556,
                    -375.2373046875
                ],
                [
                    277.7682899881025,
                    327.0951960072959,
                    343.79339599609375
                ],
                [
                    277.7682899881025,
                    327.0951960072959,
                    -343.79339599609375
                ],
                [
                    329.36043411349704,
                    205.17090660421758,
                    389.8682861328125
                ],
                [
                    329.36043411349704,
                    205.17090660421758,
                    -389.8682861328125
                ],
                [
                    297.12926421713075,
                    188.145321348064,
                    423.81396484375
                ],
                [
                    297.12926421713075,
                    188.145321348064,
                    -423.81396484375
                ],
                [
                    332.79078586470354,
                    161.28119680341393,
                    407.35400390625
                ],
                [
                    332.79078586470354,
                    161.28119680341393,
                    -407.35400390625
                ],
                [
                    395.14872638629276,
                    152.62343789391736,
                    349.41717529296875
                ],
                [
                    395.14872638629276,
                    152.62343789391736,
                    -349.41717529296875
                ],
                [
                    359.21496558690427,
                    296.799778884169,
                    291.8255920410156
                ],
                [
                    359.21496558690427,
                    296.799778884169,
                    -291.8255920410156
                ],
                [
                    209.90130136921738,
                    153.48058145558122,
                    484.83184814453125
                ],
                [
                    209.90130136921738,
                    153.48058145558122,
                    -484.83184814453125
                ],
                [
                    509.3139891529315,
                    198.43605883891678,
                    48.24029541015625
                ],
                [
                    509.3139891529315,
                    198.43605883891678,
                    -48.24029541015625
                ],
                [
                    -378.27267253101843,
                    257.6496092572682,
                    303.845458984375
                ],
                [
                    -378.27267253101843,
                    257.6496092572682,
                    -303.845458984375
                ],
                [
                    -383.5085041561358,
                    343.377947980136,
                    192.03253173828125
                ],
                [
                    -383.5085041561358,
                    343.377947980136,
                    -192.03253173828125
                ],
                [
                    -380.74939213330396,
                    363.56386477173646,
                    157.0721435546875
                ],
                [
                    -380.74939213330396,
                    363.56386477173646,
                    -157.0721435546875
                ],
                [
                    -406.12775736922435,
                    332.74148673212983,
                    162.45751953125
                ],
                [
                    -406.12775736922435,
                    332.74148673212983,
                    -162.45751953125
                ],
                [
                    -440.6479670722131,
                    238.42951036532278,
                    223.9041748046875
                ],
                [
                    -440.6479670722131,
                    238.42951036532278,
                    -223.9041748046875
                ],
                [
                    -457.6274086172235,
                    238.62848025144697,
                    186.00003051757812
                ],
                [
                    -457.6274086172235,
                    238.62848025144697,
                    -186.00003051757812
                ],
                [
                    -490.6327728982651,
                    235.19936578532509,
                    73.05789184570312
                ],
                [
                    -490.6327728982651,
                    235.19936578532509,
                    -73.05789184570312
                ],
                [
                    -188.360187649765,
                    196.7000195426187,
                    477.19921875
                ],
                [
                    -188.360187649765,
                    196.7000195426187,
                    -477.19921875
                ],
                [
                    -229.27417508111728,
                    195.54234561949283,
                    460.4393310546875
                ],
                [
                    -229.27417508111728,
                    195.54234561949283,
                    -460.4393310546875
                ],
                [
                    -421.8179799470589,
                    159.4148552821307,
                    313.3647155761719
                ],
                [
                    -421.8179799470589,
                    159.4148552821307,
                    -313.3647155761719
                ],
                [
                    -449.20869710123077,
                    314.8298752809762,
                    23.436599731445312
                ],
                [
                    -449.20869710123077,
                    314.8298752809762,
                    -23.436599731445312
                ],
                [
                    -472.33265737853645,
                    279.3034782358614,
                    22.14544677734375
                ],
                [
                    -472.33265737853645,
                    279.3034782358614,
                    -22.14544677734375
                ],
                [
                    -95.78557294964882,
                    74.45972161326821,
                    536.655029296875
                ],
                [
                    -95.78557294964882,
                    74.45972161326821,
                    -536.655029296875
                ],
                [
                    -133.6206791853984,
                    106.43449887954293,
                    522.3509521484375
                ],
                [
                    -133.6206791853984,
                    106.43449887954293,
                    -522.3509521484375
                ],
                [
                    -348.38517212350433,
                    414.9684413833684,
                    94.95602416992188
                ],
                [
                    -348.38517212350433,
                    414.9684413833684,
                    -94.95602416992188
                ],
                [
                    -373.85993033080325,
                    397.8867355588277,
                    70.07266235351562
                ],
                [
                    -373.85993033080325,
                    397.8867355588277,
                    -70.07266235351562
                ],
                [
                    -318.84652855744923,
                    378.8360271654558,
                    238.42926025390625
                ],
                [
                    -318.84652855744923,
                    378.8360271654558,
                    -238.42926025390625
                ],
                [
                    -258.3258328714603,
                    307.62080175253556,
                    375.2373046875
                ],
                [
                    -258.3258328714603,
                    307.62080175253556,
                    -375.2373046875
                ],
                [
                    -277.76828998810237,
                    327.0951960072959,
                    343.79339599609375
                ],
                [
                    -277.76828998810237,
                    327.0951960072959,
                    -343.79339599609375
                ],
                [
                    -329.3604341134969,
                    205.17090660421763,
                    389.8682861328125
                ],
                [
                    -329.3604341134969,
                    205.17090660421763,
                    -389.8682861328125
                ],
                [
                    -297.12926421713075,
                    188.14532134806404,
                    423.81396484375
                ],
                [
                    -297.12926421713075,
                    188.14532134806404,
                    -423.81396484375
                ],
                [
                    -332.7907858647035,
                    161.281196803414,
                    407.35400390625
                ],
                [
                    -332.7907858647035,
                    161.281196803414,
                    -407.35400390625
                ],
                [
                    -395.1487263862927,
                    152.62343789391738,
                    349.41717529296875
                ],
                [
                    -395.1487263862927,
                    152.62343789391738,
                    -349.41717529296875
                ],
                [
                    -359.2149655869042,
                    296.79977888416903,
                    291.8255920410156
                ],
                [
                    -359.2149655869042,
                    296.79977888416903,
                    -291.8255920410156
                ],
                [
                    -209.90130136921732,
                    153.48058145558122,
                    484.83184814453125
                ],
                [
                    -209.90130136921732,
                    153.48058145558122,
                    -484.83184814453125
                ],
                [
                    -509.3139891529315,
                    198.43605883891692,
                    48.24029541015625
                ],
                [
                    -509.3139891529315,
                    198.43605883891692,
                    -48.24029541015625
                ],
                [
                    -128.14665548531093,
                    439.37679800156843,
                    303.845458984375
                ],
                [
                    -128.14665548531093,
                    439.37679800156843,
                    -303.845458984375
                ],
                [
                    -208.06118970700538,
                    470.84788335175864,
                    192.03253173828125
                ],
                [
                    -208.06118970700538,
                    470.84788335175864,
                    -192.03253173828125
                ],
                [
                    -228.11174991348804,
                    474.4616032188993,
                    157.0721435546875
                ],
                [
                    -228.11174991348804,
                    474.4616032188993,
                    -157.0721435546875
                ],
                [
                    -190.95558028385375,
                    489.07322422815207,
                    162.45751953125
                ],
                [
                    -190.95558028385375,
                    489.07322422815207,
                    -162.45751953125
                ],
                [
                    -90.59222914791692,
                    492.759891139623,
                    223.9041748046875
                ],
                [
                    -90.59222914791692,
                    492.759891139623,
                    -223.9041748046875
                ],
                [
                    -85.53452476225755,
                    508.96978474023894,
                    186.00003051757812
                ],
                [
                    -85.53452476225755,
                    508.96978474023894,
                    -186.00003051757812
                ],
                [
                    -72.07402463575255,
                    539.3000968667303,
                    73.05789184570312
                ],
                [
                    -72.07402463575255,
                    539.3000968667303,
                    -73.05789184570312
                ],
                [
                    -128.86633629396005,
                    239.92483270744037,
                    477.19921875
                ],
                [
                    -128.86633629396005,
                    239.92483270744037,
                    -477.19921875
                ],
                [
                    -115.12220554169534,
                    278.47860614545544,
                    460.4393310546875
                ],
                [
                    -115.12220554169534,
                    278.47860614545544,
                    -460.4393310546875
                ],
                [
                    -21.263612573767176,
                    450.43463795711017,
                    313.3647155761719
                ],
                [
                    -21.263612573767176,
                    450.43463795711017,
                    -313.3647155761719
                ],
                [
                    -160.6078829850543,
                    524.5106403533482,
                    23.436599731445312
                ],
                [
                    -160.6078829850543,
                    524.5106403533482,
                    -23.436599731445312
                ],
                [
                    -119.67457487187025,
                    535.5245730217777,
                    22.14544677734375
                ],
                [
                    -119.67457487187025,
                    535.5245730217777,
                    -22.14544677734375
                ],
                [
                    -41.216033584439046,
                    114.10681269575578,
                    536.655029296875
                ],
                [
                    -41.216033584439046,
                    114.10681269575578,
                    -536.655029296875
                ],
                [
                    -59.934163049787585,
                    159.97088659261738,
                    522.3509521484375
                ],
                [
                    -59.934163049787585,
                    159.97088659261738,
                    -522.3509521484375
                ],
                [
                    -287.0015014600919,
                    459.5662886454126,
                    94.95602416992188
                ],
                [
                    -287.0015014600919,
                    459.5662886454126,
                    -94.95602416992188
                ],
                [
                    -262.88370061257746,
                    478.51568604681114,
                    70.07266235351562
                ],
                [
                    -262.88370061257746,
                    478.51568604681114,
                    -70.07266235351562
                ],
                [
                    -261.76547632136567,
                    420.3078391582659,
                    238.42926025390625
                ],
                [
                    -261.76547632136567,
                    420.3078391582659,
                    -238.42926025390625
                ],
                [
                    -212.7376956113448,
                    340.7425222445553,
                    375.2373046875
                ],
                [
                    -212.7376956113448,
                    340.7425222445553,
                    -375.2373046875
                ],
                [
                    -225.250895506787,
                    365.25131655800556,
                    343.79339599609375
                ],
                [
                    -225.250895506787,
                    365.25131655800556,
                    -343.79339599609375
                ],
                [
                    -93.3511562643447,
                    376.6416839654603,
                    389.8682861328125
                ],
                [
                    -93.3511562643447,
                    376.6416839654603,
                    -389.8682861328125
                ],
                [
                    -87.11884170930456,
                    340.726824624374,
                    423.81396484375
                ],
                [
                    -87.11884170930456,
                    340.726824624374,
                    -423.81396484375
                ],
                [
                    -50.549524772180476,
                    366.3414761449967,
                    407.35400390625
                ],
                [
                    -50.549524772180476,
                    366.3414761449967,
                    -407.35400390625
                ],
                [
                    -23.045843389398087,
                    422.97200718456423,
                    349.41717529296875
                ],
                [
                    -23.045843389398087,
                    422.97200718456423,
                    -349.41717529296875
                ],
                [
                    -171.26983474258427,
                    433.3499093740995,
                    291.8255920410156
                ],
                [
                    -171.26983474258427,
                    433.3499093740995,
                    -291.8255920410156
                ],
                [
                    -81.10563785359402,
                    247.05610842235,
                    484.83184814453125
                ],
                [
                    -81.10563785359402,
                    247.05610842235,
                    -484.83184814453125
                ],
                [
                    -31.337228705526798,
                    545.706502702187,
                    48.24029541015625
                ],
                [
                    -31.337228705526798,
                    545.706502702187,
                    -48.24029541015625
                ],
                [
                    -361.9320241247391,
                    -280.14058229244716,
                    303.845458984375
                ],
                [
                    -361.9320241247391,
                    -280.14058229244716,
                    -303.845458984375
                ],
                [
                    -445.08248025012773,
                    -258.6286405128413,
                    192.03253173828125
                ],
                [
                    -445.08248025012773,
                    -258.6286405128413,
                    -192.03253173828125
                ],
                [
                    -463.42781544773186,
                    -249.76677770869554,
                    157.0721435546875
                ],
                [
                    -463.42781544773186,
                    -249.76677770869554,
                    -157.0721435546875
                ],
                [
                    -441.95633811280504,
                    -283.4276759605237,
                    162.45751953125
                ],
                [
                    -441.95633811280504,
                    -283.4276759605237,
                    -162.45751953125
                ],
                [
                    -362.9276498720892,
                    -345.40234981285806,
                    223.9041748046875
                ],
                [
                    -362.9276498720892,
                    -345.40234981285806,
                    -223.9041748046875
                ],
                [
                    -368.36381747123835,
                    -361.48927326111163,
                    186.00003051757812
                ],
                [
                    -368.36381747123835,
                    -361.48927326111163,
                    -186.00003051757812
                ],
                [
                    -375.3017542814889,
                    -393.9388946789802,
                    73.05789184570312
                ],
                [
                    -375.3017542814889,
                    -393.9388946789802,
                    -73.05789184570312
                ],
                [
                    -245.27933438882303,
                    -118.35753504233345,
                    477.19921875
                ],
                [
                    -245.27933438882303,
                    -118.35753504233345,
                    -477.19921875
                ],
                [
                    -256.82143848442007,
                    -157.62679031272967,
                    460.4393310546875
                ],
                [
                    -256.82143848442007,
                    -157.62679031272967,
                    -460.4393310546875
                ],
                [
                    -281.9614612468713,
                    -351.91083908110755,
                    313.3647155761719
                ],
                [
                    -281.9614612468713,
                    -351.91083908110755,
                    -313.3647155761719
                ],
                [
                    -438.23412583567136,
                    -329.9350767558145,
                    23.436599731445312
                ],
                [
                    -438.23412583567136,
                    -329.9350767558145,
                    -23.436599731445312
                ],
                [
                    -411.59221112836474,
                    -362.9055302959488,
                    22.14544677734375
                ],
                [
                    -411.59221112836474,
                    -362.9055302959488,
                    -22.14544677734375
                ],
                [
                    -100.41477329920457,
                    -68.08817394590085,
                    536.655029296875
                ],
                [
                    -100.41477329920457,
                    -68.08817394590085,
                    -536.655029296875
                ],
                [
                    -142.51628438620943,
                    -94.19074870949726,
                    522.3509521484375
                ],
                [
                    -142.51628438620943,
                    -94.19074870949726,
                    -522.3509521484375
                ],
                [
                    -502.3153790089,
                    -203.1016876119224,
                    94.95602416992188
                ],
                [
                    -502.3153790089,
                    -203.1016876119224,
                    -94.95602416992188
                ],
                [
                    -493.9418445886817,
                    -232.6081597987141,
                    70.07266235351562
                ],
                [
                    -493.9418445886817,
                    -232.6081597987141,
                    -70.07266235351562
                ],
                [
                    -458.8234681647834,
                    -186.17429820703575,
                    238.42926025390625
                ],
                [
                    -458.8234681647834,
                    -186.17429820703575,
                    -238.42926025390625
                ],
                [
                    -372.39184049803214,
                    -150.622411114995,
                    375.2373046875
                ],
                [
                    -372.39184049803214,
                    -150.622411114995,
                    -375.2373046875
                ],
                [
                    -396.92113971637144,
                    -163.0953678686877,
                    343.79339599609375
                ],
                [
                    -396.92113971637144,
                    -163.0953678686877,
                    -343.79339599609375
                ],
                [
                    -296.90709909590623,
                    -249.83909018142342,
                    389.8682861328125
                ],
                [
                    -296.90709909590623,
                    -249.83909018142342,
                    -389.8682861328125
                ],
                [
                    -270.75482604773936,
                    -224.44662120699923,
                    423.81396484375
                ],
                [
                    -270.75482604773936,
                    -224.44662120699923,
                    -423.81396484375
                ],
                [
                    -256.2255415793554,
                    -266.6642147742259,
                    407.35400390625
                ],
                [
                    -256.2255415793554,
                    -266.6642147742259,
                    -407.35400390625
                ],
                [
                    -267.26118690735944,
                    -328.64553508626454,
                    349.41717529296875
                ],
                [
                    -267.26118690735944,
                    -328.64553508626454,
                    -349.41717529296875
                ],
                [
                    -393.276892742915,
                    -249.91755817022968,
                    291.8255920410156
                ],
                [
                    -393.276892742915,
                    -249.91755817022968,
                    -291.8255920410156
                ],
                [
                    -210.8317763826052,
                    -152.19989246970397,
                    484.83184814453125
                ],
                [
                    -210.8317763826052,
                    -152.19989246970397,
                    -484.83184814453125
                ],
                [
                    -346.1105849478339,
                    -423.0662737461623,
                    48.24029541015625
                ],
                [
                    -346.1105849478339,
                    -423.0662737461623,
                    -48.24029541015625
                ],
                [
                    -457.4716611655637,
                    13.90018577579805,
                    303.845458984375
                ],
                [
                    -457.4716611655637,
                    13.90018577579805,
                    -303.845458984375
                ],
                [
                    -512.097391134805,
                    -52.37795253780328,
                    192.03253173828125
                ],
                [
                    -512.097391134805,
                    -52.37795253780328,
                    -192.03253173828125
                ],
                [
                    -521.7302068130556,
                    -70.33046762569006,
                    157.0721435546875
                ],
                [
                    -521.7302068130556,
                    -70.33046762569006,
                    -157.0721435546875
                ],
                [
                    -524.1447963261053,
                    -30.477611171633185,
                    162.45751953125
                ],
                [
                    -524.1447963261053,
                    -30.477611171633185,
                    -162.45751953125
                ],
                [
                    -496.6370438022447,
                    66.11285065166246,
                    223.9041748046875
                ],
                [
                    -496.6370438022447,
                    66.11285065166246,
                    -223.9041748046875
                ],
                [
                    -510.49065213186816,
                    75.93214596473842,
                    186.00003051757812
                ],
                [
                    -510.49065213186816,
                    75.93214596473842,
                    -186.00003051757812
                ],
                [
                    -535.1769698291575,
                    98.10642421442513,
                    73.05789184570312
                ],
                [
                    -535.1769698291575,
                    98.10642421442513,
                    -73.05789184570312
                ],
                [
                    -268.0039634851065,
                    -48.41831818428804,
                    477.19921875
                ],
                [
                    -268.0039634851065,
                    -48.41831818428804,
                    -477.19921875
                ],
                [
                    -300.4236109657366,
                    -23.43310188190597,
                    460.4393310546875
                ],
                [
                    -300.4236109657366,
                    -23.43310188190597,
                    -460.4393310546875
                ],
                [
                    -434.9596152412568,
                    118.96906068561697,
                    313.3647155761719
                ],
                [
                    -434.9596152412568,
                    118.96906068561697,
                    -313.3647155761719
                ],
                [
                    -548.4698276471603,
                    9.335527918365301,
                    23.436599731445312
                ],
                [
                    -548.4698276471603,
                    9.335527918365301,
                    -23.436599731445312
                ],
                [
                    -546.2956122385464,
                    51.668909702372375,
                    22.14544677734375
                ],
                [
                    -546.2956122385464,
                    51.668909702372375,
                    -22.14544677734375
                ],
                [
                    -121.25848258628933,
                    -3.937833019373109,
                    536.655029296875
                ],
                [
                    -121.25848258628933,
                    -3.937833019373109,
                    -536.655029296875
                ],
                [
                    -170.66202903744517,
                    -7.567053754850498,
                    522.3509521484375
                ],
                [
                    -170.66202903744517,
                    -7.567053754850498,
                    -522.3509521484375
                ],
                [
                    -525.7618548480938,
                    -130.94085491685848,
                    94.95602416992188
                ],
                [
                    -525.7618548480938,
                    -130.94085491685848,
                    -94.95602416992188
                ],
                [
                    -536.3309923977279,
                    -102.14777743192448,
                    70.07266235351562
                ],
                [
                    -536.3309923977279,
                    -102.14777743192448,
                    -70.07266235351562
                ],
                [
                    -480.62649000535896,
                    -119.07149682762335,
                    238.42926025390625
                ],
                [
                    -480.62649000535896,
                    -119.07149682762335,
                    -238.42926025390625
                ],
                [
                    -389.8049594476008,
                    -97.0303415930332,
                    375.2373046875
                ],
                [
                    -389.8049594476008,
                    -97.0303415930332,
                    -375.2373046875
                ],
                [
                    -416.9809994076478,
                    -101.35746793880115,
                    343.79339599609375
                ],
                [
                    -416.9809994076478,
                    -101.35746793880115,
                    -343.79339599609375
                ],
                [
                    -387.0546215739647,
                    27.606455666433206,
                    389.8682861328125
                ],
                [
                    -387.0546215739647,
                    27.606455666433206,
                    -389.8682861328125
                ],
                [
                    -350.97166945400295,
                    22.435437148623762,
                    423.81396484375
                ],
                [
                    -350.97166945400295,
                    22.435437148623762,
                    -423.81396484375
                ],
                [
                    -364.0321102890658,
                    65.13028694300286,
                    407.35400390625
                ],
                [
                    -364.0321102890658,
                    65.13028694300286,
                    -407.35400390625
                ],
                [
                    -409.39184090034786,
                    108.78763883590807,
                    349.41717529296875
                ],
                [
                    -409.39184090034786,
                    108.78763883590807,
                    -349.41717529296875
                ],
                [
                    -465.06554470539896,
                    -28.97480586928876,
                    291.8255920410156
                ],
                [
                    -465.06554470539896,
                    -28.97480586928876,
                    -291.8255920410156
                ],
                [
                    -260.02734224197854,
                    -0.7915093222897127,
                    484.83184814453125
                ],
                [
                    -260.02734224197854,
                    -0.7915093222897127,
                    -484.83184814453125
                ],
                [
                    -528.6814616061758,
                    138.82910771287115,
                    48.24029541015625
                ],
                [
                    -528.6814616061758,
                    138.82910771287115,
                    -48.24029541015625
                ]
            ],
            "landing_zones": {
                "rules": [
                    {
                        "max": 10,
                        "min": 10
                    },
                    {
                        "max": 10,
                        "min": 10
                    },
                    {
                        "max": 10,
                        "min": 10
                    },
                    {
                        "max": 10,
                        "min": 10
                    },
                    {
                        "max": 10,
                        "min": 10
                    },
                    {
                        "max": 10,
                        "min": 10
                    },
                    {
                        "max": 10,
                        "min": 10
                    },
                    {
                        "max": 10,
                        "min": 10
                    },
                    {
                        "max": 10,
                        "min": 10
                    },
                    {
                        "max": 10,
                        "min": 10
                    }
                ],
                "list": [
                    [
                        -1.5758514404296875,
                        -415.0677490234375,
                        -360.5390625
                    ],
                    [
                        399.65399169921875,
                        -121.90655517578125,
                        -358.2584228515625
                    ],
                    [
                        243.43316650390625,
                        336.07769775390625,
                        -365.8525390625
                    ],
                    [
                        -245.0908203125,
                        334.0704345703125,
                        -358.6435546875
                    ],
                    [
                        -398.4970703125,
                        -127.47247314453125,
                        -358.90625
                    ],
                    [
                        -0.8788909912109375,
                        -416.76318359375,
                        358.6571044921875
                    ],
                    [
                        396.5853271484375,
                        -126.42205810546875,
                        360.014892578125
                    ],
                    [
                        244.9521484375,
                        337.86737060546875,
                        363.2945556640625
                    ],
                    [
                        -249.56207275390625,
                        332.426513671875,
                        357.1826171875
                    ],
                    [
                        -396.9462890625,
                        -127.99456787109375,
                        360.5479736328125
                    ]
                ]
            }
        }
    ]
}