{
    "name": "Lune 2v2 NS",
    "description":"2v2 unshared barren moon with balanced spawns (team 1 in one hemisphere, team 2 in the other) and metal.  (Also setup for 1v1 / shared.)",
    "version":"1.0",
    "creator":"Grand Homie",
    "players":[2, 4],
    "planets": [
        {
            "name": "Lune 2v2 NS",
            "mass": 10000,
            "position_x": -600,
            "position_y": -17800,
            "velocity_x": 167.45770263671875,
            "velocity_y": -5.644634246826172,
            "required_thrust_to_move": 0,
            "starting_planet": true,
            "respawn": false,
            "start_destroyed": false,
            "min_spawn_delay": 0,
            "max_spawn_delay": 0,
            "planet": {
                "seed": 1068903808,
                "radius": 500,
                "heightRange": 0,
                "waterHeight": 0,
                "waterDepth": 0,
                "temperature": 0,
                "metalDensity": 50,
                "metalClusters": 50,
                "metalSpotLimit": -1,
                "biomeScale": 50,
                "biome": "moon",
                "symmetryType": "terrain and CSG",
                "symmetricalMetal": true,
                "symmetricalStarts": false,
                "numArmies": 2,
                "landingZonesPerArmy": 0,
                "landingZoneSize": 0
            },
            "planetCSG": [
                {
                    "spec": "/pa/terrain/moon/brushes/moon_crater_02.json",
                    "rotation": 0,
                    "weight": [
                        0,
                        0,
                        0,
                        0
                    ],
                    "weightHard": false,
                    "transform": [
                        1.0333331823349,
                        0,
                        0,
                        0,
                        0,
                        1.0333331823349,
                        0,
                        0,
                        0,
                        0,
                        1.0333331823349,
                        496.6398010253906
                    ],
                    "op": "BO_Subtract",
                    "position": [
                        0,
                        0,
                        600
                    ],
                    "height": 496.6398010253906,
                    "scale": [
                        1.0333331823349,
                        1.0333331823349,
                        1.0333331823349
                    ],
                    "weightScale": [
                        1,
                        1,
                        1
                    ],
                    "proj": "BP_Bend",
                    "mirrored": false,
                    "no_features": false,
                    "pathable": true,
                    "flooded": false,
                    "twinId": 0,
                    "mergeable": true
                },
                {
                    "spec": "/pa/terrain/moon/brushes/moon_crater_02.json",
                    "rotation": 3.1415927410125732,
                    "weight": [
                        0,
                        0,
                        0,
                        0
                    ],
                    "weightHard": false,
                    "transform": [
                        -1.0333331823349,
                        9.033685444137518e-8,
                        0,
                        0,
                        -9.033685444137518e-8,
                        -1.0333331823349,
                        0,
                        0,
                        0,
                        0,
                        -1.0333331823349,
                        -496.6398010253906
                    ],
                    "op": "BO_Subtract",
                    "position": [
                        0,
                        0,
                        600
                    ],
                    "height": 496.6398010253906,
                    "scale": [
                        1.0333331823349,
                        1.0333331823349,
                        1.0333331823349
                    ],
                    "weightScale": [
                        1,
                        1,
                        1
                    ],
                    "proj": "BP_Bend",
                    "mirrored": true,
                    "no_features": false,
                    "pathable": true,
                    "flooded": false,
                    "twinId": 0,
                    "mergeable": true
                }
            ],
            "metal_spots": [
                [
                    74.77561950683594,
                    -78.34158325195312,
                    489.9005126953125
                ],
                [
                    74.77561950683594,
                    -78.34158325195312,
                    -489.9005126953125
                ],
                [
                    109.67716217041016,
                    -96.71542358398438,
                    480.0701904296875
                ],
                [
                    109.67716217041016,
                    -96.71542358398438,
                    -480.0701904296875
                ],
                [
                    147.66232299804688,
                    -414.74237060546875,
                    240.220458984375
                ],
                [
                    147.66232299804688,
                    -414.74237060546875,
                    -240.220458984375
                ],
                [
                    183.09814453125,
                    -367.9298095703125,
                    284.8017578125
                ],
                [
                    183.09814453125,
                    -367.9298095703125,
                    -284.8017578125
                ],
                [
                    332.13262939453125,
                    -372.0333251953125,
                    32.1007080078125
                ],
                [
                    332.13262939453125,
                    -372.0333251953125,
                    -32.1007080078125
                ],
                [
                    32.06160354614258,
                    -498.5565185546875,
                    36.45912170410156
                ],
                [
                    32.06160354614258,
                    -498.5565185546875,
                    -36.45912170410156
                ],
                [
                    185.53326416015625,
                    -455.3966064453125,
                    99.27874755859375
                ],
                [
                    185.53326416015625,
                    -455.3966064453125,
                    -99.27874755859375
                ],
                [
                    146.2012939453125,
                    -465.208740234375,
                    120.31535339355469
                ],
                [
                    146.2012939453125,
                    -465.208740234375,
                    -120.31535339355469
                ],
                [
                    396.2215576171875,
                    -137.65777587890625,
                    272.142333984375
                ],
                [
                    396.2215576171875,
                    -137.65777587890625,
                    -272.142333984375
                ],
                [
                    295.35723876953125,
                    -121.137451171875,
                    384.3035888671875
                ],
                [
                    295.35723876953125,
                    -121.137451171875,
                    -384.3035888671875
                ],
                [
                    325.8648681640625,
                    -326.9947509765625,
                    193.0186767578125
                ],
                [
                    325.8648681640625,
                    -326.9947509765625,
                    -193.0186767578125
                ],
                [
                    495.6876220703125,
                    -55.240234375,
                    54.40625
                ],
                [
                    495.6876220703125,
                    -55.240234375,
                    -54.40625
                ],
                [
                    450.6201171875,
                    -108.19534301757812,
                    189.13780212402344
                ],
                [
                    450.6201171875,
                    -108.19534301757812,
                    -189.13780212402344
                ],
                [
                    31.212814331054688,
                    -325.71966552734375,
                    377.9505615234375
                ],
                [
                    31.212814331054688,
                    -325.71966552734375,
                    -377.9505615234375
                ],
                [
                    27.348495483398438,
                    -282.825439453125,
                    411.60723876953125
                ],
                [
                    27.348495483398438,
                    -282.825439453125,
                    -411.60723876953125
                ],
                [
                    370.89007568359375,
                    -333.66229248046875,
                    37.40908432006836
                ],
                [
                    370.89007568359375,
                    -333.66229248046875,
                    -37.40908432006836
                ],
                [
                    291.95782470703125,
                    -270.2266845703125,
                    301.7925720214844
                ],
                [
                    291.95782470703125,
                    -270.2266845703125,
                    -301.7925720214844
                ],
                [
                    253.6424560546875,
                    -122.09259033203125,
                    413.28778076171875
                ],
                [
                    253.6424560546875,
                    -122.09259033203125,
                    -413.28778076171875
                ],
                [
                    168.7720947265625,
                    -239.074462890625,
                    404.99267578125
                ],
                [
                    168.7720947265625,
                    -239.074462890625,
                    -404.99267578125
                ],
                [
                    96.88681030273438,
                    -414.4678955078125,
                    264.8310546875
                ],
                [
                    96.88681030273438,
                    -414.4678955078125,
                    -264.8310546875
                ],
                [
                    422.062744140625,
                    -153.8768310546875,
                    219.56683349609375
                ],
                [
                    422.062744140625,
                    -153.8768310546875,
                    -219.56683349609375
                ],
                [
                    438.6142578125,
                    -216.59136962890625,
                    105.68455505371094
                ],
                [
                    438.6142578125,
                    -216.59136962890625,
                    -105.68455505371094
                ],
                [
                    202.44842529296875,
                    -263.66650390625,
                    372.317138671875
                ],
                [
                    202.44842529296875,
                    -263.66650390625,
                    -372.317138671875
                ],
                [
                    -74.77561950683594,
                    -78.34158325195312,
                    489.9005126953125
                ],
                [
                    -74.77561950683594,
                    -78.34158325195312,
                    -489.9005126953125
                ],
                [
                    -109.67716217041016,
                    -96.71542358398438,
                    480.0701904296875
                ],
                [
                    -109.67716217041016,
                    -96.71542358398438,
                    -480.0701904296875
                ],
                [
                    -147.66232299804688,
                    -414.74237060546875,
                    240.220458984375
                ],
                [
                    -147.66232299804688,
                    -414.74237060546875,
                    -240.220458984375
                ],
                [
                    -183.09814453125,
                    -367.9298095703125,
                    284.8017578125
                ],
                [
                    -183.09814453125,
                    -367.9298095703125,
                    -284.8017578125
                ],
                [
                    -332.13262939453125,
                    -372.0333251953125,
                    32.1007080078125
                ],
                [
                    -332.13262939453125,
                    -372.0333251953125,
                    -32.1007080078125
                ],
                [
                    -32.06160354614258,
                    -498.5565185546875,
                    36.45912170410156
                ],
                [
                    -32.06160354614258,
                    -498.5565185546875,
                    -36.45912170410156
                ],
                [
                    -185.53326416015625,
                    -455.3966064453125,
                    99.27874755859375
                ],
                [
                    -185.53326416015625,
                    -455.3966064453125,
                    -99.27874755859375
                ],
                [
                    -146.2012939453125,
                    -465.208740234375,
                    120.31535339355469
                ],
                [
                    -146.2012939453125,
                    -465.208740234375,
                    -120.31535339355469
                ],
                [
                    -396.2215576171875,
                    -137.65777587890625,
                    272.142333984375
                ],
                [
                    -396.2215576171875,
                    -137.65777587890625,
                    -272.142333984375
                ],
                [
                    -295.35723876953125,
                    -121.137451171875,
                    384.3035888671875
                ],
                [
                    -295.35723876953125,
                    -121.137451171875,
                    -384.3035888671875
                ],
                [
                    -325.8648681640625,
                    -326.9947509765625,
                    193.0186767578125
                ],
                [
                    -325.8648681640625,
                    -326.9947509765625,
                    -193.0186767578125
                ],
                [
                    -495.6876220703125,
                    -55.240234375,
                    54.40625
                ],
                [
                    -495.6876220703125,
                    -55.240234375,
                    -54.40625
                ],
                [
                    -450.6201171875,
                    -108.19534301757812,
                    189.13780212402344
                ],
                [
                    -450.6201171875,
                    -108.19534301757812,
                    -189.13780212402344
                ],
                [
                    -31.212814331054688,
                    -325.71966552734375,
                    377.9505615234375
                ],
                [
                    -31.212814331054688,
                    -325.71966552734375,
                    -377.9505615234375
                ],
                [
                    -27.348495483398438,
                    -282.825439453125,
                    411.60723876953125
                ],
                [
                    -27.348495483398438,
                    -282.825439453125,
                    -411.60723876953125
                ],
                [
                    -370.89007568359375,
                    -333.66229248046875,
                    37.40908432006836
                ],
                [
                    -370.89007568359375,
                    -333.66229248046875,
                    -37.40908432006836
                ],
                [
                    -291.95782470703125,
                    -270.2266845703125,
                    301.7925720214844
                ],
                [
                    -291.95782470703125,
                    -270.2266845703125,
                    -301.7925720214844
                ],
                [
                    -253.6424560546875,
                    -122.09259033203125,
                    413.28778076171875
                ],
                [
                    -253.6424560546875,
                    -122.09259033203125,
                    -413.28778076171875
                ],
                [
                    -168.7720947265625,
                    -239.074462890625,
                    404.99267578125
                ],
                [
                    -168.7720947265625,
                    -239.074462890625,
                    -404.99267578125
                ],
                [
                    -96.88681030273438,
                    -414.4678955078125,
                    264.8310546875
                ],
                [
                    -96.88681030273438,
                    -414.4678955078125,
                    -264.8310546875
                ],
                [
                    -422.062744140625,
                    -153.8768310546875,
                    219.56683349609375
                ],
                [
                    -422.062744140625,
                    -153.8768310546875,
                    -219.56683349609375
                ],
                [
                    -438.6142578125,
                    -216.59136962890625,
                    105.68455505371094
                ],
                [
                    -438.6142578125,
                    -216.59136962890625,
                    -105.68455505371094
                ],
                [
                    -202.44842529296875,
                    -263.66650390625,
                    372.317138671875
                ],
                [
                    -202.44842529296875,
                    -263.66650390625,
                    -372.317138671875
                ],
                [
                    -74.77561950683594,
                    78.34158325195312,
                    489.9005126953125
                ],
                [
                    -74.77561950683594,
                    78.34158325195312,
                    -489.9005126953125
                ],
                [
                    -109.67716217041016,
                    96.71542358398438,
                    480.0701904296875
                ],
                [
                    -109.67716217041016,
                    96.71542358398438,
                    -480.0701904296875
                ],
                [
                    -147.66232299804688,
                    414.74237060546875,
                    240.220458984375
                ],
                [
                    -147.66232299804688,
                    414.74237060546875,
                    -240.220458984375
                ],
                [
                    -183.09814453125,
                    367.9298095703125,
                    284.8017578125
                ],
                [
                    -183.09814453125,
                    367.9298095703125,
                    -284.8017578125
                ],
                [
                    -332.13262939453125,
                    372.0333251953125,
                    32.1007080078125
                ],
                [
                    -332.13262939453125,
                    372.0333251953125,
                    -32.1007080078125
                ],
                [
                    -32.06160354614258,
                    498.5565185546875,
                    36.45912170410156
                ],
                [
                    -32.06160354614258,
                    498.5565185546875,
                    -36.45912170410156
                ],
                [
                    -185.53326416015625,
                    455.3966064453125,
                    99.27874755859375
                ],
                [
                    -185.53326416015625,
                    455.3966064453125,
                    -99.27874755859375
                ],
                [
                    -146.2012939453125,
                    465.208740234375,
                    120.31535339355469
                ],
                [
                    -146.2012939453125,
                    465.208740234375,
                    -120.31535339355469
                ],
                [
                    -396.2215576171875,
                    137.65777587890625,
                    272.142333984375
                ],
                [
                    -396.2215576171875,
                    137.65777587890625,
                    -272.142333984375
                ],
                [
                    -295.35723876953125,
                    121.137451171875,
                    384.3035888671875
                ],
                [
                    -295.35723876953125,
                    121.137451171875,
                    -384.3035888671875
                ],
                [
                    -325.8648681640625,
                    326.9947509765625,
                    193.0186767578125
                ],
                [
                    -325.8648681640625,
                    326.9947509765625,
                    -193.0186767578125
                ],
                [
                    -495.6876220703125,
                    55.240234375,
                    54.40625
                ],
                [
                    -495.6876220703125,
                    55.240234375,
                    -54.40625
                ],
                [
                    -450.6201171875,
                    108.19534301757812,
                    189.13780212402344
                ],
                [
                    -450.6201171875,
                    108.19534301757812,
                    -189.13780212402344
                ],
                [
                    -31.212814331054688,
                    325.71966552734375,
                    377.9505615234375
                ],
                [
                    -31.212814331054688,
                    325.71966552734375,
                    -377.9505615234375
                ],
                [
                    -27.348495483398438,
                    282.825439453125,
                    411.60723876953125
                ],
                [
                    -27.348495483398438,
                    282.825439453125,
                    -411.60723876953125
                ],
                [
                    -370.89007568359375,
                    333.66229248046875,
                    37.40908432006836
                ],
                [
                    -370.89007568359375,
                    333.66229248046875,
                    -37.40908432006836
                ],
                [
                    -291.95782470703125,
                    270.2266845703125,
                    301.7925720214844
                ],
                [
                    -291.95782470703125,
                    270.2266845703125,
                    -301.7925720214844
                ],
                [
                    -253.6424560546875,
                    122.09259033203125,
                    413.28778076171875
                ],
                [
                    -253.6424560546875,
                    122.09259033203125,
                    -413.28778076171875
                ],
                [
                    -168.7720947265625,
                    239.074462890625,
                    404.99267578125
                ],
                [
                    -168.7720947265625,
                    239.074462890625,
                    -404.99267578125
                ],
                [
                    -96.88681030273438,
                    414.4678955078125,
                    264.8310546875
                ],
                [
                    -96.88681030273438,
                    414.4678955078125,
                    -264.8310546875
                ],
                [
                    -422.062744140625,
                    153.8768310546875,
                    219.56683349609375
                ],
                [
                    -422.062744140625,
                    153.8768310546875,
                    -219.56683349609375
                ],
                [
                    -438.6142578125,
                    216.59136962890625,
                    105.68455505371094
                ],
                [
                    -438.6142578125,
                    216.59136962890625,
                    -105.68455505371094
                ],
                [
                    -202.44842529296875,
                    263.66650390625,
                    372.317138671875
                ],
                [
                    -202.44842529296875,
                    263.66650390625,
                    -372.317138671875
                ],
                [
                    74.77561950683594,
                    78.34158325195312,
                    489.9005126953125
                ],
                [
                    74.77561950683594,
                    78.34158325195312,
                    -489.9005126953125
                ],
                [
                    109.67716217041016,
                    96.71542358398438,
                    480.0701904296875
                ],
                [
                    109.67716217041016,
                    96.71542358398438,
                    -480.0701904296875
                ],
                [
                    147.66232299804688,
                    414.74237060546875,
                    240.220458984375
                ],
                [
                    147.66232299804688,
                    414.74237060546875,
                    -240.220458984375
                ],
                [
                    183.09814453125,
                    367.9298095703125,
                    284.8017578125
                ],
                [
                    183.09814453125,
                    367.9298095703125,
                    -284.8017578125
                ],
                [
                    332.13262939453125,
                    372.0333251953125,
                    32.1007080078125
                ],
                [
                    332.13262939453125,
                    372.0333251953125,
                    -32.1007080078125
                ],
                [
                    32.06160354614258,
                    498.5565185546875,
                    36.45912170410156
                ],
                [
                    32.06160354614258,
                    498.5565185546875,
                    -36.45912170410156
                ],
                [
                    185.53326416015625,
                    455.3966064453125,
                    99.27874755859375
                ],
                [
                    185.53326416015625,
                    455.3966064453125,
                    -99.27874755859375
                ],
                [
                    146.2012939453125,
                    465.208740234375,
                    120.31535339355469
                ],
                [
                    146.2012939453125,
                    465.208740234375,
                    -120.31535339355469
                ],
                [
                    396.2215576171875,
                    137.65777587890625,
                    272.142333984375
                ],
                [
                    396.2215576171875,
                    137.65777587890625,
                    -272.142333984375
                ],
                [
                    295.35723876953125,
                    121.137451171875,
                    384.3035888671875
                ],
                [
                    295.35723876953125,
                    121.137451171875,
                    -384.3035888671875
                ],
                [
                    325.8648681640625,
                    326.9947509765625,
                    193.0186767578125
                ],
                [
                    325.8648681640625,
                    326.9947509765625,
                    -193.0186767578125
                ],
                [
                    495.6876220703125,
                    55.240234375,
                    54.40625
                ],
                [
                    495.6876220703125,
                    55.240234375,
                    -54.40625
                ],
                [
                    450.6201171875,
                    108.19534301757812,
                    189.13780212402344
                ],
                [
                    450.6201171875,
                    108.19534301757812,
                    -189.13780212402344
                ],
                [
                    31.212814331054688,
                    325.71966552734375,
                    377.9505615234375
                ],
                [
                    31.212814331054688,
                    325.71966552734375,
                    -377.9505615234375
                ],
                [
                    27.348495483398438,
                    282.825439453125,
                    411.60723876953125
                ],
                [
                    27.348495483398438,
                    282.825439453125,
                    -411.60723876953125
                ],
                [
                    370.89007568359375,
                    333.66229248046875,
                    37.40908432006836
                ],
                [
                    370.89007568359375,
                    333.66229248046875,
                    -37.40908432006836
                ],
                [
                    291.95782470703125,
                    270.2266845703125,
                    301.7925720214844
                ],
                [
                    291.95782470703125,
                    270.2266845703125,
                    -301.7925720214844
                ],
                [
                    253.6424560546875,
                    122.09259033203125,
                    413.28778076171875
                ],
                [
                    253.6424560546875,
                    122.09259033203125,
                    -413.28778076171875
                ],
                [
                    168.7720947265625,
                    239.074462890625,
                    404.99267578125
                ],
                [
                    168.7720947265625,
                    239.074462890625,
                    -404.99267578125
                ],
                [
                    96.88681030273438,
                    414.4678955078125,
                    264.8310546875
                ],
                [
                    96.88681030273438,
                    414.4678955078125,
                    -264.8310546875
                ],
                [
                    422.062744140625,
                    153.8768310546875,
                    219.56683349609375
                ],
                [
                    422.062744140625,
                    153.8768310546875,
                    -219.56683349609375
                ],
                [
                    438.6142578125,
                    216.59136962890625,
                    105.68455505371094
                ],
                [
                    438.6142578125,
                    216.59136962890625,
                    -105.68455505371094
                ],
                [
                    202.44842529296875,
                    263.66650390625,
                    372.317138671875
                ],
                [
                    202.44842529296875,
                    263.66650390625,
                    -372.317138671875
                ],
                [
                    281.0758056640625,
                    -63.15460205078125,
                    409.198486328125
                ],
                [
                    281.0758056640625,
                    -63.15460205078125,
                    -409.198486328125
                ],
                [
                    -281.0758056640625,
                    -63.15460205078125,
                    409.198486328125
                ],
                [
                    -281.0758056640625,
                    -63.15460205078125,
                    -409.198486328125
                ],
                [
                    -281.0758056640625,
                    63.15460205078125,
                    409.198486328125
                ],
                [
                    -281.0758056640625,
                    63.15460205078125,
                    -409.198486328125
                ],
                [
                    281.0758056640625,
                    63.15460205078125,
                    409.198486328125
                ],
                [
                    281.0758056640625,
                    63.15460205078125,
                    -409.198486328125
                ]
            ],
            "landing_zones": {
                "rules": [
                    {
                        "max": 4,
                        "min": 4
                    },
                    {
                        "max": 4,
                        "min": 4
                    },
                    {
                        "max": 4,
                        "min": 4
                    },
                    {
                        "max": 4,
                        "min": 4
                    },
                    {
                        "max": 2,
                        "min": 2
                    },
                    {
                        "max": 2,
                        "min": 2
                    },
                    {
                        "max": 2,
                        "min": 2
                    },
                    {
                        "max": 2,
                        "min": 2
                    }
                ],
                "list": [
                    [
                        2.732330322265625,
                        -309.4381103515625,
                        -392.889404296875
                    ],
                    [
                        2.382293701171875,
                        307.39666748046875,
                        -393.5267333984375
                    ],
                    [
                        3.572885513305664,
                        -308.6483154296875,
                        393.493408203125
                    ],
                    [
                        0.07321548461914062,
                        305.7135009765625,
                        394.8839111328125
                    ],
                    [
                        3.411407470703125,
                        318.5111083984375,
                        -384.42083740234375
                    ],
                    [
                        -0.40131378173828125,
                        307.0191650390625,
                        393.80657958984375
                    ],
                    [
                        -0.96923828125,
                        -303.362060546875,
                        -397.8242492675781
                    ],
                    [
                        -5.406158447265625,
                        -311.4139404296875,
                        391.34564208984375
                    ]
                ]
            }
        }
    ]
}