{
    "name": "Lune 5v5 NS",
    "description":"5v5 unshared barren moon with balanced spawns (team 1 in the north, team 2 in the south) and metal.  (version 1.1 update: less metal).",
    "version":"1.1",
    "creator":"Grand Homie",
    "players":[10, 10],
    "planets": [
        {
            "name": "Lune 5v5 NS",
            "mass": 10000,
            "position_x": -600,
            "position_y": -17800,
            "velocity_x": 167.45770263671875,
            "velocity_y": -5.644634246826172,
            "required_thrust_to_move": 0,
            "starting_planet": true,
            "respawn": false,
            "start_destroyed": false,
            "min_spawn_delay": 0,
            "max_spawn_delay": 0,
            "planet": {
                "seed": 1068903808,
                "radius": 550,
                "heightRange": 0,
                "waterHeight": 0,
                "waterDepth": 0,
                "temperature": 0,
                "metalDensity": 50,
                "metalClusters": 50,
                "metalSpotLimit": -1,
                "biomeScale": 50,
                "biome": "moon",
                "symmetryType": "terrain and CSG",
                "symmetricalMetal": true,
                "symmetricalStarts": false,
                "numArmies": 2,
                "landingZonesPerArmy": 0,
                "landingZoneSize": 89
            },
            "planetCSG": [
                {
                    "mergeable": true,
                    "twinId": 0,
                    "flooded": false,
                    "pathable": true,
                    "no_features": false,
                    "scale": [
                        1.3199996948242188,
                        1.3199996948242188,
                        1.3199996948242188
                    ],
                    "weightScale": [
                        1,
                        1,
                        1
                    ],
                    "height": 552.8579711914062,
                    "position": [
                        0,
                        0,
                        550
                    ],
                    "proj": "BP_Bend",
                    "mirrored": false,
                    "transform": [
                        1.3199996948242188,
                        0,
                        0,
                        0,
                        0,
                        1.3199996948242188,
                        0,
                        0,
                        0,
                        0,
                        1.3199996948242188,
                        552.8579711914062
                    ],
                    "op": "BO_Subtract",
                    "weight": [
                        0,
                        0,
                        0,
                        0
                    ],
                    "weightHard": false,
                    "spec": "/pa/terrain/moon/brushes/moon_crater_02.json",
                    "rotation": 0
                },
                {
                    "mergeable": true,
                    "twinId": 0,
                    "flooded": false,
                    "pathable": true,
                    "no_features": false,
                    "scale": [
                        1.3199996948242188,
                        1.3199996948242188,
                        1.3199996948242188
                    ],
                    "weightScale": [
                        1,
                        1,
                        1
                    ],
                    "height": 549.8579711914062,
                    "position": [
                        0,
                        0,
                        550
                    ],
                    "proj": "BP_Bend",
                    "mirrored": true,
                    "transform": [
                        -1.3199996948242188,
                        1.1539803779214708e-7,
                        0,
                        0,
                        -1.1539803779214708e-7,
                        -1.3199996948242188,
                        0,
                        0,
                        0,
                        0,
                        -1.3199996948242188,
                        -549.8579711914062
                    ],
                    "op": "BO_Subtract",
                    "weight": [
                        0,
                        0,
                        0,
                        0
                    ],
                    "weightHard": false,
                    "spec": "/pa/terrain/moon/brushes/moon_crater_02.json",
                    "rotation": 3.1415927410125732
                }
            ],
            "metal_spots": [
                [
                    154.5863800048828,
                    -430.7860107421875,
                    303.845458984375
                ],
                [
                    154.5863800048828,
                    -430.7860107421875,
                    -303.845458984375
                ],
                [
                    94.33525085449219,
                    -517.92822265625,
                    157.0721435546875
                ],
                [
                    94.33525085449219,
                    -517.92822265625,
                    -157.0721435546875
                ],
                [
                    132.9837188720703,
                    -507.909423828125,
                    162.45751953125
                ],
                [
                    132.9837188720703,
                    -507.909423828125,
                    -162.45751953125
                ],
                [
                    216.34634399414062,
                    -451.89990234375,
                    223.9041748046875
                ],
                [
                    216.34634399414062,
                    -451.89990234375,
                    -223.9041748046875
                ],
                [
                    229.96604919433594,
                    -462.0411376953125,
                    186.00003051757812
                ],
                [
                    229.96604919433594,
                    -462.0411376953125,
                    -186.00003051757812
                ],
                [
                    258.68353271484375,
                    -478.6669921875,
                    73.05789184570312
                ],
                [
                    258.68353271484375,
                    -478.6669921875,
                    -73.05789184570312
                ],
                [
                    178.3651123046875,
                    -518.740966796875,
                    23.436599731445312
                ],
                [
                    178.3651123046875,
                    -518.740966796875,
                    -23.436599731445312
                ],
                [
                    33.725830078125,
                    -116.54052734375,
                    536.655029296875
                ],
                [
                    33.725830078125,
                    -116.54052734375,
                    -536.655029296875
                ],
                [
                    45.540771484375,
                    -164.6475830078125,
                    522.3509521484375
                ],
                [
                    45.540771484375,
                    -164.6475830078125,
                    -522.3509521484375
                ],
                [
                    37.93719482421875,
                    -540.4921875,
                    94.95602416992188
                ],
                [
                    37.93719482421875,
                    -540.4921875,
                    -94.95602416992188
                ],
                [
                    68.58708190917969,
                    -541.646484375,
                    70.07266235351562
                ],
                [
                    68.58708190917969,
                    -541.646484375,
                    -70.07266235351562
                ],
                [
                    35.27803039550781,
                    -493.8980712890625,
                    238.42926025390625
                ],
                [
                    35.27803039550781,
                    -493.8980712890625,
                    -238.42926025390625
                ],
                [
                    116.15647888183594,
                    -451.25732421875,
                    291.8255920410156
                ],
                [
                    116.15647888183594,
                    -451.25732421875,
                    -291.8255920410156
                ],
                [
                    295.4058837890625,
                    -459.9053955078125,
                    48.24029541015625
                ],
                [
                    295.4058837890625,
                    -459.9053955078125,
                    -48.24029541015625
                ],
                [
                    72.34056091308594,
                    -242.88848876953125,
                    488.3297119140625
                ],
                [
                    72.34056091308594,
                    -242.88848876953125,
                    -488.3297119140625
                ],
                [
                    135.59149169921875,
                    -345.3394775390625,
                    406.44793701171875
                ],
                [
                    135.59149169921875,
                    -345.3394775390625,
                    -406.44793701171875
                ],
                [
                    163.01760864257812,
                    -309.59619140625,
                    425.2240295410156
                ],
                [
                    163.01760864257812,
                    -309.59619140625,
                    -425.2240295410156
                ],
                [
                    23.77438735961914,
                    -400.3509521484375,
                    375.9638671875
                ],
                [
                    23.77438735961914,
                    -400.3509521484375,
                    -375.9638671875
                ],
                [
                    26.530258178710938,
                    -428.9683837890625,
                    343.01678466796875
                ],
                [
                    26.530258178710938,
                    -428.9683837890625,
                    -343.01678466796875
                ],
                [
                    64.90846252441406,
                    -285.756591796875,
                    465.68017578125
                ],
                [
                    64.90846252441406,
                    -285.756591796875,
                    -465.68017578125
                ],
                [
                    192.092041015625,
                    -372.282470703125,
                    355.4725341796875
                ],
                [
                    192.092041015625,
                    -372.282470703125,
                    -355.4725341796875
                ],
                [
                    -154.5863800048828,
                    -430.7860107421875,
                    303.845458984375
                ],
                [
                    -154.5863800048828,
                    -430.7860107421875,
                    -303.845458984375
                ],
                [
                    -94.33525085449219,
                    -517.92822265625,
                    157.0721435546875
                ],
                [
                    -94.33525085449219,
                    -517.92822265625,
                    -157.0721435546875
                ],
                [
                    -132.9837188720703,
                    -507.909423828125,
                    162.45751953125
                ],
                [
                    -132.9837188720703,
                    -507.909423828125,
                    -162.45751953125
                ],
                [
                    -216.34634399414062,
                    -451.89990234375,
                    223.9041748046875
                ],
                [
                    -216.34634399414062,
                    -451.89990234375,
                    -223.9041748046875
                ],
                [
                    -229.96604919433594,
                    -462.0411376953125,
                    186.00003051757812
                ],
                [
                    -229.96604919433594,
                    -462.0411376953125,
                    -186.00003051757812
                ],
                [
                    -258.68353271484375,
                    -478.6669921875,
                    73.05789184570312
                ],
                [
                    -258.68353271484375,
                    -478.6669921875,
                    -73.05789184570312
                ],
                [
                    -178.3651123046875,
                    -518.740966796875,
                    23.436599731445312
                ],
                [
                    -178.3651123046875,
                    -518.740966796875,
                    -23.436599731445312
                ],
                [
                    -33.725830078125,
                    -116.54052734375,
                    536.655029296875
                ],
                [
                    -33.725830078125,
                    -116.54052734375,
                    -536.655029296875
                ],
                [
                    -45.540771484375,
                    -164.6475830078125,
                    522.3509521484375
                ],
                [
                    -45.540771484375,
                    -164.6475830078125,
                    -522.3509521484375
                ],
                [
                    -37.93719482421875,
                    -540.4921875,
                    94.95602416992188
                ],
                [
                    -37.93719482421875,
                    -540.4921875,
                    -94.95602416992188
                ],
                [
                    -68.58708190917969,
                    -541.646484375,
                    70.07266235351562
                ],
                [
                    -68.58708190917969,
                    -541.646484375,
                    -70.07266235351562
                ],
                [
                    -35.27803039550781,
                    -493.8980712890625,
                    238.42926025390625
                ],
                [
                    -35.27803039550781,
                    -493.8980712890625,
                    -238.42926025390625
                ],
                [
                    -116.15647888183594,
                    -451.25732421875,
                    291.8255920410156
                ],
                [
                    -116.15647888183594,
                    -451.25732421875,
                    -291.8255920410156
                ],
                [
                    -295.4058837890625,
                    -459.9053955078125,
                    48.24029541015625
                ],
                [
                    -295.4058837890625,
                    -459.9053955078125,
                    -48.24029541015625
                ],
                [
                    -72.34056091308594,
                    -242.88848876953125,
                    488.3297119140625
                ],
                [
                    -72.34056091308594,
                    -242.88848876953125,
                    -488.3297119140625
                ],
                [
                    -135.59149169921875,
                    -345.3394775390625,
                    406.44793701171875
                ],
                [
                    -135.59149169921875,
                    -345.3394775390625,
                    -406.44793701171875
                ],
                [
                    -163.01760864257812,
                    -309.59619140625,
                    425.2240295410156
                ],
                [
                    -163.01760864257812,
                    -309.59619140625,
                    -425.2240295410156
                ],
                [
                    -23.77438735961914,
                    -400.3509521484375,
                    375.9638671875
                ],
                [
                    -23.77438735961914,
                    -400.3509521484375,
                    -375.9638671875
                ],
                [
                    -26.530258178710938,
                    -428.9683837890625,
                    343.01678466796875
                ],
                [
                    -26.530258178710938,
                    -428.9683837890625,
                    -343.01678466796875
                ],
                [
                    -64.90846252441406,
                    -285.756591796875,
                    465.68017578125
                ],
                [
                    -64.90846252441406,
                    -285.756591796875,
                    -465.68017578125
                ],
                [
                    -192.092041015625,
                    -372.282470703125,
                    355.4725341796875
                ],
                [
                    -192.092041015625,
                    -372.282470703125,
                    -355.4725341796875
                ],
                [
                    457.4716491699219,
                    13.900185585021973,
                    303.845458984375
                ],
                [
                    457.4716491699219,
                    13.900185585021973,
                    -303.845458984375
                ],
                [
                    521.730224609375,
                    -70.3304672241211,
                    157.0721435546875
                ],
                [
                    521.730224609375,
                    -70.3304672241211,
                    -157.0721435546875
                ],
                [
                    524.144775390625,
                    -30.477611541748047,
                    162.45751953125
                ],
                [
                    524.144775390625,
                    -30.477611541748047,
                    -162.45751953125
                ],
                [
                    496.6370544433594,
                    66.11285400390625,
                    223.9041748046875
                ],
                [
                    496.6370544433594,
                    66.11285400390625,
                    -223.9041748046875
                ],
                [
                    510.49066162109375,
                    75.93214416503906,
                    186.00003051757812
                ],
                [
                    510.49066162109375,
                    75.93214416503906,
                    -186.00003051757812
                ],
                [
                    535.1769409179688,
                    98.1064224243164,
                    73.05789184570312
                ],
                [
                    535.1769409179688,
                    98.1064224243164,
                    -73.05789184570312
                ],
                [
                    548.4698486328125,
                    9.335528373718262,
                    23.436599731445312
                ],
                [
                    548.4698486328125,
                    9.335528373718262,
                    -23.436599731445312
                ],
                [
                    121.25848388671875,
                    -3.937833070755005,
                    536.655029296875
                ],
                [
                    121.25848388671875,
                    -3.937833070755005,
                    -536.655029296875
                ],
                [
                    170.6620330810547,
                    -7.56705379486084,
                    522.3509521484375
                ],
                [
                    170.6620330810547,
                    -7.56705379486084,
                    -522.3509521484375
                ],
                [
                    525.7618408203125,
                    -130.94085693359375,
                    94.95602416992188
                ],
                [
                    525.7618408203125,
                    -130.94085693359375,
                    -94.95602416992188
                ],
                [
                    536.3309936523438,
                    -102.14777374267578,
                    70.07266235351562
                ],
                [
                    536.3309936523438,
                    -102.14777374267578,
                    -70.07266235351562
                ],
                [
                    480.6264953613281,
                    -119.07149505615234,
                    238.42926025390625
                ],
                [
                    480.6264953613281,
                    -119.07149505615234,
                    -238.42926025390625
                ],
                [
                    465.0655517578125,
                    -28.97480583190918,
                    291.8255920410156
                ],
                [
                    465.0655517578125,
                    -28.97480583190918,
                    -291.8255920410156
                ],
                [
                    528.6814575195312,
                    138.8291015625,
                    48.24029541015625
                ],
                [
                    528.6814575195312,
                    138.8291015625,
                    -48.24029541015625
                ],
                [
                    253.3551483154297,
                    -6.256709098815918,
                    488.3297119140625
                ],
                [
                    253.3551483154297,
                    -6.256709098815918,
                    -488.3297119140625
                ],
                [
                    370.3374328613281,
                    22.239404678344727,
                    406.44793701171875
                ],
                [
                    370.3374328613281,
                    22.239404678344727,
                    -406.44793701171875
                ],
                [
                    344.8186950683594,
                    59.368473052978516,
                    425.2240295410156
                ],
                [
                    344.8186950683594,
                    59.368473052978516,
                    -425.2240295410156
                ],
                [
                    388.1030578613281,
                    -101.10446166992188,
                    375.9638671875
                ],
                [
                    388.1030578613281,
                    -101.10446166992188,
                    -375.9638671875
                ],
                [
                    416.1714782714844,
                    -107.32674407958984,
                    343.01678466796875
                ],
                [
                    416.1714782714844,
                    -107.32674407958984,
                    -343.01678466796875
                ],
                [
                    291.8284912109375,
                    -26.5720272064209,
                    465.68017578125
                ],
                [
                    291.8284912109375,
                    -26.5720272064209,
                    -465.68017578125
                ],
                [
                    413.42138671875,
                    67.6487808227539,
                    355.4725341796875
                ],
                [
                    413.42138671875,
                    67.6487808227539,
                    -355.4725341796875
                ],
                [
                    361.9320373535156,
                    -280.1405944824219,
                    303.845458984375
                ],
                [
                    361.9320373535156,
                    -280.1405944824219,
                    -303.845458984375
                ],
                [
                    463.4278259277344,
                    -249.76678466796875,
                    157.0721435546875
                ],
                [
                    463.4278259277344,
                    -249.76678466796875,
                    -157.0721435546875
                ],
                [
                    441.9563293457031,
                    -283.42767333984375,
                    162.45751953125
                ],
                [
                    441.9563293457031,
                    -283.42767333984375,
                    -162.45751953125
                ],
                [
                    362.9276428222656,
                    -345.40234375,
                    223.9041748046875
                ],
                [
                    362.9276428222656,
                    -345.40234375,
                    -223.9041748046875
                ],
                [
                    368.36383056640625,
                    -361.4892883300781,
                    186.00003051757812
                ],
                [
                    368.36383056640625,
                    -361.4892883300781,
                    -186.00003051757812
                ],
                [
                    375.3017578125,
                    -393.93890380859375,
                    73.05789184570312
                ],
                [
                    375.3017578125,
                    -393.93890380859375,
                    -73.05789184570312
                ],
                [
                    438.234130859375,
                    -329.9350891113281,
                    23.436599731445312
                ],
                [
                    438.234130859375,
                    -329.9350891113281,
                    -23.436599731445312
                ],
                [
                    100.4147720336914,
                    -68.08817291259766,
                    536.655029296875
                ],
                [
                    100.4147720336914,
                    -68.08817291259766,
                    -536.655029296875
                ],
                [
                    142.5162811279297,
                    -94.19075012207031,
                    522.3509521484375
                ],
                [
                    142.5162811279297,
                    -94.19075012207031,
                    -522.3509521484375
                ],
                [
                    502.31536865234375,
                    -203.1016845703125,
                    94.95602416992188
                ],
                [
                    502.31536865234375,
                    -203.1016845703125,
                    -94.95602416992188
                ],
                [
                    493.94183349609375,
                    -232.608154296875,
                    70.07266235351562
                ],
                [
                    493.94183349609375,
                    -232.608154296875,
                    -70.07266235351562
                ],
                [
                    458.8234558105469,
                    -186.17430114746094,
                    238.42926025390625
                ],
                [
                    458.8234558105469,
                    -186.17430114746094,
                    -238.42926025390625
                ],
                [
                    393.2768859863281,
                    -249.9175567626953,
                    291.8255920410156
                ],
                [
                    393.2768859863281,
                    -249.9175567626953,
                    -291.8255920410156
                ],
                [
                    346.110595703125,
                    -423.0662841796875,
                    48.24029541015625
                ],
                [
                    346.110595703125,
                    -423.0662841796875,
                    -48.24029541015625
                ],
                [
                    208.64620971679688,
                    -143.85662841796875,
                    488.3297119140625
                ],
                [
                    208.64620971679688,
                    -143.85662841796875,
                    -488.3297119140625
                ],
                [
                    286.53729248046875,
                    -235.6709442138672,
                    406.44793701171875
                ],
                [
                    286.53729248046875,
                    -235.6709442138672,
                    -406.44793701171875
                ],
                [
                    244.06826782226562,
                    -250.70944213867188,
                    425.2240295410156
                ],
                [
                    244.06826782226562,
                    -250.70944213867188,
                    -425.2240295410156
                ],
                [
                    373.4096984863281,
                    -146.32603454589844,
                    375.9638671875
                ],
                [
                    373.4096984863281,
                    -146.32603454589844,
                    -375.9638671875
                ],
                [
                    399.7748718261719,
                    -157.79029846191406,
                    343.01678466796875
                ],
                [
                    399.7748718261719,
                    -157.79029846191406,
                    -343.01678466796875
                ],
                [
                    251.7128448486328,
                    -150.03526306152344,
                    465.68017578125
                ],
                [
                    251.7128448486328,
                    -150.03526306152344,
                    -465.68017578125
                ],
                [
                    294.70196533203125,
                    -297.73199462890625,
                    355.4725341796875
                ],
                [
                    294.70196533203125,
                    -297.73199462890625,
                    -355.4725341796875
                ],
                [
                    128.1466522216797,
                    439.3768005371094,
                    303.845458984375
                ],
                [
                    128.1466522216797,
                    439.3768005371094,
                    -303.845458984375
                ],
                [
                    228.11175537109375,
                    474.46160888671875,
                    157.0721435546875
                ],
                [
                    228.11175537109375,
                    474.46160888671875,
                    -157.0721435546875
                ],
                [
                    190.95558166503906,
                    489.0732116699219,
                    162.45751953125
                ],
                [
                    190.95558166503906,
                    489.0732116699219,
                    -162.45751953125
                ],
                [
                    90.59223175048828,
                    492.7598876953125,
                    223.9041748046875
                ],
                [
                    90.59223175048828,
                    492.7598876953125,
                    -223.9041748046875
                ],
                [
                    85.5345230102539,
                    508.96978759765625,
                    186.00003051757812
                ],
                [
                    85.5345230102539,
                    508.96978759765625,
                    -186.00003051757812
                ],
                [
                    72.07402801513672,
                    539.3001098632812,
                    73.05789184570312
                ],
                [
                    72.07402801513672,
                    539.3001098632812,
                    -73.05789184570312
                ],
                [
                    160.60787963867188,
                    524.5106201171875,
                    23.436599731445312
                ],
                [
                    160.60787963867188,
                    524.5106201171875,
                    -23.436599731445312
                ],
                [
                    41.216033935546875,
                    114.1068115234375,
                    536.655029296875
                ],
                [
                    41.216033935546875,
                    114.1068115234375,
                    -536.655029296875
                ],
                [
                    59.93416213989258,
                    159.97088623046875,
                    522.3509521484375
                ],
                [
                    59.93416213989258,
                    159.97088623046875,
                    -522.3509521484375
                ],
                [
                    287.0014953613281,
                    459.5662841796875,
                    94.95602416992188
                ],
                [
                    287.0014953613281,
                    459.5662841796875,
                    -94.95602416992188
                ],
                [
                    262.8836975097656,
                    478.51568603515625,
                    70.07266235351562
                ],
                [
                    262.8836975097656,
                    478.51568603515625,
                    -70.07266235351562
                ],
                [
                    261.7654724121094,
                    420.3078308105469,
                    238.42926025390625
                ],
                [
                    261.7654724121094,
                    420.3078308105469,
                    -238.42926025390625
                ],
                [
                    171.26983642578125,
                    433.34991455078125,
                    291.8255920410156
                ],
                [
                    171.26983642578125,
                    433.34991455078125,
                    -291.8255920410156
                ],
                [
                    31.337228775024414,
                    545.7064819335938,
                    48.24029541015625
                ],
                [
                    31.337228775024414,
                    545.7064819335938,
                    -48.24029541015625
                ],
                [
                    84.24153137207031,
                    239.02163696289062,
                    488.3297119140625
                ],
                [
                    84.24153137207031,
                    239.02163696289062,
                    -488.3297119140625
                ],
                [
                    93.28962707519531,
                    359.0841979980469,
                    406.44793701171875
                ],
                [
                    93.28962707519531,
                    359.0841979980469,
                    -406.44793701171875
                ],
                [
                    50.09206008911133,
                    346.2879333496094,
                    425.2240295410156
                ],
                [
                    50.09206008911133,
                    346.2879333496094,
                    -425.2240295410156
                ],
                [
                    216.0865020751953,
                    337.8649597167969,
                    375.9638671875
                ],
                [
                    216.0865020751953,
                    337.8649597167969,
                    -375.9638671875
                ],
                [
                    230.6778564453125,
                    362.6368103027344,
                    343.01678466796875
                ],
                [
                    230.6778564453125,
                    362.6368103027344,
                    -343.01678466796875
                ],
                [
                    115.45146179199219,
                    269.33416748046875,
                    465.68017578125
                ],
                [
                    115.45146179199219,
                    269.33416748046875,
                    -465.68017578125
                ],
                [
                    63.416419982910156,
                    414.0917053222656,
                    355.4725341796875
                ],
                [
                    63.416419982910156,
                    414.0917053222656,
                    -355.4725341796875
                ],
                [
                    378.2726745605469,
                    257.64959716796875,
                    303.845458984375
                ],
                [
                    378.2726745605469,
                    257.64959716796875,
                    -303.845458984375
                ],
                [
                    380.7493896484375,
                    363.5638732910156,
                    157.0721435546875
                ],
                [
                    380.7493896484375,
                    363.5638732910156,
                    -157.0721435546875
                ],
                [
                    406.12774658203125,
                    332.7414855957031,
                    162.45751953125
                ],
                [
                    406.12774658203125,
                    332.7414855957031,
                    -162.45751953125
                ],
                [
                    440.6479797363281,
                    238.42950439453125,
                    223.9041748046875
                ],
                [
                    440.6479797363281,
                    238.42950439453125,
                    -223.9041748046875
                ],
                [
                    457.6274108886719,
                    238.62847900390625,
                    186.00003051757812
                ],
                [
                    457.6274108886719,
                    238.62847900390625,
                    -186.00003051757812
                ],
                [
                    490.6327819824219,
                    235.19937133789062,
                    73.05789184570312
                ],
                [
                    490.6327819824219,
                    235.19937133789062,
                    -73.05789184570312
                ],
                [
                    449.2087097167969,
                    314.8298645019531,
                    23.436599731445312
                ],
                [
                    449.2087097167969,
                    314.8298645019531,
                    -23.436599731445312
                ],
                [
                    95.78557586669922,
                    74.45972442626953,
                    536.655029296875
                ],
                [
                    95.78557586669922,
                    74.45972442626953,
                    -536.655029296875
                ],
                [
                    133.6206817626953,
                    106.43450164794922,
                    522.3509521484375
                ],
                [
                    133.6206817626953,
                    106.43450164794922,
                    -522.3509521484375
                ],
                [
                    348.3851623535156,
                    414.96844482421875,
                    94.95602416992188
                ],
                [
                    348.3851623535156,
                    414.96844482421875,
                    -94.95602416992188
                ],
                [
                    373.85992431640625,
                    397.8867492675781,
                    70.07266235351562
                ],
                [
                    373.85992431640625,
                    397.8867492675781,
                    -70.07266235351562
                ],
                [
                    318.8465270996094,
                    378.8360290527344,
                    238.42926025390625
                ],
                [
                    318.8465270996094,
                    378.8360290527344,
                    -238.42926025390625
                ],
                [
                    359.2149658203125,
                    296.7997741699219,
                    291.8255920410156
                ],
                [
                    359.2149658203125,
                    296.7997741699219,
                    -291.8255920410156
                ],
                [
                    509.3139953613281,
                    198.43606567382812,
                    48.24029541015625
                ],
                [
                    509.3139953613281,
                    198.43606567382812,
                    -48.24029541015625
                ],
                [
                    201.291015625,
                    153.98019409179688,
                    488.3297119140625
                ],
                [
                    201.291015625,
                    153.98019409179688,
                    -488.3297119140625
                ],
                [
                    312.6812744140625,
                    199.68682861328125,
                    406.44793701171875
                ],
                [
                    312.6812744140625,
                    199.68682861328125,
                    -406.44793701171875
                ],
                [
                    313.8600769042969,
                    154.64923095703125,
                    425.2240295410156
                ],
                [
                    313.8600769042969,
                    154.64923095703125,
                    -425.2240295410156
                ],
                [
                    254.5542755126953,
                    309.91650390625,
                    375.9638671875
                ],
                [
                    254.5542755126953,
                    309.91650390625,
                    -375.9638671875
                ],
                [
                    273.6047058105469,
                    331.4486083984375,
                    343.01678466796875
                ],
                [
                    273.6047058105469,
                    331.4486083984375,
                    -343.01678466796875
                ],
                [
                    220.47555541992188,
                    193.0297088623047,
                    465.68017578125
                ],
                [
                    220.47555541992188,
                    193.0297088623047,
                    -465.68017578125
                ],
                [
                    374.2278747558594,
                    188.2739715576172,
                    355.4725341796875
                ],
                [
                    374.2278747558594,
                    188.2739715576172,
                    -355.4725341796875
                ],
                [
                    -378.2726745605469,
                    257.64959716796875,
                    303.845458984375
                ],
                [
                    -378.2726745605469,
                    257.64959716796875,
                    -303.845458984375
                ],
                [
                    -380.7493896484375,
                    363.5638732910156,
                    157.0721435546875
                ],
                [
                    -380.7493896484375,
                    363.5638732910156,
                    -157.0721435546875
                ],
                [
                    -406.12774658203125,
                    332.7414855957031,
                    162.45751953125
                ],
                [
                    -406.12774658203125,
                    332.7414855957031,
                    -162.45751953125
                ],
                [
                    -440.6479797363281,
                    238.42950439453125,
                    223.9041748046875
                ],
                [
                    -440.6479797363281,
                    238.42950439453125,
                    -223.9041748046875
                ],
                [
                    -457.6274108886719,
                    238.62847900390625,
                    186.00003051757812
                ],
                [
                    -457.6274108886719,
                    238.62847900390625,
                    -186.00003051757812
                ],
                [
                    -490.6327819824219,
                    235.19937133789062,
                    73.05789184570312
                ],
                [
                    -490.6327819824219,
                    235.19937133789062,
                    -73.05789184570312
                ],
                [
                    -449.2087097167969,
                    314.8298645019531,
                    23.436599731445312
                ],
                [
                    -449.2087097167969,
                    314.8298645019531,
                    -23.436599731445312
                ],
                [
                    -95.78557586669922,
                    74.45972442626953,
                    536.655029296875
                ],
                [
                    -95.78557586669922,
                    74.45972442626953,
                    -536.655029296875
                ],
                [
                    -133.6206817626953,
                    106.43450164794922,
                    522.3509521484375
                ],
                [
                    -133.6206817626953,
                    106.43450164794922,
                    -522.3509521484375
                ],
                [
                    -348.3851623535156,
                    414.96844482421875,
                    94.95602416992188
                ],
                [
                    -348.3851623535156,
                    414.96844482421875,
                    -94.95602416992188
                ],
                [
                    -373.85992431640625,
                    397.8867492675781,
                    70.07266235351562
                ],
                [
                    -373.85992431640625,
                    397.8867492675781,
                    -70.07266235351562
                ],
                [
                    -318.8465270996094,
                    378.8360290527344,
                    238.42926025390625
                ],
                [
                    -318.8465270996094,
                    378.8360290527344,
                    -238.42926025390625
                ],
                [
                    -359.2149658203125,
                    296.7997741699219,
                    291.8255920410156
                ],
                [
                    -359.2149658203125,
                    296.7997741699219,
                    -291.8255920410156
                ],
                [
                    -509.3139953613281,
                    198.43606567382812,
                    48.24029541015625
                ],
                [
                    -509.3139953613281,
                    198.43606567382812,
                    -48.24029541015625
                ],
                [
                    -201.291015625,
                    153.98019409179688,
                    488.3297119140625
                ],
                [
                    -201.291015625,
                    153.98019409179688,
                    -488.3297119140625
                ],
                [
                    -312.6812744140625,
                    199.68682861328125,
                    406.44793701171875
                ],
                [
                    -312.6812744140625,
                    199.68682861328125,
                    -406.44793701171875
                ],
                [
                    -313.8600769042969,
                    154.64923095703125,
                    425.2240295410156
                ],
                [
                    -313.8600769042969,
                    154.64923095703125,
                    -425.2240295410156
                ],
                [
                    -254.5542755126953,
                    309.91650390625,
                    375.9638671875
                ],
                [
                    -254.5542755126953,
                    309.91650390625,
                    -375.9638671875
                ],
                [
                    -273.6047058105469,
                    331.4486083984375,
                    343.01678466796875
                ],
                [
                    -273.6047058105469,
                    331.4486083984375,
                    -343.01678466796875
                ],
                [
                    -220.47555541992188,
                    193.0297088623047,
                    465.68017578125
                ],
                [
                    -220.47555541992188,
                    193.0297088623047,
                    -465.68017578125
                ],
                [
                    -374.2278747558594,
                    188.2739715576172,
                    355.4725341796875
                ],
                [
                    -374.2278747558594,
                    188.2739715576172,
                    -355.4725341796875
                ],
                [
                    -128.1466522216797,
                    439.3768005371094,
                    303.845458984375
                ],
                [
                    -128.1466522216797,
                    439.3768005371094,
                    -303.845458984375
                ],
                [
                    -228.11175537109375,
                    474.46160888671875,
                    157.0721435546875
                ],
                [
                    -228.11175537109375,
                    474.46160888671875,
                    -157.0721435546875
                ],
                [
                    -190.95558166503906,
                    489.0732116699219,
                    162.45751953125
                ],
                [
                    -190.95558166503906,
                    489.0732116699219,
                    -162.45751953125
                ],
                [
                    -90.59223175048828,
                    492.7598876953125,
                    223.9041748046875
                ],
                [
                    -90.59223175048828,
                    492.7598876953125,
                    -223.9041748046875
                ],
                [
                    -85.5345230102539,
                    508.96978759765625,
                    186.00003051757812
                ],
                [
                    -85.5345230102539,
                    508.96978759765625,
                    -186.00003051757812
                ],
                [
                    -72.07402801513672,
                    539.3001098632812,
                    73.05789184570312
                ],
                [
                    -72.07402801513672,
                    539.3001098632812,
                    -73.05789184570312
                ],
                [
                    -160.60787963867188,
                    524.5106201171875,
                    23.436599731445312
                ],
                [
                    -160.60787963867188,
                    524.5106201171875,
                    -23.436599731445312
                ],
                [
                    -41.216033935546875,
                    114.1068115234375,
                    536.655029296875
                ],
                [
                    -41.216033935546875,
                    114.1068115234375,
                    -536.655029296875
                ],
                [
                    -59.93416213989258,
                    159.97088623046875,
                    522.3509521484375
                ],
                [
                    -59.93416213989258,
                    159.97088623046875,
                    -522.3509521484375
                ],
                [
                    -287.0014953613281,
                    459.5662841796875,
                    94.95602416992188
                ],
                [
                    -287.0014953613281,
                    459.5662841796875,
                    -94.95602416992188
                ],
                [
                    -262.8836975097656,
                    478.51568603515625,
                    70.07266235351562
                ],
                [
                    -262.8836975097656,
                    478.51568603515625,
                    -70.07266235351562
                ],
                [
                    -261.7654724121094,
                    420.3078308105469,
                    238.42926025390625
                ],
                [
                    -261.7654724121094,
                    420.3078308105469,
                    -238.42926025390625
                ],
                [
                    -171.26983642578125,
                    433.34991455078125,
                    291.8255920410156
                ],
                [
                    -171.26983642578125,
                    433.34991455078125,
                    -291.8255920410156
                ],
                [
                    -31.337228775024414,
                    545.7064819335938,
                    48.24029541015625
                ],
                [
                    -31.337228775024414,
                    545.7064819335938,
                    -48.24029541015625
                ],
                [
                    -84.24153137207031,
                    239.02163696289062,
                    488.3297119140625
                ],
                [
                    -84.24153137207031,
                    239.02163696289062,
                    -488.3297119140625
                ],
                [
                    -93.28962707519531,
                    359.0841979980469,
                    406.44793701171875
                ],
                [
                    -93.28962707519531,
                    359.0841979980469,
                    -406.44793701171875
                ],
                [
                    -50.09206008911133,
                    346.2879333496094,
                    425.2240295410156
                ],
                [
                    -50.09206008911133,
                    346.2879333496094,
                    -425.2240295410156
                ],
                [
                    -216.0865020751953,
                    337.8649597167969,
                    375.9638671875
                ],
                [
                    -216.0865020751953,
                    337.8649597167969,
                    -375.9638671875
                ],
                [
                    -230.6778564453125,
                    362.6368103027344,
                    343.01678466796875
                ],
                [
                    -230.6778564453125,
                    362.6368103027344,
                    -343.01678466796875
                ],
                [
                    -115.45146179199219,
                    269.33416748046875,
                    465.68017578125
                ],
                [
                    -115.45146179199219,
                    269.33416748046875,
                    -465.68017578125
                ],
                [
                    -63.416419982910156,
                    414.0917053222656,
                    355.4725341796875
                ],
                [
                    -63.416419982910156,
                    414.0917053222656,
                    -355.4725341796875
                ],
                [
                    -361.9320373535156,
                    -280.1405944824219,
                    303.845458984375
                ],
                [
                    -361.9320373535156,
                    -280.1405944824219,
                    -303.845458984375
                ],
                [
                    -463.4278259277344,
                    -249.76678466796875,
                    157.0721435546875
                ],
                [
                    -463.4278259277344,
                    -249.76678466796875,
                    -157.0721435546875
                ],
                [
                    -441.9563293457031,
                    -283.42767333984375,
                    162.45751953125
                ],
                [
                    -441.9563293457031,
                    -283.42767333984375,
                    -162.45751953125
                ],
                [
                    -362.9276428222656,
                    -345.40234375,
                    223.9041748046875
                ],
                [
                    -362.9276428222656,
                    -345.40234375,
                    -223.9041748046875
                ],
                [
                    -368.36383056640625,
                    -361.4892883300781,
                    186.00003051757812
                ],
                [
                    -368.36383056640625,
                    -361.4892883300781,
                    -186.00003051757812
                ],
                [
                    -375.3017578125,
                    -393.93890380859375,
                    73.05789184570312
                ],
                [
                    -375.3017578125,
                    -393.93890380859375,
                    -73.05789184570312
                ],
                [
                    -438.234130859375,
                    -329.9350891113281,
                    23.436599731445312
                ],
                [
                    -438.234130859375,
                    -329.9350891113281,
                    -23.436599731445312
                ],
                [
                    -100.4147720336914,
                    -68.08817291259766,
                    536.655029296875
                ],
                [
                    -100.4147720336914,
                    -68.08817291259766,
                    -536.655029296875
                ],
                [
                    -142.5162811279297,
                    -94.19075012207031,
                    522.3509521484375
                ],
                [
                    -142.5162811279297,
                    -94.19075012207031,
                    -522.3509521484375
                ],
                [
                    -502.31536865234375,
                    -203.1016845703125,
                    94.95602416992188
                ],
                [
                    -502.31536865234375,
                    -203.1016845703125,
                    -94.95602416992188
                ],
                [
                    -493.94183349609375,
                    -232.608154296875,
                    70.07266235351562
                ],
                [
                    -493.94183349609375,
                    -232.608154296875,
                    -70.07266235351562
                ],
                [
                    -458.8234558105469,
                    -186.17430114746094,
                    238.42926025390625
                ],
                [
                    -458.8234558105469,
                    -186.17430114746094,
                    -238.42926025390625
                ],
                [
                    -393.2768859863281,
                    -249.9175567626953,
                    291.8255920410156
                ],
                [
                    -393.2768859863281,
                    -249.9175567626953,
                    -291.8255920410156
                ],
                [
                    -346.110595703125,
                    -423.0662841796875,
                    48.24029541015625
                ],
                [
                    -346.110595703125,
                    -423.0662841796875,
                    -48.24029541015625
                ],
                [
                    -208.64620971679688,
                    -143.85662841796875,
                    488.3297119140625
                ],
                [
                    -208.64620971679688,
                    -143.85662841796875,
                    -488.3297119140625
                ],
                [
                    -286.53729248046875,
                    -235.6709442138672,
                    406.44793701171875
                ],
                [
                    -286.53729248046875,
                    -235.6709442138672,
                    -406.44793701171875
                ],
                [
                    -244.06826782226562,
                    -250.70944213867188,
                    425.2240295410156
                ],
                [
                    -244.06826782226562,
                    -250.70944213867188,
                    -425.2240295410156
                ],
                [
                    -373.4096984863281,
                    -146.32603454589844,
                    375.9638671875
                ],
                [
                    -373.4096984863281,
                    -146.32603454589844,
                    -375.9638671875
                ],
                [
                    -399.7748718261719,
                    -157.79029846191406,
                    343.01678466796875
                ],
                [
                    -399.7748718261719,
                    -157.79029846191406,
                    -343.01678466796875
                ],
                [
                    -251.7128448486328,
                    -150.03526306152344,
                    465.68017578125
                ],
                [
                    -251.7128448486328,
                    -150.03526306152344,
                    -465.68017578125
                ],
                [
                    -294.70196533203125,
                    -297.73199462890625,
                    355.4725341796875
                ],
                [
                    -294.70196533203125,
                    -297.73199462890625,
                    -355.4725341796875
                ],
                [
                    -457.4716491699219,
                    13.900185585021973,
                    303.845458984375
                ],
                [
                    -457.4716491699219,
                    13.900185585021973,
                    -303.845458984375
                ],
                [
                    -521.730224609375,
                    -70.3304672241211,
                    157.0721435546875
                ],
                [
                    -521.730224609375,
                    -70.3304672241211,
                    -157.0721435546875
                ],
                [
                    -524.144775390625,
                    -30.477611541748047,
                    162.45751953125
                ],
                [
                    -524.144775390625,
                    -30.477611541748047,
                    -162.45751953125
                ],
                [
                    -496.6370544433594,
                    66.11285400390625,
                    223.9041748046875
                ],
                [
                    -496.6370544433594,
                    66.11285400390625,
                    -223.9041748046875
                ],
                [
                    -510.49066162109375,
                    75.93214416503906,
                    186.00003051757812
                ],
                [
                    -510.49066162109375,
                    75.93214416503906,
                    -186.00003051757812
                ],
                [
                    -535.1769409179688,
                    98.1064224243164,
                    73.05789184570312
                ],
                [
                    -535.1769409179688,
                    98.1064224243164,
                    -73.05789184570312
                ],
                [
                    -548.4698486328125,
                    9.335528373718262,
                    23.436599731445312
                ],
                [
                    -548.4698486328125,
                    9.335528373718262,
                    -23.436599731445312
                ],
                [
                    -121.25848388671875,
                    -3.937833070755005,
                    536.655029296875
                ],
                [
                    -121.25848388671875,
                    -3.937833070755005,
                    -536.655029296875
                ],
                [
                    -170.6620330810547,
                    -7.56705379486084,
                    522.3509521484375
                ],
                [
                    -170.6620330810547,
                    -7.56705379486084,
                    -522.3509521484375
                ],
                [
                    -525.7618408203125,
                    -130.94085693359375,
                    94.95602416992188
                ],
                [
                    -525.7618408203125,
                    -130.94085693359375,
                    -94.95602416992188
                ],
                [
                    -536.3309936523438,
                    -102.14777374267578,
                    70.07266235351562
                ],
                [
                    -536.3309936523438,
                    -102.14777374267578,
                    -70.07266235351562
                ],
                [
                    -480.6264953613281,
                    -119.07149505615234,
                    238.42926025390625
                ],
                [
                    -480.6264953613281,
                    -119.07149505615234,
                    -238.42926025390625
                ],
                [
                    -465.0655517578125,
                    -28.97480583190918,
                    291.8255920410156
                ],
                [
                    -465.0655517578125,
                    -28.97480583190918,
                    -291.8255920410156
                ],
                [
                    -528.6814575195312,
                    138.8291015625,
                    48.24029541015625
                ],
                [
                    -528.6814575195312,
                    138.8291015625,
                    -48.24029541015625
                ],
                [
                    -253.3551483154297,
                    -6.256709098815918,
                    488.3297119140625
                ],
                [
                    -253.3551483154297,
                    -6.256709098815918,
                    -488.3297119140625
                ],
                [
                    -370.3374328613281,
                    22.239404678344727,
                    406.44793701171875
                ],
                [
                    -370.3374328613281,
                    22.239404678344727,
                    -406.44793701171875
                ],
                [
                    -344.8186950683594,
                    59.368473052978516,
                    425.2240295410156
                ],
                [
                    -344.8186950683594,
                    59.368473052978516,
                    -425.2240295410156
                ],
                [
                    -388.1030578613281,
                    -101.10446166992188,
                    375.9638671875
                ],
                [
                    -388.1030578613281,
                    -101.10446166992188,
                    -375.9638671875
                ],
                [
                    -416.1714782714844,
                    -107.32674407958984,
                    343.01678466796875
                ],
                [
                    -416.1714782714844,
                    -107.32674407958984,
                    -343.01678466796875
                ],
                [
                    -291.8284912109375,
                    -26.5720272064209,
                    465.68017578125
                ],
                [
                    -291.8284912109375,
                    -26.5720272064209,
                    -465.68017578125
                ],
                [
                    -413.42138671875,
                    67.6487808227539,
                    355.4725341796875
                ],
                [
                    -413.42138671875,
                    67.6487808227539,
                    -355.4725341796875
                ]
            ],
            "landing_zones": {
                "rules": [
                    {
                        "max": 10,
                        "min": 10
                    },
                    {
                        "max": 10,
                        "min": 10
                    },
                    {
                        "max": 10,
                        "min": 10
                    },
                    {
                        "max": 10,
                        "min": 10
                    },
                    {
                        "max": 10,
                        "min": 10
                    },
                    {
                        "max": 10,
                        "min": 10
                    },
                    {
                        "max": 10,
                        "min": 10
                    },
                    {
                        "max": 10,
                        "min": 10
                    },
                    {
                        "max": 10,
                        "min": 10
                    },
                    {
                        "max": 10,
                        "min": 10
                    }
                ],
                "list": [
                    [
                        -1.5758514404296875,
                        -415.0677490234375,
                        -360.5390625
                    ],
                    [
                        399.65399169921875,
                        -121.90655517578125,
                        -358.2584228515625
                    ],
                    [
                        243.43316650390625,
                        336.07769775390625,
                        -365.8525390625
                    ],
                    [
                        -245.0908203125,
                        334.0704345703125,
                        -358.6435546875
                    ],
                    [
                        -398.4970703125,
                        -127.47247314453125,
                        -358.90625
                    ],
                    [
                        -0.8788909912109375,
                        -416.76318359375,
                        358.6571044921875
                    ],
                    [
                        396.5853271484375,
                        -126.42205810546875,
                        360.014892578125
                    ],
                    [
                        244.9521484375,
                        337.86737060546875,
                        363.2945556640625
                    ],
                    [
                        -249.56207275390625,
                        332.426513671875,
                        357.1826171875
                    ],
                    [
                        -396.9462890625,
                        -127.99456787109375,
                        360.5479736328125
                    ]
                ]
            }
        }
    ]
}