{
    "name": "Lune 3v3 NS",
    "description":"3v3 unshared map.  Symmetrical metal like TheClassyBarren but with more metal and less clusters like Wadiya.",
    "version":"1.0",
    "creator":"Grand Homie",
    "players":[6, 6],
    "planets": [
        {
            "name": "Lune",
            "mass": 5000,
            "position_x": 3000,
            "position_y": -21100,
            "velocity_x": 151.64390563964844,
            "velocity_y": 21.560752868652344,
            "required_thrust_to_move": 3,
            "starting_planet": true,
            "respawn": false,
            "start_destroyed": false,
            "min_spawn_delay": 0,
            "max_spawn_delay": 0,
            "planet": {
                "seed": 1010989120,
                "radius": 500,
                "heightRange": 0,
                "waterHeight": 0,
                "waterDepth": 100,
                "temperature": 0,
                "metalDensity": 98,
                "metalClusters": 0,
                "metalSpotLimit": -1,
                "biomeScale": 50,
                "biome": "moon",
                "symmetryType": "terrain and CSG",
                "symmetricalMetal": true,
                "symmetricalStarts": false,
                "numArmies": 2,
                "landingZonesPerArmy": 0,
                "landingZoneSize": 149
            },
            "planetCSG": [
                {
                    "mergeable": false,
                    "no_features": false,
                    "flooded": false,
                    "pathable": false,
                    "twinId": 0,
                    "weight": [
                        0,
                        0,
                        0,
                        0
                    ],
                    "weightHard": false,
                    "scale": [
                        1,
                        1,
                        1
                    ],
                    "weightScale": [
                        1,
                        1,
                        1
                    ],
                    "height": 498.8695983886719,
                    "position": [
                        -6.8470916748046875,
                        20.305023193359375,
                        498.4091796875
                    ],
                    "proj": "BP_Bend",
                    "mirrored": false,
                    "transform": [
                        0.9999057650566101,
                        0.0002794512256514281,
                        -0.013725212775170803,
                        -6.847091197967529,
                        0.0002794512256514281,
                        0.9991713166236877,
                        0.04070206731557846,
                        20.305023193359375,
                        0.013725212775170803,
                        -0.04070206731557846,
                        0.9990770816802979,
                        498.4091796875
                    ],
                    "op": "BO_Add",
                    "rotation": 0,
                    "spec": "/pa/terrain/moon/brushes/moon_ruin_01.json"
                },
                {
                    "mergeable": false,
                    "no_features": false,
                    "flooded": false,
                    "pathable": false,
                    "twinId": 0,
                    "weight": [
                        0,
                        0,
                        0,
                        0
                    ],
                    "weightHard": false,
                    "scale": [
                        1,
                        1,
                        1
                    ],
                    "weightScale": [
                        1,
                        1,
                        1
                    ],
                    "height": 498.8695983886719,
                    "position": [
                        -6.8470916748046875,
                        20.305023193359375,
                        498.4091796875
                    ],
                    "proj": "BP_Bend",
                    "mirrored": true,
                    "transform": [
                        0.9999057650566101,
                        0.0002794512256514281,
                        -0.013725212775170803,
                        -6.847091197967529,
                        0.0002794512256514281,
                        0.9991713166236877,
                        0.04070206731557846,
                        20.305023193359375,
                        -0.013725212775170803,
                        0.04070206731557846,
                        -0.9990770816802979,
                        -498.4091796875
                    ],
                    "op": "BO_Add",
                    "rotation": 0,
                    "spec": "/pa/terrain/moon/brushes/moon_ruin_01.json"
                }
            ],
            "metal_spots": [
                [
                    -240.74871826171875,
                    431.4195861816406,
                    76.80997467041016
                ],
                [
                    -240.74871826171875,
                    431.4195861816406,
                    -76.80997467041016
                ],
                [
                    -171.8180389404297,
                    448.75244140625,
                    130.85293579101562
                ],
                [
                    -171.8180389404297,
                    448.75244140625,
                    -130.85293579101562
                ],
                [
                    -55.58237075805664,
                    455.02325439453125,
                    193.982421875
                ],
                [
                    -55.58237075805664,
                    455.02325439453125,
                    -193.982421875
                ],
                [
                    -42.81062698364258,
                    410.6374816894531,
                    275.9214782714844
                ],
                [
                    -42.81062698364258,
                    410.6374816894531,
                    -275.9214782714844
                ],
                [
                    141.7997283935547,
                    421.68212890625,
                    217.03713989257812
                ],
                [
                    141.7997283935547,
                    421.68212890625,
                    -217.03713989257812
                ],
                [
                    204.41213989257812,
                    416.6728820800781,
                    172.34449768066406
                ],
                [
                    204.41213989257812,
                    416.6728820800781,
                    -172.34449768066406
                ],
                [
                    -190.888916015625,
                    392.94146728515625,
                    236.921875
                ],
                [
                    -190.888916015625,
                    392.94146728515625,
                    -236.921875
                ],
                [
                    -328.7897644042969,
                    357.9444885253906,
                    116.30077362060547
                ],
                [
                    -328.7897644042969,
                    357.9444885253906,
                    -116.30077362060547
                ],
                [
                    -148.59022521972656,
                    351.6888732910156,
                    316.30419921875
                ],
                [
                    -148.59022521972656,
                    351.6888732910156,
                    -316.30419921875
                ],
                [
                    -58.52430725097656,
                    352.2552490234375,
                    343.3649597167969
                ],
                [
                    -58.52430725097656,
                    352.2552490234375,
                    -343.3649597167969
                ],
                [
                    118.31185913085938,
                    377.10595703125,
                    296.4587097167969
                ],
                [
                    118.31185913085938,
                    377.10595703125,
                    -296.4587097167969
                ],
                [
                    341.3828125,
                    358.0589294433594,
                    49.313812255859375
                ],
                [
                    341.3828125,
                    358.0589294433594,
                    -49.313812255859375
                ],
                [
                    -328.58245849609375,
                    294.1667175292969,
                    232.59254455566406
                ],
                [
                    -328.58245849609375,
                    294.1667175292969,
                    -232.59254455566406
                ],
                [
                    275.0223693847656,
                    312.423095703125,
                    264.6479797363281
                ],
                [
                    275.0223693847656,
                    312.423095703125,
                    -264.6479797363281
                ],
                [
                    -325.04595947265625,
                    212.22509765625,
                    311.2989807128906
                ],
                [
                    -325.04595947265625,
                    212.22509765625,
                    -311.2989807128906
                ],
                [
                    -443.54046630859375,
                    215.753662109375,
                    80.74829864501953
                ],
                [
                    -443.54046630859375,
                    215.753662109375,
                    -80.74829864501953
                ],
                [
                    373.6021728515625,
                    284.5726623535156,
                    159.95362854003906
                ],
                [
                    373.6021728515625,
                    284.5726623535156,
                    -159.95362854003906
                ],
                [
                    226.97210693359375,
                    249.802978515625,
                    360.6929626464844
                ],
                [
                    226.97210693359375,
                    249.802978515625,
                    -360.6929626464844
                ],
                [
                    -390.65350341796875,
                    169.53021240234375,
                    260.277587890625
                ],
                [
                    -390.65350341796875,
                    169.53021240234375,
                    -260.277587890625
                ],
                [
                    413.16015625,
                    266.98272705078125,
                    74.5662841796875
                ],
                [
                    413.16015625,
                    266.98272705078125,
                    -74.5662841796875
                ],
                [
                    359.81622314453125,
                    191.5372772216797,
                    281.748291015625
                ],
                [
                    359.81622314453125,
                    191.5372772216797,
                    -281.748291015625
                ],
                [
                    307.22406005859375,
                    267.48590087890625,
                    279.8944091796875
                ],
                [
                    307.22406005859375,
                    267.48590087890625,
                    -279.8944091796875
                ],
                [
                    -265.4106140136719,
                    144.93923950195312,
                    394.9579772949219
                ],
                [
                    -265.4106140136719,
                    144.93923950195312,
                    -394.9579772949219
                ],
                [
                    109.61026763916016,
                    223.8415069580078,
                    428.8521423339844
                ],
                [
                    109.61026763916016,
                    223.8415069580078,
                    -428.8521423339844
                ],
                [
                    -443.5489501953125,
                    134.44871520996094,
                    189.14317321777344
                ],
                [
                    -443.5489501953125,
                    134.44871520996094,
                    -189.14317321777344
                ],
                [
                    421.9018249511719,
                    190.1102294921875,
                    178.75820922851562
                ],
                [
                    421.9018249511719,
                    190.1102294921875,
                    -178.75820922851562
                ],
                [
                    -76.00244903564453,
                    170.6207275390625,
                    460.330078125
                ],
                [
                    -76.00244903564453,
                    170.6207275390625,
                    -460.330078125
                ],
                [
                    -108.6255111694336,
                    197.90057373046875,
                    441.3504333496094
                ],
                [
                    -108.6255111694336,
                    197.90057373046875,
                    -441.3504333496094
                ],
                [
                    172.1018829345703,
                    143.3449249267578,
                    443.45855712890625
                ],
                [
                    172.1018829345703,
                    143.3449249267578,
                    -443.45855712890625
                ],
                [
                    486.01220703125,
                    107.85350036621094,
                    38.89689254760742
                ],
                [
                    486.01220703125,
                    107.85350036621094,
                    -38.89689254760742
                ],
                [
                    464.0458679199219,
                    160.3220672607422,
                    86.93975067138672
                ],
                [
                    464.0458679199219,
                    160.3220672607422,
                    -86.93975067138672
                ],
                [
                    -497.6948547363281,
                    34.41855239868164,
                    46.795448303222656
                ],
                [
                    -497.6948547363281,
                    34.41855239868164,
                    -46.795448303222656
                ],
                [
                    -161.3472137451172,
                    43.04345703125,
                    471.6576843261719
                ],
                [
                    -161.3472137451172,
                    43.04345703125,
                    -471.6576843261719
                ],
                [
                    -138.7205047607422,
                    -9.043445587158203,
                    481.2536926269531
                ],
                [
                    -138.7205047607422,
                    -9.043445587158203,
                    -481.2536926269531
                ],
                [
                    -369.7979736328125,
                    -16.43626594543457,
                    335.5509033203125
                ],
                [
                    -369.7979736328125,
                    -16.43626594543457,
                    -335.5509033203125
                ],
                [
                    -386.986083984375,
                    32.450077056884766,
                    314.19549560546875
                ],
                [
                    -386.986083984375,
                    32.450077056884766,
                    -314.19549560546875
                ],
                [
                    -491.30902099609375,
                    -66.38272094726562,
                    72.44093322753906
                ],
                [
                    -491.30902099609375,
                    -66.38272094726562,
                    -72.44093322753906
                ],
                [
                    -478.6448059082031,
                    -114.01825714111328,
                    93.52562713623047
                ],
                [
                    -478.6448059082031,
                    -114.01825714111328,
                    -93.52562713623047
                ],
                [
                    204.87472534179688,
                    -19.03451156616211,
                    452.237548828125
                ],
                [
                    204.87472534179688,
                    -19.03451156616211,
                    -452.237548828125
                ],
                [
                    -52.410579681396484,
                    -66.3929443359375,
                    493.7629089355469
                ],
                [
                    -52.410579681396484,
                    -66.3929443359375,
                    -493.7629089355469
                ],
                [
                    -290.9058837890625,
                    -143.5438995361328,
                    379.9407958984375
                ],
                [
                    -290.9058837890625,
                    -143.5438995361328,
                    -379.9407958984375
                ],
                [
                    -338.284912109375,
                    -82.51117706298828,
                    358.22747802734375
                ],
                [
                    -338.284912109375,
                    -82.51117706298828,
                    -358.22747802734375
                ],
                [
                    -455.1102294921875,
                    -125.58334350585938,
                    163.61228942871094
                ],
                [
                    -455.1102294921875,
                    -125.58334350585938,
                    -163.61228942871094
                ],
                [
                    445.64263916015625,
                    -42.36017608642578,
                    221.40127563476562
                ],
                [
                    445.64263916015625,
                    -42.36017608642578,
                    -221.40127563476562
                ],
                [
                    273.94293212890625,
                    -65.09109497070312,
                    409.19561767578125
                ],
                [
                    273.94293212890625,
                    -65.09109497070312,
                    -409.19561767578125
                ],
                [
                    -396.92181396484375,
                    -178.28369140625,
                    243.78260803222656
                ],
                [
                    -396.92181396484375,
                    -178.28369140625,
                    -243.78260803222656
                ],
                [
                    -339.6258544921875,
                    -208.2185516357422,
                    298.8016662597656
                ],
                [
                    -339.6258544921875,
                    -208.2185516357422,
                    -298.8016662597656
                ],
                [
                    -6.587734699249268,
                    -164.22201538085938,
                    472.85284423828125
                ],
                [
                    -6.587734699249268,
                    -164.22201538085938,
                    -472.85284423828125
                ],
                [
                    367.4737854003906,
                    -76.37872314453125,
                    326.7809753417969
                ],
                [
                    367.4737854003906,
                    -76.37872314453125,
                    -326.7809753417969
                ],
                [
                    469.83697509765625,
                    -128.81092834472656,
                    117.84717559814453
                ],
                [
                    469.83697509765625,
                    -128.81092834472656,
                    -117.84717559814453
                ],
                [
                    305.7525329589844,
                    -180.1404266357422,
                    349.0041809082031
                ],
                [
                    305.7525329589844,
                    -180.1404266357422,
                    -349.0041809082031
                ],
                [
                    108.39972686767578,
                    -191.4451904296875,
                    447.9836730957031
                ],
                [
                    108.39972686767578,
                    -191.4451904296875,
                    -447.9836730957031
                ],
                [
                    -163.33546447753906,
                    -221.56851196289062,
                    415.8404846191406
                ],
                [
                    -163.33546447753906,
                    -221.56851196289062,
                    -415.8404846191406
                ],
                [
                    -192.15199279785156,
                    -235.79446411132812,
                    394.89312744140625
                ],
                [
                    -192.15199279785156,
                    -235.79446411132812,
                    -394.89312744140625
                ],
                [
                    434.809814453125,
                    -238.1978759765625,
                    73.1021728515625
                ],
                [
                    434.809814453125,
                    -238.1978759765625,
                    -73.1021728515625
                ],
                [
                    32.55137252807617,
                    -313.2428894042969,
                    387.487548828125
                ],
                [
                    32.55137252807617,
                    -313.2428894042969,
                    -387.487548828125
                ],
                [
                    344.0121154785156,
                    -229.6489715576172,
                    279.905029296875
                ],
                [
                    344.0121154785156,
                    -229.6489715576172,
                    -279.905029296875
                ],
                [
                    295.2759704589844,
                    -254.74478149414062,
                    310.26934814453125
                ],
                [
                    295.2759704589844,
                    -254.74478149414062,
                    -310.26934814453125
                ],
                [
                    -265.3495788574219,
                    -260.7177429199219,
                    330.11328125
                ],
                [
                    -265.3495788574219,
                    -260.7177429199219,
                    -330.11328125
                ],
                [
                    386.76104736328125,
                    -313.50469970703125,
                    59.33689498901367
                ],
                [
                    386.76104736328125,
                    -313.50469970703125,
                    -59.33689498901367
                ],
                [
                    -320.3692626953125,
                    -382.0350646972656,
                    -11.50829792022705
                ],
                [
                    -344.5642395019531,
                    -352.2344055175781,
                    79.15982055664062
                ],
                [
                    -344.5642395019531,
                    -352.2344055175781,
                    -79.15982055664062
                ],
                [
                    334.5343933105469,
                    -344.39410400390625,
                    144.962158203125
                ],
                [
                    334.5343933105469,
                    -344.39410400390625,
                    -144.962158203125
                ],
                [
                    183.20948791503906,
                    -341.6843566894531,
                    314.86724853515625
                ],
                [
                    183.20948791503906,
                    -341.6843566894531,
                    -314.86724853515625
                ],
                [
                    189.76060485839844,
                    -377.8647766113281,
                    268.00445556640625
                ],
                [
                    189.76060485839844,
                    -377.8647766113281,
                    -268.00445556640625
                ],
                [
                    -144.82196044921875,
                    -443.7064514160156,
                    175.05886840820312
                ],
                [
                    -144.82196044921875,
                    -443.7064514160156,
                    -175.05886840820312
                ],
                [
                    -164.18206787109375,
                    -463.0328063964844,
                    84.96974182128906
                ],
                [
                    -164.18206787109375,
                    -463.0328063964844,
                    -84.96974182128906
                ],
                [
                    -13.721529006958008,
                    -462.5642395019531,
                    186.01780700683594
                ],
                [
                    -13.721529006958008,
                    -462.5642395019531,
                    -186.01780700683594
                ],
                [
                    81.54121398925781,
                    -485.54034423828125,
                    67.70457458496094
                ],
                [
                    81.54121398925781,
                    -485.54034423828125,
                    -67.70457458496094
                ],
                [
                    -328.4725341796875,
                    -273.805419921875,
                    256.1061706542969
                ],
                [
                    -328.4725341796875,
                    -273.805419921875,
                    -256.1061706542969
                ],
                [
                    -283.59478759765625,
                    -315.002685546875,
                    261.6964416503906
                ],
                [
                    -283.59478759765625,
                    -315.002685546875,
                    -261.6964416503906
                ],
                [
                    -390.03369140625,
                    -275.29931640625,
                    144.57952880859375
                ],
                [
                    -390.03369140625,
                    -275.29931640625,
                    -144.57952880859375
                ],
                [
                    -14.2659912109375,
                    -488.1575927734375,
                    98.2755126953125
                ],
                [
                    -14.2659912109375,
                    -488.1575927734375,
                    -98.2755126953125
                ],
                [
                    55.2498779296875,
                    -424.556884765625,
                    257.4979553222656
                ],
                [
                    55.2498779296875,
                    -424.556884765625,
                    -257.4979553222656
                ],
                [
                    160.34307861328125,
                    -263.486083984375,
                    391.4842529296875
                ],
                [
                    160.34307861328125,
                    -263.486083984375,
                    -391.4842529296875
                ],
                [
                    196.88433837890625,
                    -186.1148681640625,
                    417.55694580078125
                ],
                [
                    196.88433837890625,
                    -186.1148681640625,
                    -417.55694580078125
                ],
                [
                    104.54864501953125,
                    -59.82177734375,
                    483.599853515625
                ],
                [
                    104.54864501953125,
                    -59.82177734375,
                    -483.599853515625
                ],
                [
                    -234.700439453125,
                    -75.19769287109375,
                    435.79736328125
                ],
                [
                    -234.700439453125,
                    -75.19769287109375,
                    -435.79736328125
                ],
                [
                    -262.1636962890625,
                    49.426513671875,
                    423.017333984375
                ],
                [
                    -262.1636962890625,
                    49.426513671875,
                    -423.017333984375
                ],
                [
                    -438.74127197265625,
                    24.3502197265625,
                    238.2901611328125
                ],
                [
                    -438.74127197265625,
                    24.3502197265625,
                    -238.2901611328125
                ],
                [
                    478.0928955078125,
                    -8.8858642578125,
                    143.27035522460938
                ],
                [
                    478.0928955078125,
                    -8.8858642578125,
                    -143.27035522460938
                ],
                [
                    407.076416015625,
                    -123.61920166015625,
                    262.946044921875
                ],
                [
                    407.076416015625,
                    -123.61920166015625,
                    -262.946044921875
                ],
                [
                    236.4775390625,
                    -396.6195068359375,
                    195.99404907226562
                ],
                [
                    236.4775390625,
                    -396.6195068359375,
                    -195.99404907226562
                ],
                [
                    143.4805908203125,
                    -464.161865234375,
                    114.81480407714844
                ],
                [
                    143.4805908203125,
                    -464.161865234375,
                    -114.81480407714844
                ],
                [
                    238.912353515625,
                    -433.803955078125,
                    72.8048095703125
                ],
                [
                    238.912353515625,
                    -433.803955078125,
                    -72.8048095703125
                ],
                [
                    -444.6617431640625,
                    -217.5087890625,
                    73.52201843261719
                ],
                [
                    -444.6617431640625,
                    -217.5087890625,
                    -73.52201843261719
                ],
                [
                    19.7244873046875,
                    487.3668212890625,
                    98.87995147705078
                ],
                [
                    19.7244873046875,
                    487.3668212890625,
                    -98.87995147705078
                ],
                [
                    144.14007568359375,
                    472.335693359375,
                    62.934814453125
                ],
                [
                    144.14007568359375,
                    472.335693359375,
                    -62.934814453125
                ],
                [
                    -103.79638671875,
                    485.4947509765625,
                    50.403900146484375
                ],
                [
                    -103.79638671875,
                    485.4947509765625,
                    -50.403900146484375
                ],
                [
                    44.83184814453125,
                    423.82275390625,
                    252.87452697753906
                ],
                [
                    44.83184814453125,
                    423.82275390625,
                    -252.87452697753906
                ],
                [
                    381.964111328125,
                    -247.2591094970703,
                    209.15023803710938
                ],
                [
                    381.964111328125,
                    -247.2591094970703,
                    -209.15023803710938
                ],
                [
                    -141.5333251953125,
                    -323.280517578125,
                    352.598388671875
                ],
                [
                    -141.5333251953125,
                    -323.280517578125,
                    -352.598388671875
                ],
                [
                    -81.28450012207031,
                    -335.3597412109375,
                    360.56689453125
                ],
                [
                    -81.28450012207031,
                    -335.3597412109375,
                    -360.56689453125
                ],
                [
                    -88.52677917480469,
                    -364.8841552734375,
                    328.569580078125
                ],
                [
                    -88.52677917480469,
                    -364.8841552734375,
                    -328.569580078125
                ],
                [
                    -147.34365844726562,
                    -355.5208740234375,
                    316.865234375
                ],
                [
                    -147.34365844726562,
                    -355.5208740234375,
                    -316.865234375
                ],
                [
                    345.34375,
                    29.65606689453125,
                    356.3966064453125
                ],
                [
                    345.34375,
                    29.65606689453125,
                    -356.3966064453125
                ],
                [
                    339.05517578125,
                    84.48867797851562,
                    353.214111328125
                ],
                [
                    339.05517578125,
                    84.48867797851562,
                    -353.214111328125
                ],
                [
                    372.3087158203125,
                    84.2701416015625,
                    318.805419921875
                ],
                [
                    372.3087158203125,
                    84.2701416015625,
                    -318.805419921875
                ],
                [
                    379.8092041015625,
                    26.61773681640625,
                    320.482421875
                ],
                [
                    379.8092041015625,
                    26.61773681640625,
                    -320.482421875
                ],
                [
                    -213.02313232421875,
                    237.26904296875,
                    380.317626953125
                ],
                [
                    -213.02313232421875,
                    237.26904296875,
                    -380.317626953125
                ],
                [
                    -185.92303466796875,
                    274.892822265625,
                    368.5084228515625
                ],
                [
                    -185.92303466796875,
                    274.892822265625,
                    -368.5084228515625
                ],
                [
                    -250.43353271484375,
                    250.8265380859375,
                    347.950439453125
                ],
                [
                    -250.43353271484375,
                    250.8265380859375,
                    -347.950439453125
                ],
                [
                    -219.3602294921875,
                    293.3623046875,
                    334.8525390625
                ],
                [
                    -219.3602294921875,
                    293.3623046875,
                    -334.8525390625
                ],
                [
                    25.237518310546875,
                    253.2296142578125,
                    425.2491455078125
                ],
                [
                    25.237518310546875,
                    253.2296142578125,
                    -425.2491455078125
                ],
                [
                    57.17327880859375,
                    135.2911376953125,
                    475.191650390625
                ],
                [
                    57.17327880859375,
                    135.2911376953125,
                    -475.191650390625
                ],
                [
                    190.8468017578125,
                    359.484619140625,
                    278.5924072265625
                ],
                [
                    190.8468017578125,
                    359.484619140625,
                    -278.5924072265625
                ],
                [
                    -476.763427734375,
                    65.19573974609375,
                    136.93695068359375
                ],
                [
                    -476.763427734375,
                    65.19573974609375,
                    -136.93695068359375
                ],
                [
                    -298.57220458984375,
                    -366.8955078125,
                    158.8429412841797
                ],
                [
                    -298.57220458984375,
                    -366.8955078125,
                    -158.8429412841797
                ],
                [
                    -231.71466064453125,
                    -416.552978515625,
                    146.42771911621094
                ],
                [
                    -231.71466064453125,
                    -416.552978515625,
                    -146.42771911621094
                ],
                [
                    432.224609375,
                    94.44366455078125,
                    227.39340209960938
                ],
                [
                    432.224609375,
                    94.44366455078125,
                    -227.39340209960938
                ],
                [
                    132.1219482421875,
                    315.24365234375,
                    356.4091796875
                ],
                [
                    132.1219482421875,
                    315.24365234375,
                    -356.4091796875
                ],
                [
                    276.40869140625,
                    386.2156982421875,
                    140.0018310546875
                ],
                [
                    276.40869140625,
                    386.2156982421875,
                    -140.0018310546875
                ],
                [
                    256.987548828125,
                    79.27313232421875,
                    417.36065673828125
                ],
                [
                    256.987548828125,
                    79.27313232421875,
                    -417.36065673828125
                ],
                [
                    10.33526611328125,
                    -402.7640380859375,
                    296.2568359375
                ],
                [
                    10.33526611328125,
                    -402.7640380859375,
                    -296.2568359375
                ],
                [
                    -225.66558837890625,
                    -372.9117431640625,
                    240.51904296875
                ],
                [
                    -225.66558837890625,
                    -372.9117431640625,
                    -240.51904296875
                ],
                [
                    -54.651641845703125,
                    -233.4752197265625,
                    438.719970703125
                ],
                [
                    -54.651641845703125,
                    -233.4752197265625,
                    -438.719970703125
                ],
                [
                    -405.8892822265625,
                    235.95751953125,
                    172.23220825195312
                ],
                [
                    -405.8892822265625,
                    235.95751953125,
                    -172.23220825195312
                ],
                [
                    -256.6689453125,
                    384.6925048828125,
                    185.07749938964844
                ],
                [
                    -256.6689453125,
                    384.6925048828125,
                    -185.07749938964844
                ],
                [
                    -398.310546875,
                    293.202880859375,
                    70.20631408691406
                ],
                [
                    -398.310546875,
                    293.202880859375,
                    -70.20631408691406
                ],
                [
                    -81.12655639648438,
                    -475.063720703125,
                    124.13967895507812
                ],
                [
                    -81.12655639648438,
                    -475.063720703125,
                    -124.13967895507812
                ],
                [
                    294.10797119140625,
                    -326.4215087890625,
                    239.75099182128906
                ],
                [
                    294.10797119140625,
                    -326.4215087890625,
                    -239.75099182128906
                ],
                [
                    493.4190673828125,
                    -47.886566162109375,
                    68.61866760253906
                ],
                [
                    493.4190673828125,
                    -47.886566162109375,
                    -68.61866760253906
                ],
                [
                    184.1654815673828,
                    63.203330993652344,
                    -457.79638671875
                ],
                [
                    184.1654815673828,
                    63.203330993652344,
                    457.79638671875
                ]
            ],
            "landing_zones": {
                "rules": [
                    {
                        "max": 10,
                        "min": 0
                    },
                    {
                        "max": 10,
                        "min": 0
                    },
                    {
                        "max": 10,
                        "min": 0
                    },
                    {
                        "max": 10,
                        "min": 0
                    },
                    {
                        "max": 10,
                        "min": 0
                    },
                    {
                        "max": 10,
                        "min": 0
                    }
                ],
                "list": [
                    [
                        357.3638916015625,
                        65.51153564453125,
                        325.52435302734375
                    ],
                    [
                        -237.8270263671875,
                        272.259765625,
                        327.729736328125
                    ],
                    [
                        -116.830810546875,
                        -346.9437255859375,
                        322.7293701171875
                    ],
                    [
                        355.637939453125,
                        64.23931884765625,
                        -327.7581787109375
                    ],
                    [
                        -238.52264404296875,
                        272.80328369140625,
                        -326.6783447265625
                    ],
                    [
                        -117.60398864746094,
                        -343.78179931640625,
                        -325.64404296875
                    ]
                ]
            }
        }
    ]
}