{
    "name": "Lune 4v4 NS",
    "description":"4v4 unshared barren moon with balanced spawns (team 1 in one hemisphere, team 2 in the other) and metal.  (Same planet as 'Salar de Uyuni' but north vs south spawns as opposed to checkerboard pattern).",
    "version":"1.0",
    "creator":"Grand Homie",
    "players":[8, 8],
    "planets": [
        {
            "name": "Lune 4v4 NS",
            "mass": 5000,
            "position_x": -2810.556396484375,
            "position_y": -21022.962890625,
            "velocity_x": 152.18360900878906,
            "velocity_y": -20.345394134521484,
            "required_thrust_to_move": 0,
            "starting_planet": true,
            "respawn": false,
            "start_destroyed": false,
            "min_spawn_delay": 0,
            "max_spawn_delay": 0,
            "planet": {
                "seed": 634337152,
                "radius": 500,
                "heightRange": 0,
                "waterHeight": 0,
                "waterDepth": 0,
                "temperature": 0,
                "metalDensity": 93,
                "metalClusters": 0,
                "metalSpotLimit": -1,
                "biomeScale": 50,
                "biome": "moon",
                "symmetryType": "terrain and CSG",
                "symmetricalMetal": true,
                "symmetricalStarts": false,
                "numArmies": 2,
                "landingZonesPerArmy": 0,
                "landingZoneSize": 0
            },
            "planetCSG": [
                {
                    "rotation": 0,
                    "spec": "/pa/terrain/moon/brushes/moon_ruin_01.json",
                    "proj": "BP_Bend",
                    "mirrored": false,
                    "weight": [
                        0,
                        0,
                        0,
                        0
                    ],
                    "weightHard": false,
                    "position": [
                        0,
                        0,
                        500
                    ],
                    "height": 499.86138916015625,
                    "scale": [
                        1,
                        1,
                        1
                    ],
                    "weightScale": [
                        1,
                        1,
                        1
                    ],
                    "op": "BO_Add",
                    "transform": [
                        1,
                        0,
                        0,
                        0,
                        0,
                        1,
                        0,
                        0,
                        0,
                        0,
                        1,
                        499.86138916015625
                    ],
                    "no_features": false,
                    "pathable": false,
                    "flooded": false,
                    "twinId": 0,
                    "mergeable": false
                },
                {
                    "rotation": 0,
                    "spec": "/pa/terrain/moon/brushes/moon_ruin_01.json",
                    "proj": "BP_Bend",
                    "mirrored": true,
                    "weight": [
                        0,
                        0,
                        0,
                        0
                    ],
                    "weightHard": false,
                    "position": [
                        0,
                        0,
                        500
                    ],
                    "height": 499.86138916015625,
                    "scale": [
                        1,
                        1,
                        1
                    ],
                    "weightScale": [
                        1,
                        1,
                        1
                    ],
                    "op": "BO_Add",
                    "transform": [
                        1,
                        0,
                        0,
                        0,
                        0,
                        1,
                        0,
                        0,
                        0,
                        0,
                        -1,
                        -499.86138916015625
                    ],
                    "no_features": false,
                    "pathable": false,
                    "flooded": false,
                    "twinId": 0,
                    "mergeable": false
                }
            ],
            "metal_spots": [
                [
                    -20.77620506286621,
                    -368.60223388671875,
                    335.9862060546875
                ],
                [
                    -20.77620506286621,
                    -368.60223388671875,
                    -335.9862060546875
                ],
                [
                    20.910663604736328,
                    -367.6253662109375,
                    337.2813415527344
                ],
                [
                    20.910663604736328,
                    -367.6253662109375,
                    -337.2813415527344
                ],
                [
                    -23.29888153076172,
                    -393.02801513671875,
                    305.9830322265625
                ],
                [
                    -23.29888153076172,
                    -393.02801513671875,
                    -305.9830322265625
                ],
                [
                    23.559654235839844,
                    -393.8826904296875,
                    304.7293701171875
                ],
                [
                    23.559654235839844,
                    -393.8826904296875,
                    -304.7293701171875
                ],
                [
                    -108.2513198852539,
                    -392.6142578125,
                    290.0204162597656
                ],
                [
                    -108.2513198852539,
                    -392.6142578125,
                    -290.0204162597656
                ],
                [
                    -135.65272521972656,
                    -402.6802978515625,
                    263.38299560546875
                ],
                [
                    -135.65272521972656,
                    -402.6802978515625,
                    -263.38299560546875
                ],
                [
                    107.96559143066406,
                    -391.4615478515625,
                    291.0054626464844
                ],
                [
                    107.96559143066406,
                    -391.4615478515625,
                    -291.0054626464844
                ],
                [
                    135.74874877929688,
                    -398.2872314453125,
                    270.22320556640625
                ],
                [
                    135.74874877929688,
                    -398.2872314453125,
                    -270.22320556640625
                ],
                [
                    -125.62236022949219,
                    -265.50897216796875,
                    407.3526611328125
                ],
                [
                    -125.62236022949219,
                    -265.50897216796875,
                    -407.3526611328125
                ],
                [
                    -85.85846710205078,
                    -228.4591064453125,
                    439.0115966796875
                ],
                [
                    -85.85846710205078,
                    -228.4591064453125,
                    -439.0115966796875
                ],
                [
                    -89.43070220947266,
                    -256.0277099609375,
                    422.422119140625
                ],
                [
                    -89.43070220947266,
                    -256.0277099609375,
                    -422.422119140625
                ],
                [
                    64.03111267089844,
                    -226.8619384765625,
                    441.2890625
                ],
                [
                    64.03111267089844,
                    -226.8619384765625,
                    -441.2890625
                ],
                [
                    63.475746154785156,
                    -254.017822265625,
                    426.5596923828125
                ],
                [
                    63.475746154785156,
                    -254.017822265625,
                    -426.5596923828125
                ],
                [
                    95.5597915649414,
                    -268.96807861328125,
                    410.87176513671875
                ],
                [
                    95.5597915649414,
                    -268.96807861328125,
                    -410.87176513671875
                ],
                [
                    -271.021728515625,
                    -353.47021484375,
                    226.6721649169922
                ],
                [
                    -271.021728515625,
                    -353.47021484375,
                    -226.6721649169922
                ],
                [
                    -281.7457580566406,
                    -372.061279296875,
                    178.27767944335938
                ],
                [
                    -281.7457580566406,
                    -372.061279296875,
                    -178.27767944335938
                ],
                [
                    266.227294921875,
                    -349.4517822265625,
                    236.7850799560547
                ],
                [
                    266.227294921875,
                    -349.4517822265625,
                    -236.7850799560547
                ],
                [
                    284.76470947265625,
                    -365.9881591796875,
                    182.6731414794922
                ],
                [
                    284.76470947265625,
                    -365.9881591796875,
                    -182.6731414794922
                ],
                [
                    -246.3398895263672,
                    -384.0128173828125,
                    202.57559204101562
                ],
                [
                    -246.3398895263672,
                    -384.0128173828125,
                    -202.57559204101562
                ],
                [
                    249.8019561767578,
                    -376.439453125,
                    210.71847534179688
                ],
                [
                    249.8019561767578,
                    -376.439453125,
                    -210.71847534179688
                ],
                [
                    236.41944885253906,
                    -317.954345703125,
                    304.83837890625
                ],
                [
                    236.41944885253906,
                    -317.954345703125,
                    -304.83837890625
                ],
                [
                    217.48800659179688,
                    -301.4661865234375,
                    334.6888732910156
                ],
                [
                    217.48800659179688,
                    -301.4661865234375,
                    -334.6888732910156
                ],
                [
                    -226.15908813476562,
                    -302.018798828125,
                    330.05706787109375
                ],
                [
                    -226.15908813476562,
                    -302.018798828125,
                    -330.05706787109375
                ],
                [
                    -245.81936645507812,
                    -317.0633544921875,
                    299.2532958984375
                ],
                [
                    -245.81936645507812,
                    -317.0633544921875,
                    -299.2532958984375
                ],
                [
                    -94.06378173828125,
                    -471.4998779296875,
                    137.32676696777344
                ],
                [
                    -94.06378173828125,
                    -471.4998779296875,
                    -137.32676696777344
                ],
                [
                    88.84285736083984,
                    -472.8818359375,
                    136.92141723632812
                ],
                [
                    88.84285736083984,
                    -472.8818359375,
                    -136.92141723632812
                ],
                [
                    -50.71891784667969,
                    -489.86865234375,
                    87.16354370117188
                ],
                [
                    -50.71891784667969,
                    -489.86865234375,
                    -87.16354370117188
                ],
                [
                    49.371238708496094,
                    -491.0111083984375,
                    86.39967346191406
                ],
                [
                    49.371238708496094,
                    -491.0111083984375,
                    -86.39967346191406
                ],
                [
                    -27.98027801513672,
                    -451.767333984375,
                    210.56768798828125
                ],
                [
                    -27.98027801513672,
                    -451.767333984375,
                    -210.56768798828125
                ],
                [
                    7.998394012451172,
                    -451.77685546875,
                    212.22940063476562
                ],
                [
                    7.998394012451172,
                    -451.77685546875,
                    -212.22940063476562
                ],
                [
                    215.4667510986328,
                    -442.509521484375,
                    88.29058837890625
                ],
                [
                    215.4667510986328,
                    -442.509521484375,
                    -88.29058837890625
                ],
                [
                    297.888916015625,
                    -398.6600341796875,
                    38.94140625
                ],
                [
                    297.888916015625,
                    -398.6600341796875,
                    -38.94140625
                ],
                [
                    -310.60638427734375,
                    -389.3779296875,
                    32.85087585449219
                ],
                [
                    -310.60638427734375,
                    -389.3779296875,
                    -32.85087585449219
                ],
                [
                    -231.01080322265625,
                    -435.2467041015625,
                    80.09141540527344
                ],
                [
                    -231.01080322265625,
                    -435.2467041015625,
                    -80.09141540527344
                ],
                [
                    -147.03785705566406,
                    -475.1195068359375,
                    52.733375549316406
                ],
                [
                    -147.03785705566406,
                    -475.1195068359375,
                    -52.733375549316406
                ],
                [
                    144.31576538085938,
                    -476.838134765625,
                    51.937889099121094
                ],
                [
                    144.31576538085938,
                    -476.838134765625,
                    -51.937889099121094
                ],
                [
                    156.3916015625,
                    -423.5911865234375,
                    215.684814453125
                ],
                [
                    156.3916015625,
                    -423.5911865234375,
                    -215.684814453125
                ],
                [
                    -160.71340942382812,
                    -423.3486328125,
                    210.51641845703125
                ],
                [
                    -160.71340942382812,
                    -423.3486328125,
                    -210.51641845703125
                ],
                [
                    -5.781425476074219,
                    -135.2283935546875,
                    481.6275634765625
                ],
                [
                    -5.781425476074219,
                    -135.2283935546875,
                    -481.6275634765625
                ],
                [
                    -5.861778259277344,
                    -205.26531982421875,
                    457.2515869140625
                ],
                [
                    -5.861778259277344,
                    -205.26531982421875,
                    -457.2515869140625
                ],
                [
                    -141.79330444335938,
                    -324.43017578125,
                    354.994140625
                ],
                [
                    -141.79330444335938,
                    -324.43017578125,
                    -354.994140625
                ],
                [
                    129.10447692871094,
                    -322.501708984375,
                    359.639892578125
                ],
                [
                    129.10447692871094,
                    -322.501708984375,
                    -359.639892578125
                ],
                [
                    368.60223388671875,
                    -20.77620506286621,
                    335.9862060546875
                ],
                [
                    368.60223388671875,
                    -20.77620506286621,
                    -335.9862060546875
                ],
                [
                    367.6253662109375,
                    20.910663604736328,
                    337.2813415527344
                ],
                [
                    367.6253662109375,
                    20.910663604736328,
                    -337.2813415527344
                ],
                [
                    393.02801513671875,
                    -23.29888153076172,
                    305.9830322265625
                ],
                [
                    393.02801513671875,
                    -23.29888153076172,
                    -305.9830322265625
                ],
                [
                    393.8826904296875,
                    23.559654235839844,
                    304.7293701171875
                ],
                [
                    393.8826904296875,
                    23.559654235839844,
                    -304.7293701171875
                ],
                [
                    392.6142578125,
                    -108.2513198852539,
                    290.0204162597656
                ],
                [
                    392.6142578125,
                    -108.2513198852539,
                    -290.0204162597656
                ],
                [
                    402.6802978515625,
                    -135.65272521972656,
                    263.38299560546875
                ],
                [
                    402.6802978515625,
                    -135.65272521972656,
                    -263.38299560546875
                ],
                [
                    391.4615478515625,
                    107.96559143066406,
                    291.0054626464844
                ],
                [
                    391.4615478515625,
                    107.96559143066406,
                    -291.0054626464844
                ],
                [
                    398.2872314453125,
                    135.74874877929688,
                    270.22320556640625
                ],
                [
                    398.2872314453125,
                    135.74874877929688,
                    -270.22320556640625
                ],
                [
                    265.50897216796875,
                    -125.62236022949219,
                    407.3526611328125
                ],
                [
                    265.50897216796875,
                    -125.62236022949219,
                    -407.3526611328125
                ],
                [
                    228.4591064453125,
                    -85.85846710205078,
                    439.0115966796875
                ],
                [
                    228.4591064453125,
                    -85.85846710205078,
                    -439.0115966796875
                ],
                [
                    256.0277099609375,
                    -89.43070220947266,
                    422.422119140625
                ],
                [
                    256.0277099609375,
                    -89.43070220947266,
                    -422.422119140625
                ],
                [
                    226.8619384765625,
                    64.03111267089844,
                    441.2890625
                ],
                [
                    226.8619384765625,
                    64.03111267089844,
                    -441.2890625
                ],
                [
                    254.017822265625,
                    63.475746154785156,
                    426.5596923828125
                ],
                [
                    254.017822265625,
                    63.475746154785156,
                    -426.5596923828125
                ],
                [
                    268.96807861328125,
                    95.5597915649414,
                    410.87176513671875
                ],
                [
                    268.96807861328125,
                    95.5597915649414,
                    -410.87176513671875
                ],
                [
                    353.47021484375,
                    -271.021728515625,
                    226.6721649169922
                ],
                [
                    353.47021484375,
                    -271.021728515625,
                    -226.6721649169922
                ],
                [
                    372.061279296875,
                    -281.7457580566406,
                    178.27767944335938
                ],
                [
                    372.061279296875,
                    -281.7457580566406,
                    -178.27767944335938
                ],
                [
                    349.4517822265625,
                    266.227294921875,
                    236.7850799560547
                ],
                [
                    349.4517822265625,
                    266.227294921875,
                    -236.7850799560547
                ],
                [
                    365.9881591796875,
                    284.76470947265625,
                    182.6731414794922
                ],
                [
                    365.9881591796875,
                    284.76470947265625,
                    -182.6731414794922
                ],
                [
                    384.0128173828125,
                    -246.3398895263672,
                    202.57559204101562
                ],
                [
                    384.0128173828125,
                    -246.3398895263672,
                    -202.57559204101562
                ],
                [
                    376.439453125,
                    249.8019561767578,
                    210.71847534179688
                ],
                [
                    376.439453125,
                    249.8019561767578,
                    -210.71847534179688
                ],
                [
                    317.954345703125,
                    236.41944885253906,
                    304.83837890625
                ],
                [
                    317.954345703125,
                    236.41944885253906,
                    -304.83837890625
                ],
                [
                    301.4661865234375,
                    217.48800659179688,
                    334.6888732910156
                ],
                [
                    301.4661865234375,
                    217.48800659179688,
                    -334.6888732910156
                ],
                [
                    302.018798828125,
                    -226.15908813476562,
                    330.05706787109375
                ],
                [
                    302.018798828125,
                    -226.15908813476562,
                    -330.05706787109375
                ],
                [
                    317.0633544921875,
                    -245.81936645507812,
                    299.2532958984375
                ],
                [
                    317.0633544921875,
                    -245.81936645507812,
                    -299.2532958984375
                ],
                [
                    471.4998779296875,
                    -94.06378173828125,
                    137.32676696777344
                ],
                [
                    471.4998779296875,
                    -94.06378173828125,
                    -137.32676696777344
                ],
                [
                    472.8818359375,
                    88.84285736083984,
                    136.92141723632812
                ],
                [
                    472.8818359375,
                    88.84285736083984,
                    -136.92141723632812
                ],
                [
                    489.86865234375,
                    -50.71891784667969,
                    87.16354370117188
                ],
                [
                    489.86865234375,
                    -50.71891784667969,
                    -87.16354370117188
                ],
                [
                    491.0111083984375,
                    49.371238708496094,
                    86.39967346191406
                ],
                [
                    491.0111083984375,
                    49.371238708496094,
                    -86.39967346191406
                ],
                [
                    451.767333984375,
                    -27.98027801513672,
                    210.56768798828125
                ],
                [
                    451.767333984375,
                    -27.98027801513672,
                    -210.56768798828125
                ],
                [
                    451.77685546875,
                    7.998394012451172,
                    212.22940063476562
                ],
                [
                    451.77685546875,
                    7.998394012451172,
                    -212.22940063476562
                ],
                [
                    442.509521484375,
                    215.4667510986328,
                    88.29058837890625
                ],
                [
                    442.509521484375,
                    215.4667510986328,
                    -88.29058837890625
                ],
                [
                    398.6600341796875,
                    297.888916015625,
                    38.94140625
                ],
                [
                    398.6600341796875,
                    297.888916015625,
                    -38.94140625
                ],
                [
                    389.3779296875,
                    -310.60638427734375,
                    32.85087585449219
                ],
                [
                    389.3779296875,
                    -310.60638427734375,
                    -32.85087585449219
                ],
                [
                    435.2467041015625,
                    -231.01080322265625,
                    80.09141540527344
                ],
                [
                    435.2467041015625,
                    -231.01080322265625,
                    -80.09141540527344
                ],
                [
                    475.1195068359375,
                    -147.03785705566406,
                    52.733375549316406
                ],
                [
                    475.1195068359375,
                    -147.03785705566406,
                    -52.733375549316406
                ],
                [
                    476.838134765625,
                    144.31576538085938,
                    51.937889099121094
                ],
                [
                    476.838134765625,
                    144.31576538085938,
                    -51.937889099121094
                ],
                [
                    423.5911865234375,
                    156.3916015625,
                    215.684814453125
                ],
                [
                    423.5911865234375,
                    156.3916015625,
                    -215.684814453125
                ],
                [
                    423.3486328125,
                    -160.71340942382812,
                    210.51641845703125
                ],
                [
                    423.3486328125,
                    -160.71340942382812,
                    -210.51641845703125
                ],
                [
                    135.2283935546875,
                    -5.781425476074219,
                    481.6275634765625
                ],
                [
                    135.2283935546875,
                    -5.781425476074219,
                    -481.6275634765625
                ],
                [
                    205.26531982421875,
                    -5.861778259277344,
                    457.2515869140625
                ],
                [
                    205.26531982421875,
                    -5.861778259277344,
                    -457.2515869140625
                ],
                [
                    324.43017578125,
                    -141.79330444335938,
                    354.994140625
                ],
                [
                    324.43017578125,
                    -141.79330444335938,
                    -354.994140625
                ],
                [
                    322.501708984375,
                    129.10447692871094,
                    359.639892578125
                ],
                [
                    322.501708984375,
                    129.10447692871094,
                    -359.639892578125
                ],
                [
                    20.77620506286621,
                    368.60223388671875,
                    335.9862060546875
                ],
                [
                    20.77620506286621,
                    368.60223388671875,
                    -335.9862060546875
                ],
                [
                    -20.910663604736328,
                    367.6253662109375,
                    337.2813415527344
                ],
                [
                    -20.910663604736328,
                    367.6253662109375,
                    -337.2813415527344
                ],
                [
                    23.29888153076172,
                    393.02801513671875,
                    305.9830322265625
                ],
                [
                    23.29888153076172,
                    393.02801513671875,
                    -305.9830322265625
                ],
                [
                    -23.559654235839844,
                    393.8826904296875,
                    304.7293701171875
                ],
                [
                    -23.559654235839844,
                    393.8826904296875,
                    -304.7293701171875
                ],
                [
                    108.2513198852539,
                    392.6142578125,
                    290.0204162597656
                ],
                [
                    108.2513198852539,
                    392.6142578125,
                    -290.0204162597656
                ],
                [
                    135.65272521972656,
                    402.6802978515625,
                    263.38299560546875
                ],
                [
                    135.65272521972656,
                    402.6802978515625,
                    -263.38299560546875
                ],
                [
                    -107.96559143066406,
                    391.4615478515625,
                    291.0054626464844
                ],
                [
                    -107.96559143066406,
                    391.4615478515625,
                    -291.0054626464844
                ],
                [
                    -135.74874877929688,
                    398.2872314453125,
                    270.22320556640625
                ],
                [
                    -135.74874877929688,
                    398.2872314453125,
                    -270.22320556640625
                ],
                [
                    125.62236022949219,
                    265.50897216796875,
                    407.3526611328125
                ],
                [
                    125.62236022949219,
                    265.50897216796875,
                    -407.3526611328125
                ],
                [
                    85.85846710205078,
                    228.4591064453125,
                    439.0115966796875
                ],
                [
                    85.85846710205078,
                    228.4591064453125,
                    -439.0115966796875
                ],
                [
                    89.43070220947266,
                    256.0277099609375,
                    422.422119140625
                ],
                [
                    89.43070220947266,
                    256.0277099609375,
                    -422.422119140625
                ],
                [
                    -64.03111267089844,
                    226.8619384765625,
                    441.2890625
                ],
                [
                    -64.03111267089844,
                    226.8619384765625,
                    -441.2890625
                ],
                [
                    -63.475746154785156,
                    254.017822265625,
                    426.5596923828125
                ],
                [
                    -63.475746154785156,
                    254.017822265625,
                    -426.5596923828125
                ],
                [
                    -95.5597915649414,
                    268.96807861328125,
                    410.87176513671875
                ],
                [
                    -95.5597915649414,
                    268.96807861328125,
                    -410.87176513671875
                ],
                [
                    271.021728515625,
                    353.47021484375,
                    226.6721649169922
                ],
                [
                    271.021728515625,
                    353.47021484375,
                    -226.6721649169922
                ],
                [
                    281.7457580566406,
                    372.061279296875,
                    178.27767944335938
                ],
                [
                    281.7457580566406,
                    372.061279296875,
                    -178.27767944335938
                ],
                [
                    -266.227294921875,
                    349.4517822265625,
                    236.7850799560547
                ],
                [
                    -266.227294921875,
                    349.4517822265625,
                    -236.7850799560547
                ],
                [
                    -284.76470947265625,
                    365.9881591796875,
                    182.6731414794922
                ],
                [
                    -284.76470947265625,
                    365.9881591796875,
                    -182.6731414794922
                ],
                [
                    246.3398895263672,
                    384.0128173828125,
                    202.57559204101562
                ],
                [
                    246.3398895263672,
                    384.0128173828125,
                    -202.57559204101562
                ],
                [
                    -249.8019561767578,
                    376.439453125,
                    210.71847534179688
                ],
                [
                    -249.8019561767578,
                    376.439453125,
                    -210.71847534179688
                ],
                [
                    -236.41944885253906,
                    317.954345703125,
                    304.83837890625
                ],
                [
                    -236.41944885253906,
                    317.954345703125,
                    -304.83837890625
                ],
                [
                    -217.48800659179688,
                    301.4661865234375,
                    334.6888732910156
                ],
                [
                    -217.48800659179688,
                    301.4661865234375,
                    -334.6888732910156
                ],
                [
                    226.15908813476562,
                    302.018798828125,
                    330.05706787109375
                ],
                [
                    226.15908813476562,
                    302.018798828125,
                    -330.05706787109375
                ],
                [
                    245.81936645507812,
                    317.0633544921875,
                    299.2532958984375
                ],
                [
                    245.81936645507812,
                    317.0633544921875,
                    -299.2532958984375
                ],
                [
                    94.06378173828125,
                    471.4998779296875,
                    137.32676696777344
                ],
                [
                    94.06378173828125,
                    471.4998779296875,
                    -137.32676696777344
                ],
                [
                    -88.84285736083984,
                    472.8818359375,
                    136.92141723632812
                ],
                [
                    -88.84285736083984,
                    472.8818359375,
                    -136.92141723632812
                ],
                [
                    50.71891784667969,
                    489.86865234375,
                    87.16354370117188
                ],
                [
                    50.71891784667969,
                    489.86865234375,
                    -87.16354370117188
                ],
                [
                    -49.371238708496094,
                    491.0111083984375,
                    86.39967346191406
                ],
                [
                    -49.371238708496094,
                    491.0111083984375,
                    -86.39967346191406
                ],
                [
                    27.98027801513672,
                    451.767333984375,
                    210.56768798828125
                ],
                [
                    27.98027801513672,
                    451.767333984375,
                    -210.56768798828125
                ],
                [
                    -7.998394012451172,
                    451.77685546875,
                    212.22940063476562
                ],
                [
                    -7.998394012451172,
                    451.77685546875,
                    -212.22940063476562
                ],
                [
                    -215.4667510986328,
                    442.509521484375,
                    88.29058837890625
                ],
                [
                    -215.4667510986328,
                    442.509521484375,
                    -88.29058837890625
                ],
                [
                    -297.888916015625,
                    398.6600341796875,
                    38.94140625
                ],
                [
                    -297.888916015625,
                    398.6600341796875,
                    -38.94140625
                ],
                [
                    310.60638427734375,
                    389.3779296875,
                    32.85087585449219
                ],
                [
                    310.60638427734375,
                    389.3779296875,
                    -32.85087585449219
                ],
                [
                    231.01080322265625,
                    435.2467041015625,
                    80.09141540527344
                ],
                [
                    231.01080322265625,
                    435.2467041015625,
                    -80.09141540527344
                ],
                [
                    147.03785705566406,
                    475.1195068359375,
                    52.733375549316406
                ],
                [
                    147.03785705566406,
                    475.1195068359375,
                    -52.733375549316406
                ],
                [
                    -144.31576538085938,
                    476.838134765625,
                    51.937889099121094
                ],
                [
                    -144.31576538085938,
                    476.838134765625,
                    -51.937889099121094
                ],
                [
                    -156.3916015625,
                    423.5911865234375,
                    215.684814453125
                ],
                [
                    -156.3916015625,
                    423.5911865234375,
                    -215.684814453125
                ],
                [
                    160.71340942382812,
                    423.3486328125,
                    210.51641845703125
                ],
                [
                    160.71340942382812,
                    423.3486328125,
                    -210.51641845703125
                ],
                [
                    5.781425476074219,
                    135.2283935546875,
                    481.6275634765625
                ],
                [
                    5.781425476074219,
                    135.2283935546875,
                    -481.6275634765625
                ],
                [
                    5.861778259277344,
                    205.26531982421875,
                    457.2515869140625
                ],
                [
                    5.861778259277344,
                    205.26531982421875,
                    -457.2515869140625
                ],
                [
                    141.79330444335938,
                    324.43017578125,
                    354.994140625
                ],
                [
                    141.79330444335938,
                    324.43017578125,
                    -354.994140625
                ],
                [
                    -129.10447692871094,
                    322.501708984375,
                    359.639892578125
                ],
                [
                    -129.10447692871094,
                    322.501708984375,
                    -359.639892578125
                ],
                [
                    -368.60223388671875,
                    20.77620506286621,
                    335.9862060546875
                ],
                [
                    -368.60223388671875,
                    20.77620506286621,
                    -335.9862060546875
                ],
                [
                    -367.6253662109375,
                    -20.910663604736328,
                    337.2813415527344
                ],
                [
                    -367.6253662109375,
                    -20.910663604736328,
                    -337.2813415527344
                ],
                [
                    -393.02801513671875,
                    23.29888153076172,
                    305.9830322265625
                ],
                [
                    -393.02801513671875,
                    23.29888153076172,
                    -305.9830322265625
                ],
                [
                    -393.8826904296875,
                    -23.559654235839844,
                    304.7293701171875
                ],
                [
                    -393.8826904296875,
                    -23.559654235839844,
                    -304.7293701171875
                ],
                [
                    -392.6142578125,
                    108.2513198852539,
                    290.0204162597656
                ],
                [
                    -392.6142578125,
                    108.2513198852539,
                    -290.0204162597656
                ],
                [
                    -402.6802978515625,
                    135.65272521972656,
                    263.38299560546875
                ],
                [
                    -402.6802978515625,
                    135.65272521972656,
                    -263.38299560546875
                ],
                [
                    -391.4615478515625,
                    -107.96559143066406,
                    291.0054626464844
                ],
                [
                    -391.4615478515625,
                    -107.96559143066406,
                    -291.0054626464844
                ],
                [
                    -398.2872314453125,
                    -135.74874877929688,
                    270.22320556640625
                ],
                [
                    -398.2872314453125,
                    -135.74874877929688,
                    -270.22320556640625
                ],
                [
                    -265.50897216796875,
                    125.62236022949219,
                    407.3526611328125
                ],
                [
                    -265.50897216796875,
                    125.62236022949219,
                    -407.3526611328125
                ],
                [
                    -228.4591064453125,
                    85.85846710205078,
                    439.0115966796875
                ],
                [
                    -228.4591064453125,
                    85.85846710205078,
                    -439.0115966796875
                ],
                [
                    -256.0277099609375,
                    89.43070220947266,
                    422.422119140625
                ],
                [
                    -256.0277099609375,
                    89.43070220947266,
                    -422.422119140625
                ],
                [
                    -226.8619384765625,
                    -64.03111267089844,
                    441.2890625
                ],
                [
                    -226.8619384765625,
                    -64.03111267089844,
                    -441.2890625
                ],
                [
                    -254.017822265625,
                    -63.475746154785156,
                    426.5596923828125
                ],
                [
                    -254.017822265625,
                    -63.475746154785156,
                    -426.5596923828125
                ],
                [
                    -268.96807861328125,
                    -95.5597915649414,
                    410.87176513671875
                ],
                [
                    -268.96807861328125,
                    -95.5597915649414,
                    -410.87176513671875
                ],
                [
                    -353.47021484375,
                    271.021728515625,
                    226.6721649169922
                ],
                [
                    -353.47021484375,
                    271.021728515625,
                    -226.6721649169922
                ],
                [
                    -372.061279296875,
                    281.7457580566406,
                    178.27767944335938
                ],
                [
                    -372.061279296875,
                    281.7457580566406,
                    -178.27767944335938
                ],
                [
                    -349.4517822265625,
                    -266.227294921875,
                    236.7850799560547
                ],
                [
                    -349.4517822265625,
                    -266.227294921875,
                    -236.7850799560547
                ],
                [
                    -365.9881591796875,
                    -284.76470947265625,
                    182.6731414794922
                ],
                [
                    -365.9881591796875,
                    -284.76470947265625,
                    -182.6731414794922
                ],
                [
                    -384.0128173828125,
                    246.3398895263672,
                    202.57559204101562
                ],
                [
                    -384.0128173828125,
                    246.3398895263672,
                    -202.57559204101562
                ],
                [
                    -376.439453125,
                    -249.8019561767578,
                    210.71847534179688
                ],
                [
                    -376.439453125,
                    -249.8019561767578,
                    -210.71847534179688
                ],
                [
                    -317.954345703125,
                    -236.41944885253906,
                    304.83837890625
                ],
                [
                    -317.954345703125,
                    -236.41944885253906,
                    -304.83837890625
                ],
                [
                    -301.4661865234375,
                    -217.48800659179688,
                    334.6888732910156
                ],
                [
                    -301.4661865234375,
                    -217.48800659179688,
                    -334.6888732910156
                ],
                [
                    -302.018798828125,
                    226.15908813476562,
                    330.05706787109375
                ],
                [
                    -302.018798828125,
                    226.15908813476562,
                    -330.05706787109375
                ],
                [
                    -317.0633544921875,
                    245.81936645507812,
                    299.2532958984375
                ],
                [
                    -317.0633544921875,
                    245.81936645507812,
                    -299.2532958984375
                ],
                [
                    -471.4998779296875,
                    94.06378173828125,
                    137.32676696777344
                ],
                [
                    -471.4998779296875,
                    94.06378173828125,
                    -137.32676696777344
                ],
                [
                    -472.8818359375,
                    -88.84285736083984,
                    136.92141723632812
                ],
                [
                    -472.8818359375,
                    -88.84285736083984,
                    -136.92141723632812
                ],
                [
                    -489.86865234375,
                    50.71891784667969,
                    87.16354370117188
                ],
                [
                    -489.86865234375,
                    50.71891784667969,
                    -87.16354370117188
                ],
                [
                    -491.0111083984375,
                    -49.371238708496094,
                    86.39967346191406
                ],
                [
                    -491.0111083984375,
                    -49.371238708496094,
                    -86.39967346191406
                ],
                [
                    -451.767333984375,
                    27.98027801513672,
                    210.56768798828125
                ],
                [
                    -451.767333984375,
                    27.98027801513672,
                    -210.56768798828125
                ],
                [
                    -451.77685546875,
                    -7.998394012451172,
                    212.22940063476562
                ],
                [
                    -451.77685546875,
                    -7.998394012451172,
                    -212.22940063476562
                ],
                [
                    -442.509521484375,
                    -215.4667510986328,
                    88.29058837890625
                ],
                [
                    -442.509521484375,
                    -215.4667510986328,
                    -88.29058837890625
                ],
                [
                    -398.6600341796875,
                    -297.888916015625,
                    38.94140625
                ],
                [
                    -398.6600341796875,
                    -297.888916015625,
                    -38.94140625
                ],
                [
                    -389.3779296875,
                    310.60638427734375,
                    32.85087585449219
                ],
                [
                    -389.3779296875,
                    310.60638427734375,
                    -32.85087585449219
                ],
                [
                    -435.2467041015625,
                    231.01080322265625,
                    80.09141540527344
                ],
                [
                    -435.2467041015625,
                    231.01080322265625,
                    -80.09141540527344
                ],
                [
                    -475.1195068359375,
                    147.03785705566406,
                    52.733375549316406
                ],
                [
                    -475.1195068359375,
                    147.03785705566406,
                    -52.733375549316406
                ],
                [
                    -476.838134765625,
                    -144.31576538085938,
                    51.937889099121094
                ],
                [
                    -476.838134765625,
                    -144.31576538085938,
                    -51.937889099121094
                ],
                [
                    -423.5911865234375,
                    -156.3916015625,
                    215.684814453125
                ],
                [
                    -423.5911865234375,
                    -156.3916015625,
                    -215.684814453125
                ],
                [
                    -423.3486328125,
                    160.71340942382812,
                    210.51641845703125
                ],
                [
                    -423.3486328125,
                    160.71340942382812,
                    -210.51641845703125
                ],
                [
                    -135.2283935546875,
                    5.781425476074219,
                    481.6275634765625
                ],
                [
                    -135.2283935546875,
                    5.781425476074219,
                    -481.6275634765625
                ],
                [
                    -205.26531982421875,
                    5.861778259277344,
                    457.2515869140625
                ],
                [
                    -205.26531982421875,
                    5.861778259277344,
                    -457.2515869140625
                ],
                [
                    -324.43017578125,
                    141.79330444335938,
                    354.994140625
                ],
                [
                    -324.43017578125,
                    141.79330444335938,
                    -354.994140625
                ],
                [
                    -322.501708984375,
                    -129.10447692871094,
                    359.639892578125
                ],
                [
                    -322.501708984375,
                    -129.10447692871094,
                    -359.639892578125
                ],
                [
                    84.19744873046875,
                    -86.00213623046875,
                    484.07861328125
                ],
                [
                    84.19744873046875,
                    -86.00213623046875,
                    -484.07861328125
                ],
                [
                    122.76571655273438,
                    -127.93853759765625,
                    466.9495849609375
                ],
                [
                    122.76571655273438,
                    -127.93853759765625,
                    -466.9495849609375
                ],
                [
                    339.9798583984375,
                    -342.7681884765625,
                    127.58624267578125
                ],
                [
                    339.9798583984375,
                    -342.7681884765625,
                    -127.58624267578125
                ],
                [
                    218.77301025390625,
                    -219.88031005859375,
                    392.760009765625
                ],
                [
                    218.77301025390625,
                    -219.88031005859375,
                    -392.760009765625
                ],
                [
                    86.00213623046875,
                    84.19744873046875,
                    484.07861328125
                ],
                [
                    86.00213623046875,
                    84.19744873046875,
                    -484.07861328125
                ],
                [
                    127.93853759765626,
                    122.76571655273436,
                    466.9495849609375
                ],
                [
                    127.93853759765626,
                    122.76571655273436,
                    -466.9495849609375
                ],
                [
                    342.7681884765625,
                    339.9798583984375,
                    127.58624267578125
                ],
                [
                    342.7681884765625,
                    339.9798583984375,
                    -127.58624267578125
                ],
                [
                    219.88031005859375,
                    218.77301025390625,
                    392.760009765625
                ],
                [
                    219.88031005859375,
                    218.77301025390625,
                    -392.760009765625
                ],
                [
                    -84.19744873046875,
                    86.00213623046875,
                    484.07861328125
                ],
                [
                    -84.19744873046875,
                    86.00213623046875,
                    -484.07861328125
                ],
                [
                    -122.76571655273435,
                    127.93853759765628,
                    466.9495849609375
                ],
                [
                    -122.76571655273435,
                    127.93853759765628,
                    -466.9495849609375
                ],
                [
                    -339.9798583984375,
                    342.7681884765625,
                    127.58624267578125
                ],
                [
                    -339.9798583984375,
                    342.7681884765625,
                    -127.58624267578125
                ],
                [
                    -218.77301025390625,
                    219.88031005859375,
                    392.760009765625
                ],
                [
                    -218.77301025390625,
                    219.88031005859375,
                    -392.760009765625
                ],
                [
                    -86.00213623046875,
                    -84.19744873046875,
                    484.07861328125
                ],
                [
                    -86.00213623046875,
                    -84.19744873046875,
                    -484.07861328125
                ],
                [
                    -127.93853759765629,
                    -122.76571655273433,
                    466.9495849609375
                ],
                [
                    -127.93853759765629,
                    -122.76571655273433,
                    -466.9495849609375
                ],
                [
                    -342.7681884765625,
                    -339.9798583984375,
                    127.58624267578125
                ],
                [
                    -342.7681884765625,
                    -339.9798583984375,
                    -127.58624267578125
                ],
                [
                    -219.88031005859375,
                    -218.77301025390625,
                    392.760009765625
                ],
                [
                    -219.88031005859375,
                    -218.77301025390625,
                    -392.760009765625
                ]
            ],
            "landing_zones": {
                "rules": [
                    {
                        "max": 8,
                        "min": 8
                    },
                    {
                        "max": 8,
                        "min": 8
                    },
                    {
                        "max": 8,
                        "min": 8
                    },
                    {
                        "max": 8,
                        "min": 8
                    },
                    {
                        "max": 8,
                        "min": 8
                    },
                    {
                        "max": 8,
                        "min": 8
                    },
                    {
                        "max": 8,
                        "min": 8
                    },
                    {
                        "max": 8,
                        "min": 8
                    }
                ],
                "list": [

                    [
                        -1.5665130615234375,
                        385.454345703125,
                        -318.45623779296875
                    ],
                    [
                        -387.912109375,
                        -0.181549072265625,
                        -314.9721374511719
                    ],
                    [
                        -2.59783935546875,
                        -382.866943359375,
                        -319.60467529296875
                    ],
                    [
                        383.482177734375,
                        -1.7169189453125,
                        -318.4378662109375
                    ],


                    [
                        -3.6787109375,
                        386.0059814453125,
                        317.87353515625
                    ],
                    [
                        -383.07763671875,
                        2.4187164306640625,
                        320.9691162109375
                    ],
                    [
                        -3.1790008544921875,
                        -379.2119140625,
                        323.9664306640625
                    ],
                    [
                        381.343017578125,
                        -1.892669677734375,
                        321.0479736328125
                    ]
                ]
            }
        }
    ]
}