{
    "name": "Twisted 3v3 NS",
    "description":"3v3 unshared map.  Metal rich barren moon.  Spawns are similar to those of '2 croissants'; that is in the shape of a baseball / tennis ball with both teams spawning on either side of the stitches.",
    "version":"1.0",
    "creator":"Grand Homie",
    "players":[6, 6],
    "planets": [
        {
            "name": "Twisted 3v3 NS",
            "mass": 10000,
            "position_x": -600,
            "position_y": -17800,
            "velocity_x": 167.45770263671875,
            "velocity_y": -5.644634246826172,
            "required_thrust_to_move": 0,
            "starting_planet": true,
            "respawn": false,
            "start_destroyed": false,
            "min_spawn_delay": 0,
            "max_spawn_delay": 0,
            "planet": {
                "seed": 1068903808,
                "radius": 525,
                "heightRange": 0,
                "waterHeight": 0,
                "waterDepth": 0,
                "temperature": 0,
                "metalDensity": 50,
                "metalClusters": 50,
                "metalSpotLimit": -1,
                "biomeScale": 50,
                "biome": "moon",
                "symmetryType": "terrain and CSG",
                "symmetricalMetal": false,
                "symmetricalStarts": false,
                "numArmies": 2,
                "landingZonesPerArmy": 0,
                "landingZoneSize": 68
            },
            "planetCSG": [
                {
                    "rotation": 0,
                    "spec": "/pa/terrain/moon/brushes/moon_crater_02.json",
                    "proj": "BP_Bend",
                    "mirrored": false,
                    "op": "BO_Subtract",
                    "transform": [
                        0.014160926453769207,
                        -0.005058900453150272,
                        -0.01318677980452776,
                        -346.1627502441406,
                        -0.005058900453150272,
                        0.015617708675563335,
                        -0.011424104683101177,
                        -299.8912048339844,
                        0.01318677980452776,
                        0.011424104683101177,
                        0.009778249077498913,
                        256.686279296875
                    ],
                    "position": [
                        -346.1627502441406,
                        -299.8912048339844,
                        256.686279296875
                    ],
                    "height": 525.0249633789062,
                    "weightScale": [
                        1,
                        1,
                        1
                    ],
                    "scale": [
                        0.020000386983156204,
                        0.020000386983156204,
                        0.020000386983156204
                    ],
                    "weight": [
                        0,
                        0,
                        0,
                        0
                    ],
                    "weightHard": false,
                    "no_features": false,
                    "pathable": true,
                    "flooded": false,
                    "twinId": 0,
                    "mergeable": true
                }
            ],
            "metal_spots": [
                [
                    24.924575805664062,
                    -181.404541015625,
                    491.778076171875
                ],
                [
                    22.62035369873047,
                    -332.40216064453125,
                    404.37213134765625
                ],
                [
                    20.177169799804688,
                    -470.590087890625,
                    228.89678955078125
                ],
                [
                    19.334190368652344,
                    -453.9552001953125,
                    261.0814208984375
                ],
                [
                    181.62799072265625,
                    -26.99688720703125,
                    492.9515380859375
                ],
                [
                    318.81341552734375,
                    -28.5521240234375,
                    417.70147705078125
                ],
                [
                    427.5037841796875,
                    -23.4710693359375,
                    306.08526611328125
                ],
                [
                    19.037506103515625,
                    -514.85107421875,
                    91.022216796875
                ],
                [
                    198.95030212402344,
                    -484.260986328125,
                    18.504188537597656
                ],
                [
                    369.1247863769531,
                    -371.26385498046875,
                    18.504188537597656
                ],
                [
                    483.1033630371094,
                    -201.74513244628906,
                    18.504188537597656
                ],
                [
                    207.72369384765625,
                    -447.61279296875,
                    174.0517578125
                ],
                [
                    169.62721252441406,
                    -463.39288330078125,
                    174.0517578125
                ],
                [
                    363.2056579589844,
                    -334.0478820800781,
                    174.0517578125
                ],
                [
                    334.0478820800781,
                    -363.2056579589844,
                    174.0517578125
                ],
                [
                    463.39288330078125,
                    -169.62721252441406,
                    174.0517578125
                ],
                [
                    447.61279296875,
                    -207.72369384765625,
                    174.0517578125
                ],
                [
                    219.10887145996094,
                    -341.7381591796875,
                    332.7429504394531
                ],
                [
                    186.3994903564453,
                    -360.6229248046875,
                    332.7429504394531
                ],
                [
                    360.6229248046875,
                    -186.3994903564453,
                    332.7429504394531
                ],
                [
                    341.7381591796875,
                    -219.10887145996094,
                    332.7429504394531
                ],
                [
                    -24.924575805664062,
                    -181.404541015625,
                    491.778076171875
                ],
                [
                    -22.62035369873047,
                    -332.40216064453125,
                    404.37213134765625
                ],
                [
                    -20.177169799804688,
                    -470.590087890625,
                    228.89678955078125
                ],
                [
                    -19.334190368652344,
                    -453.9552001953125,
                    261.0814208984375
                ],
                [
                    -181.62799072265625,
                    -26.99688720703125,
                    492.9515380859375
                ],
                [
                    -318.81341552734375,
                    -28.5521240234375,
                    417.70147705078125
                ],
                [
                    -427.5037841796875,
                    -23.4710693359375,
                    306.08526611328125
                ],
                [
                    -19.037506103515625,
                    -514.85107421875,
                    91.022216796875
                ],
                [
                    -198.95030212402344,
                    -484.260986328125,
                    18.504188537597656
                ],
                [
                    -369.1247863769531,
                    -371.26385498046875,
                    18.504188537597656
                ],
                [
                    -483.1033630371094,
                    -201.74513244628906,
                    18.504188537597656
                ],
                [
                    -207.72369384765625,
                    -447.61279296875,
                    174.0517578125
                ],
                [
                    -169.62721252441406,
                    -463.39288330078125,
                    174.0517578125
                ],
                [
                    -363.2056579589844,
                    -334.0478820800781,
                    174.0517578125
                ],
                [
                    -334.0478820800781,
                    -363.2056579589844,
                    174.0517578125
                ],
                [
                    -463.39288330078125,
                    -169.62721252441406,
                    174.0517578125
                ],
                [
                    -447.61279296875,
                    -207.72369384765625,
                    174.0517578125
                ],
                [
                    -219.10887145996094,
                    -341.7381591796875,
                    332.7429504394531
                ],
                [
                    -186.3994903564453,
                    -360.6229248046875,
                    332.7429504394531
                ],
                [
                    -360.6229248046875,
                    -186.3994903564453,
                    332.7429504394531
                ],
                [
                    -341.7381591796875,
                    -219.10887145996094,
                    332.7429504394531
                ],
                [
                    1.559427261352539,
                    -209.074462890625,
                    480.81964111328125
                ],
                [
                    0.880218505859375,
                    -358.8338623046875,
                    382.02117919921875
                ],
                [
                    0.18142318725585938,
                    -519.6982421875,
                    61.88557434082031
                ],
                [
                    -24.924575805664062,
                    181.404541015625,
                    491.778076171875
                ],
                [
                    -22.62035369873047,
                    332.40216064453125,
                    404.37213134765625
                ],
                [
                    -20.177169799804688,
                    470.590087890625,
                    228.89678955078125
                ],
                [
                    -19.334190368652344,
                    453.9552001953125,
                    261.0814208984375
                ],
                [
                    -181.62799072265625,
                    26.99688720703125,
                    492.9515380859375
                ],
                [
                    -318.81341552734375,
                    28.5521240234375,
                    417.70147705078125
                ],
                [
                    -427.5037841796875,
                    23.4710693359375,
                    306.08526611328125
                ],
                [
                    -19.037506103515625,
                    514.85107421875,
                    91.022216796875
                ],
                [
                    -198.95030212402344,
                    484.260986328125,
                    18.504188537597656
                ],
                [
                    -369.1247863769531,
                    371.26385498046875,
                    18.504188537597656
                ],
                [
                    -483.1033630371094,
                    201.74513244628906,
                    18.504188537597656
                ],
                [
                    -207.72369384765625,
                    447.61279296875,
                    174.0517578125
                ],
                [
                    -169.62721252441406,
                    463.39288330078125,
                    174.0517578125
                ],
                [
                    -363.2056579589844,
                    334.0478820800781,
                    174.0517578125
                ],
                [
                    -334.0478820800781,
                    363.2056579589844,
                    174.0517578125
                ],
                [
                    -463.39288330078125,
                    169.62721252441406,
                    174.0517578125
                ],
                [
                    -447.61279296875,
                    207.72369384765625,
                    174.0517578125
                ],
                [
                    -219.10887145996094,
                    341.7381591796875,
                    332.7429504394531
                ],
                [
                    -186.3994903564453,
                    360.6229248046875,
                    332.7429504394531
                ],
                [
                    -360.6229248046875,
                    186.3994903564453,
                    332.7429504394531
                ],
                [
                    -341.7381591796875,
                    219.10887145996094,
                    332.7429504394531
                ],
                [
                    24.924575805664062,
                    181.404541015625,
                    491.778076171875
                ],
                [
                    22.62035369873047,
                    332.40216064453125,
                    404.37213134765625
                ],
                [
                    20.177169799804688,
                    470.590087890625,
                    228.89678955078125
                ],
                [
                    19.334190368652344,
                    453.9552001953125,
                    261.0814208984375
                ],
                [
                    181.62799072265625,
                    26.99688720703125,
                    492.9515380859375
                ],
                [
                    318.81341552734375,
                    28.5521240234375,
                    417.70147705078125
                ],
                [
                    427.5037841796875,
                    23.4710693359375,
                    306.08526611328125
                ],
                [
                    19.037506103515625,
                    514.85107421875,
                    91.022216796875
                ],
                [
                    198.95030212402344,
                    484.260986328125,
                    18.504188537597656
                ],
                [
                    369.1247863769531,
                    371.26385498046875,
                    18.504188537597656
                ],
                [
                    483.1033630371094,
                    201.74513244628906,
                    18.504188537597656
                ],
                [
                    207.72369384765625,
                    447.61279296875,
                    174.0517578125
                ],
                [
                    169.62721252441406,
                    463.39288330078125,
                    174.0517578125
                ],
                [
                    363.2056579589844,
                    334.0478820800781,
                    174.0517578125
                ],
                [
                    334.0478820800781,
                    363.2056579589844,
                    174.0517578125
                ],
                [
                    463.39288330078125,
                    169.62721252441406,
                    174.0517578125
                ],
                [
                    447.61279296875,
                    207.72369384765625,
                    174.0517578125
                ],
                [
                    219.10887145996094,
                    341.7381591796875,
                    332.7429504394531
                ],
                [
                    186.3994903564453,
                    360.6229248046875,
                    332.7429504394531
                ],
                [
                    360.6229248046875,
                    186.3994903564453,
                    332.7429504394531
                ],
                [
                    341.7381591796875,
                    219.10887145996094,
                    332.7429504394531
                ],
                [
                    -1.559427261352539,
                    209.074462890625,
                    480.81964111328125
                ],
                [
                    -0.880218505859375,
                    358.8338623046875,
                    382.02117919921875
                ],
                [
                    -0.18142318725585938,
                    519.6982421875,
                    61.88557434082031
                ],
                [
                    512.6997680664062,
                    17.790786743164062,
                    103.4374771118164
                ],
                [
                    512.4222412109375,
                    -20.334671020507812,
                    103.63621520996094
                ],
                [
                    517.9120483398438,
                    -0.3787994384765625,
                    75.72093963623047
                ],
                [
                    -512.6997680664062,
                    -17.790786743164062,
                    103.4374771118164
                ],
                [
                    -512.4222412109375,
                    20.334671020507812,
                    103.63621520996094
                ],
                [
                    -517.9120483398438,
                    0.3787994384765625,
                    75.72093963623047
                ],
                [
                    -23.431013107299805,
                    -18.39431381225586,
                    525.4500732421875
                ],
                [
                    22.640993118286133,
                    -17.86872100830078,
                    525.7109375
                ],
                [
                    -23.50343132019043,
                    24.458763122558594,
                    525.2460327148438
                ],
                [
                    22.724058151245117,
                    23.676769256591797,
                    525.580810546875
                ],
                [
                    -205.9407958984375,
                    1.3070144653320312,
                    483.16522216796875
                ],
                [
                    -340.885986328125,
                    0.09983444213867188,
                    399.17034912109375
                ],
                [
                    205.9407958984375,
                    -1.3070144653320312,
                    483.16522216796875
                ],
                [
                    340.885986328125,
                    -0.09983444213867188,
                    399.17034912109375
                ],
                [
                    181.404541015625,
                    24.924575805664062,
                    -491.778076171875
                ],
                [
                    332.40216064453125,
                    22.62035369873047,
                    -404.37213134765625
                ],
                [
                    470.590087890625,
                    20.177169799804688,
                    -228.89678955078125
                ],
                [
                    453.9552001953125,
                    19.334190368652344,
                    -261.0814208984375
                ],
                [
                    26.99688720703125,
                    181.62799072265625,
                    -492.9515380859375
                ],
                [
                    28.5521240234375,
                    318.81341552734375,
                    -417.70147705078125
                ],
                [
                    23.4710693359375,
                    427.5037841796875,
                    -306.08526611328125
                ],
                [
                    514.85107421875,
                    19.037506103515625,
                    -91.022216796875
                ],
                [
                    484.260986328125,
                    198.95030212402344,
                    -18.504188537597656
                ],
                [
                    371.26385498046875,
                    369.1247863769531,
                    -18.504188537597656
                ],
                [
                    201.74513244628906,
                    483.1033630371094,
                    -18.504188537597656
                ],
                [
                    447.61279296875,
                    207.72369384765625,
                    -174.0517578125
                ],
                [
                    463.39288330078125,
                    169.62721252441406,
                    -174.0517578125
                ],
                [
                    334.0478820800781,
                    363.2056579589844,
                    -174.0517578125
                ],
                [
                    363.2056579589844,
                    334.0478820800781,
                    -174.0517578125
                ],
                [
                    169.62721252441406,
                    463.39288330078125,
                    -174.0517578125
                ],
                [
                    207.72369384765625,
                    447.61279296875,
                    -174.0517578125
                ],
                [
                    341.7381591796875,
                    219.10887145996094,
                    -332.7429504394531
                ],
                [
                    360.6229248046875,
                    186.3994903564453,
                    -332.7429504394531
                ],
                [
                    186.3994903564453,
                    360.6229248046875,
                    -332.7429504394531
                ],
                [
                    219.10887145996094,
                    341.7381591796875,
                    -332.7429504394531
                ],
                [
                    181.404541015625,
                    -24.924575805664062,
                    -491.778076171875
                ],
                [
                    332.40216064453125,
                    -22.62035369873047,
                    -404.37213134765625
                ],
                [
                    470.590087890625,
                    -20.177169799804688,
                    -228.89678955078125
                ],
                [
                    453.9552001953125,
                    -19.334190368652344,
                    -261.0814208984375
                ],
                [
                    26.99688720703125,
                    -181.62799072265625,
                    -492.9515380859375
                ],
                [
                    28.5521240234375,
                    -318.81341552734375,
                    -417.70147705078125
                ],
                [
                    23.4710693359375,
                    -427.5037841796875,
                    -306.08526611328125
                ],
                [
                    514.85107421875,
                    -19.037506103515625,
                    -91.022216796875
                ],
                [
                    484.260986328125,
                    -198.95030212402344,
                    -18.504188537597656
                ],
                [
                    371.26385498046875,
                    -369.1247863769531,
                    -18.504188537597656
                ],
                [
                    201.74513244628906,
                    -483.1033630371094,
                    -18.504188537597656
                ],
                [
                    447.61279296875,
                    -207.72369384765625,
                    -174.0517578125
                ],
                [
                    463.39288330078125,
                    -169.62721252441406,
                    -174.0517578125
                ],
                [
                    334.0478820800781,
                    -363.2056579589844,
                    -174.0517578125
                ],
                [
                    363.2056579589844,
                    -334.0478820800781,
                    -174.0517578125
                ],
                [
                    169.62721252441406,
                    -463.39288330078125,
                    -174.0517578125
                ],
                [
                    207.72369384765625,
                    -447.61279296875,
                    -174.0517578125
                ],
                [
                    341.7381591796875,
                    -219.10887145996094,
                    -332.7429504394531
                ],
                [
                    360.6229248046875,
                    -186.3994903564453,
                    -332.7429504394531
                ],
                [
                    186.3994903564453,
                    -360.6229248046875,
                    -332.7429504394531
                ],
                [
                    219.10887145996094,
                    -341.7381591796875,
                    -332.7429504394531
                ],
                [
                    209.074462890625,
                    1.559427261352539,
                    -480.81964111328125
                ],
                [
                    358.8338623046875,
                    0.880218505859375,
                    -382.02117919921875
                ],
                [
                    519.6982421875,
                    0.18142318725585938,
                    -61.88557434082031
                ],
                [
                    -181.404541015625,
                    -24.924575805664062,
                    -491.778076171875
                ],
                [
                    -332.40216064453125,
                    -22.62035369873047,
                    -404.37213134765625
                ],
                [
                    -470.590087890625,
                    -20.177169799804688,
                    -228.89678955078125
                ],
                [
                    -453.9552001953125,
                    -19.334190368652344,
                    -261.0814208984375
                ],
                [
                    -26.99688720703125,
                    -181.62799072265625,
                    -492.9515380859375
                ],
                [
                    -28.5521240234375,
                    -318.81341552734375,
                    -417.70147705078125
                ],
                [
                    -23.4710693359375,
                    -427.5037841796875,
                    -306.08526611328125
                ],
                [
                    -514.85107421875,
                    -19.037506103515625,
                    -91.022216796875
                ],
                [
                    -484.260986328125,
                    -198.95030212402344,
                    -18.504188537597656
                ],
                [
                    -371.26385498046875,
                    -369.1247863769531,
                    -18.504188537597656
                ],
                [
                    -201.74513244628906,
                    -483.1033630371094,
                    -18.504188537597656
                ],
                [
                    -447.61279296875,
                    -207.72369384765625,
                    -174.0517578125
                ],
                [
                    -463.39288330078125,
                    -169.62721252441406,
                    -174.0517578125
                ],
                [
                    -334.0478820800781,
                    -363.2056579589844,
                    -174.0517578125
                ],
                [
                    -363.2056579589844,
                    -334.0478820800781,
                    -174.0517578125
                ],
                [
                    -169.62721252441406,
                    -463.39288330078125,
                    -174.0517578125
                ],
                [
                    -207.72369384765625,
                    -447.61279296875,
                    -174.0517578125
                ],
                [
                    -341.7381591796875,
                    -219.10887145996094,
                    -332.7429504394531
                ],
                [
                    -360.6229248046875,
                    -186.3994903564453,
                    -332.7429504394531
                ],
                [
                    -186.3994903564453,
                    -360.6229248046875,
                    -332.7429504394531
                ],
                [
                    -219.10887145996094,
                    -341.7381591796875,
                    -332.7429504394531
                ],
                [
                    -181.404541015625,
                    24.924575805664062,
                    -491.778076171875
                ],
                [
                    -332.40216064453125,
                    22.62035369873047,
                    -404.37213134765625
                ],
                [
                    -470.590087890625,
                    20.177169799804688,
                    -228.89678955078125
                ],
                [
                    -453.9552001953125,
                    19.334190368652344,
                    -261.0814208984375
                ],
                [
                    -26.99688720703125,
                    181.62799072265625,
                    -492.9515380859375
                ],
                [
                    -28.5521240234375,
                    318.81341552734375,
                    -417.70147705078125
                ],
                [
                    -23.4710693359375,
                    427.5037841796875,
                    -306.08526611328125
                ],
                [
                    -514.85107421875,
                    19.037506103515625,
                    -91.022216796875
                ],
                [
                    -484.260986328125,
                    198.95030212402344,
                    -18.504188537597656
                ],
                [
                    -371.26385498046875,
                    369.1247863769531,
                    -18.504188537597656
                ],
                [
                    -201.74513244628906,
                    483.1033630371094,
                    -18.504188537597656
                ],
                [
                    -447.61279296875,
                    207.72369384765625,
                    -174.0517578125
                ],
                [
                    -463.39288330078125,
                    169.62721252441406,
                    -174.0517578125
                ],
                [
                    -334.0478820800781,
                    363.2056579589844,
                    -174.0517578125
                ],
                [
                    -363.2056579589844,
                    334.0478820800781,
                    -174.0517578125
                ],
                [
                    -169.62721252441406,
                    463.39288330078125,
                    -174.0517578125
                ],
                [
                    -207.72369384765625,
                    447.61279296875,
                    -174.0517578125
                ],
                [
                    -341.7381591796875,
                    219.10887145996094,
                    -332.7429504394531
                ],
                [
                    -360.6229248046875,
                    186.3994903564453,
                    -332.7429504394531
                ],
                [
                    -186.3994903564453,
                    360.6229248046875,
                    -332.7429504394531
                ],
                [
                    -219.10887145996094,
                    341.7381591796875,
                    -332.7429504394531
                ],
                [
                    -209.074462890625,
                    -1.559427261352539,
                    -480.81964111328125
                ],
                [
                    -358.8338623046875,
                    -0.880218505859375,
                    -382.02117919921875
                ],
                [
                    -519.6982421875,
                    -0.18142318725585938,
                    -61.88557434082031
                ],
                [
                    -17.790786743164062,
                    512.6997680664062,
                    -103.4374771118164
                ],
                [
                    20.334671020507812,
                    512.4222412109375,
                    -103.63621520996094
                ],
                [
                    0.3787994384765625,
                    517.9120483398438,
                    -75.72093963623047
                ],
                [
                    17.790786743164062,
                    -512.6997680664062,
                    -103.4374771118164
                ],
                [
                    -20.334671020507812,
                    -512.4222412109375,
                    -103.63621520996094
                ],
                [
                    -0.3787994384765625,
                    -517.9120483398438,
                    -75.72093963623047
                ],
                [
                    18.39431381225586,
                    -23.431013107299805,
                    -525.4500732421875
                ],
                [
                    17.86872100830078,
                    22.640993118286133,
                    -525.7109375
                ],
                [
                    -24.458763122558594,
                    -23.50343132019043,
                    -525.2460327148438
                ],
                [
                    -23.676769256591797,
                    22.724058151245117,
                    -525.580810546875
                ],
                [
                    -1.3070144653320312,
                    -205.9407958984375,
                    -483.16522216796875
                ],
                [
                    -0.09983444213867188,
                    -340.885986328125,
                    -399.17034912109375
                ],
                [
                    1.3070144653320312,
                    205.9407958984375,
                    -483.16522216796875
                ],
                [
                    0.09983444213867188,
                    340.885986328125,
                    -399.17034912109375
                ],
                [
                    -356.25970458984375,
                    -359.177734375,
                    146.37881469726562
                ],
                [
                    359.177734375,
                    -356.25970458984375,
                    146.37881469726562
                ],
                [
                    356.25970458984375,
                    359.177734375,
                    146.37881469726562
                ],
                [
                    -359.177734375,
                    356.25970458984375,
                    146.37881469726562
                ],
                [
                    -356.25970458984375,
                    -359.177734375,
                    -146.37881469726562
                ],
                [
                    359.177734375,
                    -356.25970458984375,
                    -146.37881469726562
                ],
                [
                    356.25970458984375,
                    359.177734375,
                    -146.37881469726562
                ],
                [
                    -359.177734375,
                    356.25970458984375,
                    -146.37881469726562
                ],
                [
                    -202.73538208007812,
                    164.65286254882812,
                    453.866455078125
                ],
                [
                    -164.65286254882812,
                    202.73538208007812,
                    453.866455078125
                ],
                [
                    -164.65286254882812,
                    -202.73538208007812,
                    453.866455078125
                ],
                [
                    -202.73538208007812,
                    -164.65286254882812,
                    453.866455078125
                ],
                [
                    202.73538208007812,
                    -164.65286254882812,
                    453.866455078125
                ],
                [
                    164.65286254882812,
                    -202.73538208007812,
                    453.866455078125
                ],
                [
                    164.65286254882812,
                    202.73538208007812,
                    453.866455078125
                ],
                [
                    202.73538208007812,
                    164.65286254882812,
                    453.866455078125
                ],
                [
                    -202.73538208007812,
                    164.65286254882812,
                    -453.866455078125
                ],
                [
                    -164.65286254882812,
                    202.73538208007812,
                    -453.866455078125
                ],
                [
                    -164.65286254882812,
                    -202.73538208007812,
                    -453.866455078125
                ],
                [
                    -202.73538208007812,
                    -164.65286254882812,
                    -453.866455078125
                ],
                [
                    202.73538208007812,
                    -164.65286254882812,
                    -453.866455078125
                ],
                [
                    164.65286254882812,
                    -202.73538208007812,
                    -453.866455078125
                ],
                [
                    164.65286254882812,
                    202.73538208007812,
                    -453.866455078125
                ],
                [
                    202.73538208007812,
                    164.65286254882812,
                    -453.866455078125
                ]
            ],
            "landing_zones": {
                "rules": [
                    {
                        "max": 10,
                        "min": 0
                    },
                    {
                        "max": 10,
                        "min": 0
                    },
                    {
                        "max": 10,
                        "min": 0
                    },
                    {
                        "max": 10,
                        "min": 0
                    },
                    {
                        "max": 10,
                        "min": 0
                    },
                    {
                        "max": 10,
                        "min": 0
                    }
                ],
                "list": [
                    [
                        462.1737060546875,
                        3.399211883544922,
                        -252.0408935546875
                    ],
                    [
                        -466.8602294921875,
                        2.4679131507873535,
                        -239.566162109375
                    ],
                    [
                        -7.055273532867432,
                        -3.0085906982421875,
                        -526.406982421875
                    ],
                    [
                        2.2609786987304688,
                        -464.6142578125,
                        241.5467529296875
                    ],
                    [
                        -0.7433319091796875,
                        459.6004638671875,
                        252.5224609375
                    ],
                    [
                        -1.6168212890625,
                        5.2060546875,
                        526.53857421875
                    ]
                ]
            }
        }
    ]
}